4289 50
s9 -0.06289226 0.08217218 0.045504346 -0.03161583 -0.12901284 -0.25619504 0.32798558 0.30609554 -0.30134627 -0.15444344 0.0048836526 -0.17892514 -0.13443066 0.010080336 -0.14156137 0.06881184 0.017270982 -0.030550582 -0.14220977 -0.29081765 0.09330894 0.023650805 0.5067667 0.005734449 0.07344042 0.185283 -0.15389203 -0.09342726 -0.3973028 0.09138589 0.035177723 0.030929582 -0.0033216614 -0.097936586 -0.014534713 0.20322327 0.104045406 0.006937785 0.008373019 -0.1288001 0.0987635 -0.013423738 -0.1875109 0.052535046 0.44745877 0.05426254 -0.05592821 -0.13344175 0.28436074 0.2061039
s127 -0.05726501 0.053113557 0.0070107807 -0.020696005 -0.034670718 -0.1311008 0.16657722 0.13670763 -0.15959173 -0.048852336 -0.012670554 -0.09265368 -0.07207783 -0.018365934 -0.0683183 0.037487905 0.0010360313 0.002631752 -0.074850015 -0.13148344 0.05263727 0.025277356 0.25507015 -0.024254642 0.04546251 0.101993255 -0.060627054 -0.052701306 -0.20685491 0.032212142 0.023675725 0.022484884 -0.00093964743 -0.02240711 -0.015290405 0.10986003 0.05986682 -0.00077263516 -0.0045456165 -0.047664482 0.06208916 -0.014610656 -0.07644835 0.03019555 0.26153085 0.04351377 -0.036316287 -0.095341854 0.13919175 0.11177959
s3 -0.0572941 0.05513172 0.01969589 -0.027422626 -0.041585356 -0.1543394 0.17584968 0.18128304 -0.15933709 -0.09352225 -0.005462587 -0.12557656 -0.080473974 0.022366673 -0.062497057 0.061132938 0.038533457 0.0069130408 -0.088877834 -0.14034371 0.05547856 -0.0021392154 0.29002145 -0.018737344 0.037455264 0.12687466 -0.07836737 -0.040871482 -0.22358108 0.07184151 0.051234864 -0.00334827 -0.01535749 -0.045337796 0.0050842315 0.117171064 0.07527691 0.021819811 0.022946915 -0.039711237 0.08040146 -0.012953857 -0.107529506 0.022806853 0.2494718 0.052689243 0.0061187074 -0.086059734 0.16016915 0.11431598
s118 -0.013052922 0.02006459 0.016927233 -0.02066633 -0.07163058 -0.13160479 0.20905194 0.1952898 -0.18427426 -0.07005872 -0.019540748 -0.10370831 -0.077716395 -0.015917396 -0.07424712 0.05607192 0.02294905 -0.033272527 -0.06308416 -0.14689304 0.03922867 -0.009799503 0.30969992 0.0050399206 0.0373162 0.09124799 -0.112024575 -0.07026339 -0.22131228 0.053436417 0.009918971 0.026220774 -0.011939795 -0.06665862 -0.005427776 0.120577775 0.049172927 -0.0136434 0.016989408 -0.08578932 0.07941172 -0.019764062 -0.094762884 0.019640816 0.2621931 0.040073335 -0.01923309 -0.10369052 0.1375983 0.12370868
s51 -0.028128305 0.03667117 -0.0006607111 -0.0234027 -0.037040945 -0.09509001 0.13436265 0.13577203 -0.1553939 -0.05081472 -0.011084082 -0.089748435 -0.031214235 -0.0014350638 -0.044584826 0.020549882 0.014786692 0.002575992 -0.07638859 -0.13507949 0.023611497 -0.0056721745 0.21483923 -0.02657501 0.046928853 0.0691216 -0.05354856 -0.03893876 -0.18849185 0.053116933 0.038241223 0.002477247 -0.032251805 -0.042264994 -0.02523831 0.09091668 0.03223743 0.0149968425 0.009741189 -0.05822771 0.049153265 -0.0090043675 -0.07604024 0.04429917 0.20940967 0.033586197 -0.022641689 -0.07614771 0.10968261 0.08305159
s8 -0.040614594 0.043937404 -0.00859658 -0.0638892 -0.079997525 -0.16542932 0.17963651 0.16857508 -0.1768977 -0.092760265 0.009049167 -0.12935328 -0.05211022 0.013914609 -0.0885594 0.07978896 0.049591485 0.0030744786 -0.1014022 -0.13031301 0.063279256 0.021850549 0.29788804 0.009831583 0.017261887 0.15283878 -0.041417927 -0.042268157 -0.2386714 0.057510685 0.03638816 -0.014138608 -0.034384154 -0.032618728 -0.0007564041 0.10348705 0.056028355 -0.009167499 0.019962294 -0.058831897 0.059726138 0.020642076 -0.07025689 0.009954883 0.2889002 0.0546713 0.010710971 -0.08755122 0.18237992 0.105271935
s5 -0.058931492 0.0633396 0.008375138 -0.038801488 -0.03813405 -0.12900366 0.16055658 0.16419521 -0.10789713 -0.08854961 0.020013032 -0.08297222 -0.04534189 -0.0076443176 -0.03576794 0.038185775 0.043406997 -0.021083005 -0.09961436 -0.0986227 0.04611788 0.00046217695 0.2552654 0.03185714 -0.008300976 0.11828329 -0.03425694 -0.036043037 -0.18488719 0.051082786 0.030906158 -0.0048040296 -0.031219142 -0.033448957 0.014672256 0.12092345 0.081981905 -0.006523709 -0.028095549 -0.021428244 0.06745482 0.01984764 -0.0622189 0.0062411213 0.23737349 0.04240095 0.0050964984 -0.08290459 0.12804118 0.089736246
s134 -0.01998764 0.036438547 -0.005167306 -0.0408109 -0.053492475 -0.09540843 0.1263535 0.13250382 -0.10313792 -0.064795256 -0.0065795276 -0.057892498 -0.036272034 -0.00412491 -0.04000225 0.013273447 0.00037175626 0.01010709 -0.056316752 -0.12543187 0.04146467 -0.0015618225 0.19495459 0.022664089 0.019955736 0.07256715 -0.0747937 -0.02715999 -0.16071834 0.041925453 0.009411016 0.026081784 0.0058259065 -0.025037603 -0.006774616 0.07408696 0.053908516 0.020809274 -0.0036323252 -0.06784627 0.02623763 -0.0130811175 -0.07160362 0.020297484 0.2051786 0.019993665 0.0018297051 -0.07498516 0.10760796 0.0616669
s431 -0.06512592 0.06138564 0.0067716413 -0.03660953 -0.0618616 -0.15338764 0.21120395 0.20358348 -0.20899682 -0.07579141 -0.026998915 -0.11157657 -0.10299524 -0.002953168 -0.09671856 0.03390066 -0.004315985 0.0010603793 -0.075718746 -0.18971324 0.05530466 -0.0058759274 0.3544201 0.01786949 0.037184794 0.13658507 -0.10240628 -0.058528725 -0.28221387 0.06679495 0.050479565 0.028252479 -0.013053886 -0.07243574 0.015046455 0.123616815 0.051775802 0.021173978 -0.0019968867 -0.07771979 0.079771265 -0.03490011 -0.13357128 0.05856212 0.32999927 0.024871761 -0.016625479 -0.10413537 0.20010121 0.11165735
s173 -0.020022947 0.047903016 0.038622264 -0.034653135 -0.05151789 -0.12528431 0.117094055 0.11527529 -0.13450356 -0.07687361 0.0006711164 -0.093488604 -0.052732866 -0.0024399688 -0.06052725 0.024873864 0.018491764 0.011847649 -0.070087574 -0.101246305 0.021008305 0.019686691 0.22053464 0.0076734712 0.033728383 0.10548785 -0.07940531 -0.031073596 -0.15596463 0.021495992 0.0025395716 0.0014437082 -0.0021845093 -0.04169897 -0.019251792 0.07228084 0.05760105 0.015443948 -0.018481784 -0.06453782 0.055400528 -0.02486364 -0.06589511 0.019605521 0.21892737 0.00793977 -0.001289791 -0.057319354 0.12690216 0.090280876
s154 -0.05534846 0.04528127 0.017520195 -0.04385533 -0.07789111 -0.12710227 0.16987506 0.15719944 -0.16709363 -0.08563828 -0.016937956 -0.09863705 -0.07863023 -0.02576126 -0.073360726 0.01497999 -0.011168875 -0.025729073 -0.07368363 -0.14619933 0.022703817 0.005029171 0.275351 0.014668198 0.018616963 0.092754304 -0.07493707 -0.0761029 -0.19864844 0.063878715 0.03818979 0.001181125 -0.018318431 -0.0556528 -0.0053121503 0.1277784 0.05873051 0.023005504 0.013856526 -0.0711016 0.08113456 -0.031182675 -0.10122979 0.02940039 0.23693968 0.021504257 -0.019598307 -0.061143063 0.14172937 0.09324664
s7 -0.016246155 0.006018267 0.023018137 0.004857239 -0.052708283 -0.062227905 0.10815874 0.067319274 -0.095992185 -0.05391191 0.016083712 -0.055188727 -0.012732805 -0.020394176 -0.02780281 0.023967119 0.005477871 -0.0033272426 -0.058112778 -0.09296231 0.028480006 0.016745146 0.1556327 0.010598918 0.0154643 0.072813846 -0.059046898 -0.0222192 -0.10955726 0.036224294 0.031777367 -0.007375845 0.004837252 -0.03977129 -0.003833132 0.039680008 0.017561551 0.025907625 -0.0034161492 -0.027254637 0.053480223 0.012184244 -0.062133662 0.009874042 0.14943127 0.028089996 -0.013095959 -0.060988266 0.08064164 0.03905
s945 -0.026498288 0.045232497 0.021010248 -0.041524984 -0.085669726 -0.18814158 0.2529083 0.22841263 -0.23234046 -0.11577892 0.007650239 -0.1394381 -0.09553583 0.017991982 -0.10936043 0.0568261 0.0317945 -0.009155635 -0.09568529 -0.2200784 0.06258464 0.0035495427 0.40078256 -0.003998109 0.042451207 0.15419513 -0.12180759 -0.0923228 -0.29326606 0.07253866 0.057687517 0.046002522 -0.026586503 -0.049731266 -0.022149319 0.16117868 0.05063633 -0.007834069 -0.008893315 -0.10662121 0.115411386 -0.03145128 -0.10406723 0.028669655 0.35194486 0.06666049 -0.049726665 -0.1388961 0.19624484 0.13984808
s574 -0.025632633 0.011239828 -0.004547898 -0.01998829 -0.07013129 -0.13645892 0.14485945 0.12313432 -0.15815946 -0.089726664 -0.00077217916 -0.09447562 -0.042352147 0.0013218315 -0.072354205 0.048444845 -0.007037078 -0.028822295 -0.07790305 -0.13704914 0.033319324 0.018529724 0.22946738 0.006154716 0.041510615 0.06781585 -0.064728834 -0.03924976 -0.18837954 0.0635685 0.040448863 0.003623138 -0.033845507 -0.03626594 -0.009277579 0.083810106 0.05717475 -0.005030968 -0.008481056 -0.060099866 0.060736362 -0.0118621085 -0.08421016 0.027292412 0.20991054 0.029181683 -0.009543034 -0.08794197 0.122723244 0.101084426
s136 -0.008404247 0.018836835 0.030037256 0.0005473603 -0.053548343 -0.097013935 0.13599674 0.107543886 -0.13310602 -0.06920903 -0.0050002155 -0.07515442 -0.03805254 -0.0071089664 -0.05498161 0.034714743 0.012835161 -0.015415646 -0.0664999 -0.12908183 0.031941913 0.019266885 0.2018167 -0.02335023 0.012259945 0.08802977 -0.06894291 -0.030396102 -0.17108358 0.058259014 0.010152065 0.01985462 -0.01324241 -0.047173224 -0.012535497 0.08051908 0.020209748 0.006104984 -0.0110432105 -0.043518122 0.06959374 -0.01576913 -0.06988142 0.033378042 0.1996504 0.0119582005 -0.034368042 -0.06864474 0.12615265 0.07842034
s22 -0.040892918 0.021797631 0.029327363 -0.025020443 -0.050743584 -0.05759356 0.078631215 0.099127136 -0.09296909 -0.027696375 0.013041116 -0.06432933 -0.04404553 0.013761705 -0.037915993 0.03380335 -0.0178157 0.0050021955 -0.045129884 -0.10145507 0.031920496 0.0030605479 0.16883077 -0.00880113 0.016802995 0.06731094 -0.03313379 -0.04450192 -0.119976975 0.013947981 0.0064405203 0.008539275 -0.02524191 -0.01998852 -0.0018740047 0.064138025 0.037956305 0.03100284 0.021433512 -0.044566695 0.043284018 -0.01681787 -0.06951831 0.035267033 0.14167997 0.016678687 -0.015416455 -0.054936633 0.09545727 0.051299635
s221 -0.05006926 0.051014766 0.0209972 0.006445658 -0.0337744 -0.088378355 0.14238206 0.105960175 -0.13639544 -0.043891177 0.0022524348 -0.085352406 -0.025978472 -0.013937252 -0.03183236 0.028298456 -0.01183207 -0.01786051 -0.07023924 -0.11711103 0.03551684 0.024873052 0.21886688 -0.016797498 0.036366373 0.08380089 -0.067695834 -0.063001364 -0.15587556 0.023193799 0.03704533 0.00036401185 0.003970492 -0.011057115 -0.0051251817 0.09493581 0.030613877 0.027657004 0.0114035355 -0.070319906 0.044709664 -0.003964204 -0.06638196 0.024779562 0.18075882 0.020131668 -0.016024536 -0.05241787 0.09791104 0.065893136
s457 -0.02983277 0.03742155 0.013829953 -0.03581662 -0.045525115 -0.12637843 0.15819165 0.14854392 -0.1332863 -0.08730303 -0.017017512 -0.100376666 -0.03971357 -0.0051502115 -0.083095625 0.036374807 -0.001378372 -0.00042159774 -0.08600182 -0.12278898 0.021323703 0.010603638 0.25578833 0.013661595 0.011897513 0.08272954 -0.08738232 -0.06778948 -0.20957123 0.04358922 0.024506079 -0.0003512984 -0.0019131858 -0.034936868 0.00654808 0.103375584 0.044897072 -0.007766888 -0.002799086 -0.05044342 0.051922053 -0.00984245 -0.07315407 0.02420799 0.24455422 0.046835035 -0.015395343 -0.062439844 0.14306915 0.08135262
s21 -0.03028161 0.006543064 -0.007037867 0.011835836 -0.034292452 -0.0687476 0.06413555 0.076494485 -0.07648421 -0.03865171 0.0025740317 -0.047024895 -0.029822508 0.00021243237 -0.037179116 0.034429558 0.009110687 -0.029949298 -0.019816738 -0.0804162 0.0209347 0.012787833 0.10602718 -0.005175324 0.036515865 0.036664564 -0.05163674 -0.007788216 -0.09656161 0.012886116 0.03245754 0.015508529 0.005653081 0.000344321 -0.020462036 0.063020475 0.02473815 0.016667541 0.005853043 -0.021841135 0.038248368 0.006722313 -0.046976116 0.007627341 0.10523815 0.018391447 -0.016966235 -0.021900441 0.07265674 0.059785753
s1713 -0.038637944 0.06925921 0.017174412 -0.018072762 -0.06985833 -0.18858436 0.21138619 0.20205963 -0.19546533 -0.10167847 -0.012699122 -0.1121498 -0.06501323 -0.0057765516 -0.10186944 0.04256427 -0.001817924 -0.04014412 -0.090660945 -0.19459341 0.058972497 0.020613998 0.3404685 -0.022818934 0.04370866 0.12490598 -0.10186977 -0.08192284 -0.25713578 0.07132039 0.048310306 0.019538805 -0.0247253 -0.036091518 -0.0030079382 0.13361105 0.040732563 0.015970036 0.016569547 -0.07108734 0.06984407 0.00049623736 -0.10572866 0.057126068 0.3398378 0.027785502 -0.047646213 -0.0961024 0.2082893 0.13882893
s871 -0.020156922 0.039229147 0.03845849 -0.057572186 -0.09006286 -0.17013276 0.19390878 0.20103733 -0.19873226 -0.10730405 0.016223947 -0.12405674 -0.06028646 -0.015930792 -0.07083126 0.05629949 0.013458858 -0.02507605 -0.07069175 -0.18994366 0.0414102 -4.8037796e-06 0.3327246 -0.0141428765 0.019039575 0.13078806 -0.103316985 -0.075863205 -0.2274501 0.07289671 0.027024344 0.027622065 0.0021855829 -0.029526334 0.006872465 0.14153883 0.055193212 0.0049925894 -0.012479246 -0.074637175 0.07908014 -0.018889003 -0.11381316 0.05837489 0.27089146 0.020472674 -0.033378348 -0.102180935 0.15160137 0.120696485
s230 -0.038344037 0.027743243 -0.0011277506 -0.012064303 -0.0390758 -0.09145788 0.10644852 0.10570348 -0.09742888 -0.045480497 -0.021268917 -0.07501951 -0.03954565 -0.0007438897 -0.068945356 0.035859857 -0.015433236 -0.030155301 -0.04394805 -0.111348026 0.03688744 0.022052074 0.18123986 0.017883355 0.02881776 0.096376 -0.0462169 -0.06118063 -0.15323864 0.050972313 0.034802362 0.031562164 0.006262273 -0.012547781 -0.023640396 0.089134045 0.021405727 0.018436868 0.014070997 -0.03802068 0.062033493 -0.006003879 -0.06616864 0.03513758 0.16029717 0.021307684 0.0037566684 -0.067595765 0.1110871 0.053638916
s201 -0.005659305 0.04897322 0.016139193 -0.004979215 -0.041437652 -0.1036297 0.11236398 0.122499675 -0.119639434 -0.060584407 0.0043908064 -0.06125558 -0.04879597 -0.010926442 -0.036901325 0.012486887 -0.003990767 -0.026242543 -0.057330977 -0.11744391 0.020115918 -0.010356778 0.18772814 -0.019390719 0.005619048 0.05687432 -0.07222363 -0.022728456 -0.13733192 0.036835335 0.014760447 -0.0031927526 -0.0061089178 -0.027765706 -0.0026491326 0.08001167 0.034518573 0.009066996 -0.013860368 -0.056467306 0.027080795 -0.0128347855 -0.05783827 0.037412483 0.1663127 0.016339272 0.0058883023 -0.053545166 0.09681818 0.08579034
s858 -0.024664477 0.02970781 0.031423394 -0.022494487 -0.07961031 -0.14530529 0.18933661 0.18687086 -0.1782816 -0.09273444 -0.00038788514 -0.10386189 -0.06900609 -0.0061197095 -0.09115752 0.06016813 0.024989793 -0.0018954125 -0.09408307 -0.15122512 0.036019422 0.026787015 0.29668272 0.0049042804 0.037302423 0.12119552 -0.103603385 -0.047302317 -0.22941348 0.048932087 0.026571019 0.040180724 -0.033564568 -0.05204125 0.007598575 0.12004319 0.03241575 -0.0058641587 0.022539753 -0.056355342 0.08752337 -0.02229088 -0.111811996 0.044177327 0.27636823 0.022036731 -0.04532929 -0.097980365 0.14486934 0.10487396
s60 -0.02481344 0.015006325 0.028222887 -0.038250543 -0.024336444 -0.06669884 0.09638028 0.110348076 -0.06962427 -0.057031777 -0.013379326 -0.07223912 -0.05466868 -0.0048229974 -0.050979182 0.0062768054 0.009540458 -0.0015459454 -0.031548064 -0.08644737 0.015565612 0.006695589 0.15576293 0.018277416 0.016126754 0.077407986 -0.05945299 -0.015668279 -0.12484476 0.04984615 0.0026527618 0.011634029 -0.0060395924 -0.022003293 -0.013005937 0.045411166 0.014234194 -0.010621641 0.004875932 -0.032726858 0.034936685 0.008883852 -0.056977604 0.013346645 0.12389965 0.00010128267 0.0076881954 -0.05750101 0.073672466 0.07049333
s124 -0.015425745 0.018198956 0.009496163 -0.039889757 -0.037293892 -0.10602689 0.11538389 0.1229684 -0.08725933 -0.042064775 -0.021599935 -0.08665963 -0.03056686 0.007831736 -0.05577383 0.035885993 0.035740424 -0.0084527 -0.077645086 -0.09140007 0.0481314 0.016994182 0.19843173 -0.008139843 0.015512593 0.087505125 -0.03488359 -0.05250384 -0.16874298 0.040748328 0.0059428266 0.01631656 -0.013960634 -0.0048846095 -0.011562225 0.07953492 0.06071067 -0.0013520948 -0.010681769 -0.036161672 0.051309403 -0.0018212106 -0.048200566 -0.002058677 0.18412578 0.028264785 0.014746615 -0.04651731 0.12252656 0.0936387
s427 -0.048226852 0.055976223 0.00027570207 -0.027777895 -0.06432768 -0.123477854 0.1318347 0.121713266 -0.14815307 -0.069059215 -0.015272033 -0.07139901 -0.0768389 -0.014728191 -0.043389264 0.048145264 0.019782834 -0.0064680995 -0.05949552 -0.13884576 0.047766477 0.011324349 0.24980538 0.013321202 0.04564768 0.10928285 -0.09394845 -0.06413698 -0.1790283 0.06095651 0.040505204 0.028016638 0.0053917505 -0.04779222 0.009860689 0.08947619 0.020934176 0.030011872 0.0065992353 -0.061198905 0.051775835 -0.02054697 -0.07007326 0.037757352 0.2092189 0.011391791 -0.02590788 -0.07313024 0.14239919 0.08148397
s46 -0.030373346 0.034549568 -0.010233379 -0.023915432 -0.042717464 -0.09166335 0.12933652 0.113662794 -0.10885336 -0.039948028 0.010755948 -0.062934 -0.036193267 0.025048755 -0.030683745 0.035250913 0.037953563 0.0024483742 -0.045022447 -0.096511625 0.03350117 -0.0035020905 0.16919035 0.00854247 0.031293295 0.10821745 -0.04557673 -0.019133592 -0.1437062 0.03022223 0.02784865 -0.010198169 0.0062065865 -0.007829704 0.0058916598 0.087855436 0.06506496 0.019564396 -0.0009397646 -0.05266535 0.06255751 0.022246504 -0.05457789 0.009858411 0.16416895 0.020153264 0.018124608 -0.06606985 0.09343801 0.09815829
s1858 -0.017915681 0.06531689 0.020356514 -0.04966812 -0.052555922 -0.16340977 0.20911664 0.1990325 -0.16636376 -0.11418957 0.013331741 -0.13509594 -0.09308111 -0.02132579 -0.09483326 0.060604483 0.028056234 -0.023523731 -0.07451551 -0.17334685 0.06501724 0.019632123 0.3131299 -0.010603976 0.018979957 0.12998863 -0.094923034 -0.07208834 -0.22624487 0.0558154 0.016866481 0.016573112 -0.018488513 -0.060780298 -0.01851548 0.11165659 0.07286108 0.026318552 0.0049972767 -0.059527226 0.09771885 -0.019609576 -0.08676088 0.045430157 0.29251426 0.053480923 -0.036742467 -0.097473145 0.17179565 0.12605149
s348 -0.023226805 0.04971861 0.02589834 -0.04061676 -0.063073546 -0.13285953 0.17113034 0.15305205 -0.13966314 -0.06155708 -0.02148792 -0.10020193 -0.053943172 0.011195156 -0.05534912 0.04619067 0.0006486876 -0.023607735 -0.06286838 -0.13443424 0.023968447 -0.012093928 0.25503767 -0.0029706073 0.023802938 0.080655 -0.056641653 -0.049635064 -0.18284161 0.053584125 0.010600809 0.02030429 -0.0051571913 -0.05668663 0.0075562256 0.10443315 0.05614108 0.021043811 -0.0049507446 -0.071508564 0.07275106 -0.009316296 -0.070294656 0.04266962 0.22366947 0.015035907 -0.01930593 -0.054587882 0.12078127 0.11045493
s140 -0.0407602 0.04271459 0.01692301 -0.005648754 -0.05915526 -0.11219317 0.11922518 0.13095291 -0.13179575 -0.042798333 -0.012848332 -0.09579476 -0.061524976 0.010368317 -0.06787401 0.018567659 -0.010444774 -0.0029603615 -0.04914555 -0.10585225 0.026895782 0.017439703 0.19611314 -0.006026587 0.012428349 0.080218434 -0.06966346 -0.024902495 -0.16355732 0.02536848 0.011414486 -7.778564e-05 -0.0030920745 -0.013534988 -0.015645187 0.10319035 0.052972868 -0.005376534 -0.015222787 -0.030440284 0.067101955 -0.019620914 -0.08330865 0.041683737 0.19930552 0.040755145 -0.031855773 -0.080575265 0.11745492 0.05968227
s1141 -0.047348514 0.03861553 0.03857991 -0.013239655 -0.06879942 -0.13116574 0.19684106 0.16837169 -0.1534293 -0.067508206 -0.0032377746 -0.114175946 -0.08195045 -0.009104958 -0.057733327 0.027437873 -0.00011940476 0.0043618074 -0.06736204 -0.14414284 0.02848073 0.0039559184 0.30190855 -0.0126688415 0.048887827 0.13423783 -0.091393135 -0.06519991 -0.22682369 0.046357535 0.0144724585 0.018218245 -0.0234243 -0.03535717 -0.019577442 0.1301762 0.034470353 -0.0051776622 0.022115368 -0.05142897 0.06474277 -0.008546282 -0.10702306 0.019170687 0.25451842 0.047924962 -0.009455545 -0.07011492 0.17306267 0.12319031
s309 -0.027813861 0.011663049 0.01844053 -0.024179056 -0.031353198 -0.099631146 0.12308731 0.13976286 -0.11434049 -0.05834455 -0.010320991 -0.097496614 -0.06528568 0.020676065 -0.07103476 0.053823497 -0.007583967 -0.010750033 -0.06437728 -0.12372543 0.05382548 0.019388843 0.21129803 0.009727475 0.020584004 0.10669366 -0.040177282 -0.06227988 -0.17138545 0.039841264 0.03206143 -0.0013843207 -0.009046937 -0.042566 0.0041101086 0.09597032 0.052949224 0.000928125 -0.014774504 -0.06451736 0.049504194 -0.01677516 -0.08053092 0.030354444 0.20503521 0.0331243 -0.026735486 -0.07779406 0.13035682 0.08986076
s146 -0.027041476 0.006031251 0.011416204 -0.010458768 -0.032448202 -0.07484556 0.0929747 0.07846591 -0.114224784 -0.04831206 0.010207129 -0.050758187 -0.033516888 0.010832749 -0.043676782 0.035986982 -0.012798219 0.0042109187 -0.030326659 -0.07933784 0.04149778 0.020063074 0.16396128 -0.0066198013 0.021143494 0.03945568 -0.03331854 -0.050129842 -0.10963758 0.023807412 0.018136255 -0.004722179 -0.033815663 -0.044296797 -0.020757813 0.069947004 0.011607501 -0.00733877 -0.0071247118 -0.049980637 0.060334586 0.0013170319 -0.036665358 0.03478737 0.13344114 0.0324225 -0.036986522 -0.0586971 0.07089466 0.072095506
s1590 -0.030504256 0.059054516 0.025591664 -0.046693828 -0.037591323 -0.14595996 0.18427467 0.16938145 -0.16971694 -0.086076826 -0.00973185 -0.10906985 -0.040254466 -0.010501034 -0.04861169 0.007177213 0.008183026 -0.013305776 -0.051786315 -0.16281149 0.05767184 -0.01349948 0.25035104 -0.018967632 0.020073391 0.0886196 -0.09434453 -0.0744955 -0.20117381 0.05305552 0.026068002 0.028812848 -0.040276524 -0.05261128 0.00612381 0.124185674 0.016916323 0.026682813 0.023391485 -0.075246036 0.08621979 -0.035890725 -0.07280885 0.049025543 0.23563263 0.01772371 -0.03298632 -0.09022102 0.14616285 0.10094442
s648 -0.019450812 0.062375672 0.034003686 -0.03365038 -0.0351939 -0.12675408 0.16892302 0.15723431 -0.15204494 -0.064735256 -0.018134333 -0.10481278 -0.07993116 0.0013618589 -0.052520942 0.037283152 0.008387659 -0.0053294916 -0.04987554 -0.1524784 0.045359705 -0.008313856 0.2637737 0.02007339 0.046293765 0.11643644 -0.062477417 -0.0395517 -0.18566535 0.06966961 0.016820224 0.03580819 -0.0029198823 -0.0425622 0.0127856415 0.117595576 0.06347899 0.01692251 0.023008078 -0.057145443 0.07875165 -0.004686936 -0.07096022 0.023667565 0.25022477 0.04582508 -0.02322874 -0.082316376 0.14825037 0.08268345
s1744 -0.009494885 0.021735216 0.0037753102 -0.024988875 -0.04887011 -0.15469109 0.18944229 0.19332914 -0.18398118 -0.10086946 -0.014181522 -0.113402635 -0.06901691 0.018956963 -0.064877205 0.04442126 0.013951516 0.00011856388 -0.05614935 -0.143729 0.05610525 -0.00881661 0.28006816 -0.015004279 0.04246037 0.105617896 -0.10938208 -0.046878505 -0.20340964 0.05208461 0.049378313 0.016814373 -0.025420286 -0.045530666 -0.0066164425 0.11308828 0.052253976 0.020239335 0.019658258 -0.0876672 0.07144577 -0.02751754 -0.07616447 0.049192727 0.25086114 0.04036173 -0.039161976 -0.087038256 0.17423269 0.10251342
s2716 -0.038807157 0.020067412 0.0072540236 -0.025084728 -0.04292892 -0.088397 0.13221368 0.13462068 -0.10989529 -0.061763275 -0.0025432047 -0.060252726 -0.03485434 0.015250137 -0.06994937 0.052691776 0.017805766 0.0074959425 -0.06368847 -0.111539476 0.04828193 -0.0024635182 0.23419534 0.005790602 0.045498032 0.08440495 -0.07386912 -0.03384578 -0.19125888 0.028790992 0.012270939 0.013952963 -0.015973676 -0.018592296 0.015719755 0.089972086 0.040653504 0.01452767 -0.0015375578 -0.06811402 0.070227884 -0.018769944 -0.064132676 0.0464777 0.20942454 0.033332244 -0.008387997 -0.07169885 0.13046572 0.08440564
s304 0.00023756761 0.02749208 0.012688958 -0.00051183323 -0.046095498 -0.045336984 0.0939442 0.06244757 -0.06866442 -0.04762127 0.002263283 -0.03727864 -0.010602357 0.0013629212 -0.026464107 0.021687148 0.019686766 -0.019572904 -0.044457953 -0.0725424 0.012481955 0.013464125 0.10061926 -0.009137174 -0.0021019988 0.051460218 -0.04299887 -0.04394275 -0.08072235 0.042363126 0.00518645 -0.0047465116 -0.0026474404 -0.02258988 -0.024307061 0.064836524 0.0036876593 -0.0057222224 -0.004940737 -0.039982464 0.03490785 0.012516394 -0.028839517 0.03084219 0.10499191 0.01365508 -0.019165793 -0.054228734 0.070010535 0.049603716
s270 -0.057068564 0.030528853 -0.009120723 -0.044701956 -0.045925852 -0.11030188 0.16958696 0.15965623 -0.12684867 -0.074816875 -0.0065947436 -0.11618087 -0.06288866 -0.0022689847 -0.06345271 0.058636475 -0.0003843954 -0.02056349 -0.08839111 -0.13587783 0.037192058 0.009369279 0.25924164 -0.0076040467 0.012202694 0.11222749 -0.054046467 -0.039125048 -0.20906103 0.04359837 0.017629396 0.01018169 -0.010487984 -0.03073675 0.013301677 0.09926303 0.05200503 -0.0038983065 -0.0029173137 -0.07135125 0.060105488 0.00047675098 -0.10052427 0.04353686 0.21587636 0.013557086 -0.029287433 -0.06257576 0.15351999 0.12151982
s393 -0.0052314424 0.017497124 0.0018282323 0.008355884 -0.019559896 -0.047802992 0.069034435 0.06981293 -0.055722903 -0.036047507 0.005368935 -0.043114003 -0.01709174 0.0073081004 -0.026671782 0.0065683215 -0.005355339 0.0016659014 -0.041471984 -0.060215496 0.0148876505 0.011308518 0.093741596 0.015086019 0.010815947 0.028849065 -0.028706035 -0.027637277 -0.101958975 0.014009247 0.0110091325 -0.012319302 -0.007652293 -0.013326594 -0.009620079 0.052026536 0.02249702 0.023072992 0.0061736214 -0.0231844 0.037133083 -0.011973271 -0.051743325 0.029077884 0.09753295 -0.006142585 -0.02605924 -0.042935386 0.0669885 0.051127877
s139 -0.006452657 0.009022799 0.010551061 -0.0142708365 -0.046390824 -0.054804377 0.10120478 0.07780028 -0.104622595 -0.050883662 -0.0050597186 -0.03536385 -0.022559648 -0.02069771 -0.058971394 0.035744272 -0.0019590433 -0.0197391 -0.026195535 -0.09210708 0.03499205 0.0030408145 0.12978476 -0.00049253367 0.03376957 0.07387891 -0.04015193 -0.02095089 -0.12348863 0.026553717 0.0053060623 0.012098691 -0.010636271 -0.031204926 -0.018270783 0.082266085 0.031113261 0.002273331 -0.0044821454 -0.019550562 0.022291223 -0.0006773322 -0.047044277 0.03713205 0.14389725 0.010363355 -0.008316381 -0.045951564 0.058942024 0.04897213
s218 -0.01849334 0.038626168 0.02945693 0.0059044347 -0.052715216 -0.059562102 0.08148273 0.08632555 -0.087389834 -0.02788667 0.0049355365 -0.044817895 -0.016272794 -0.001181406 -0.05321131 0.007540771 0.017270822 -0.023205426 -0.0464911 -0.07338236 0.01885725 -0.009522864 0.1444858 -0.00068233657 0.02381883 0.07342173 -0.057892743 -0.02574207 -0.10387271 0.03466647 0.030107457 0.00067077216 0.0075130397 -0.03838935 0.0041888873 0.043148074 0.020597031 -0.011016501 -0.0021717043 -0.048472654 0.029053804 -0.005178924 -0.045959163 0.016496154 0.12056128 0.004268526 -0.010107323 -0.05279246 0.0644294 0.055111017
s1779 -0.01701921 0.05268033 -0.004411486 -0.0221996 -0.06958867 -0.15021175 0.16577418 0.15632416 -0.16948682 -0.09178427 -0.008665355 -0.08286598 -0.082092084 0.015506251 -0.07080196 0.041511014 0.028800467 -0.0046372525 -0.07665914 -0.13114148 0.047666542 0.019013556 0.2619978 -0.008715558 0.030806545 0.09292929 -0.077827625 -0.046268757 -0.19390348 0.072287336 0.013312957 0.005810362 -0.0018237026 -0.037216898 -0.018490395 0.11067229 0.05038824 0.004658725 -0.0062342994 -0.051592734 0.08638976 -0.027117593 -0.085286014 0.026442058 0.22467774 0.029818434 -0.032472745 -0.061443012 0.13200913 0.10709458
s1313 -0.038304288 0.054885637 0.022241293 -0.009437211 -0.05931266 -0.14902373 0.17326838 0.1708316 -0.17193815 -0.09752617 -0.018147517 -0.115302764 -0.058313683 0.005997047 -0.053812973 0.053473283 -0.0059568244 -0.0064886957 -0.05652419 -0.14662829 0.05168931 0.018426824 0.26318294 0.018882366 0.045134883 0.13215312 -0.10148709 -0.047086004 -0.20532976 0.05288046 0.01746265 0.030084372 -0.029399527 -0.053745966 0.003383606 0.13328092 0.06599961 0.0021254546 -0.01515838 -0.045350704 0.07940561 -0.020831497 -0.11147478 0.024400566 0.2500897 0.027535725 -0.018756209 -0.086570315 0.14926723 0.09511
s569 -0.008040036 0.024435718 -0.0012916748 -0.0039660074 -0.032226715 -0.075296395 0.10740459 0.09909849 -0.108724125 -0.056415327 -0.027193401 -0.07197537 -0.043447442 0.010962147 -0.031977717 0.030085912 -0.0057573225 -0.008409493 -0.057270743 -0.08766909 0.01781998 0.009976876 0.18833917 -0.0111309765 0.0064330604 0.09099982 -0.076934405 -0.039943617 -0.139877 0.052727487 0.003029588 0.021080079 0.011688843 -0.042873837 -0.01021271 0.08939895 0.04550843 0.010495993 0.01817183 -0.042428985 0.045706913 -0.014192878 -0.080198094 0.02992476 0.18148965 0.0049323444 -0.012388518 -0.058200892 0.1066742 0.09001869
s869 -0.026498996 0.01324493 0.031392336 -0.041236408 -0.06867349 -0.10963585 0.11714027 0.1255687 -0.11745684 -0.06810257 -0.014478288 -0.07924394 -0.055322558 0.008742652 -0.03769909 0.047912233 0.02774077 -0.036123153 -0.034253713 -0.11714262 0.051864106 0.011950089 0.21980692 -0.023011964 -0.0013127226 0.10184209 -0.06912807 -0.04061517 -0.14630021 0.042981174 0.045203913 0.014949381 -0.037616204 -0.047467176 -0.008490148 0.07042583 0.051531076 0.008581271 -0.018599939 -0.028308094 0.077036396 0.004196245 -0.04979563 0.001516453 0.1904675 0.006212249 -0.026938356 -0.068005554 0.11313568 0.08474738
s16 -0.006191571 0.020503446 0.016731653 0.008020866 -0.03403264 -0.027423313 0.07071529 0.07470315 -0.045457248 -0.032075383 -0.010542648 -0.03457925 -0.026777942 0.018447144 -0.022573698 0.020324685 0.008578267 -0.024982242 -0.010732924 -0.032498796 0.010295999 0.0068101934 0.079308555 -0.013649526 0.02913182 0.02932121 -0.014935915 -0.015581738 -0.07597291 0.023459474 0.0011573499 0.0031032595 9.150742e-05 -0.004525131 -0.0047442475 0.039428014 -0.000627458 0.024513591 -0.016852515 -0.007637228 0.028640008 -0.019517083 -0.04261227 -0.004876931 0.07575164 0.02495537 0.012348649 -0.023201866 0.05198706 0.054215945
s133 -0.023486499 0.014554032 0.014787123 -0.024458513 -0.040049948 -0.06495235 0.07902343 0.0661246 -0.06378046 -0.045196544 7.792196e-05 -0.028383166 -0.028843155 0.002587131 -0.033478525 0.023204068 0.004899472 0.014575987 -0.045107547 -0.061607484 -0.0043041795 0.002094576 0.08035037 0.012864031 -0.0030367835 0.026632836 -0.018176774 -0.037424892 -0.0691686 0.0032404275 0.029491214 0.023020709 0.0016396927 -0.0029324088 0.00829849 0.027013225 0.038808446 -0.016853167 0.0152422795 -0.0167146 0.014254382 -0.011351962 -0.014913411 2.812075e-05 0.1048832 -0.0006823699 0.010842164 -0.029543774 0.07054897 0.03065013
s769 -0.0047337343 0.040760268 0.016703041 -0.014737658 -0.029257277 -0.06612896 0.12745576 0.11981277 -0.08758018 -0.033349633 0.015364213 -0.061311297 -0.044105634 0.001996254 -0.046243247 0.027877003 -0.012132459 -0.032113656 -0.04768486 -0.07511344 0.018376475 -0.009377675 0.18174322 0.00029457558 0.023842912 0.07258448 -0.048073202 -0.024979493 -0.12884633 0.037663437 0.037690718 0.018186249 -0.020644411 -0.015983822 0.007453607 0.077751584 0.01963884 0.010886934 0.0150432065 -0.026992137 0.04794604 -0.027314568 -0.054772634 0.02173021 0.16123061 -0.00030364294 0.0018875839 -0.069262974 0.10418666 0.044924352
s1992 -0.005323905 0.05046037 0.018757928 -0.031281397 -0.052466564 -0.11813446 0.13796245 0.1566763 -0.13868473 -0.06495019 -0.019823695 -0.07028013 -0.059607565 -0.0022870908 -0.08346404 0.04393234 0.020145409 0.0017455566 -0.07624435 -0.14356181 0.025340725 0.0033642666 0.22156511 -0.018071808 0.020084128 0.09449867 -0.09503289 -0.05995592 -0.18282169 0.061655242 0.030533727 0.015034627 -0.030794062 -0.050724003 -0.0069156643 0.11384476 0.05221843 0.0057709534 0.0069948253 -0.0773353 0.060544997 -0.024552383 -0.06589109 0.02437323 0.20729682 0.010624215 -0.024097055 -0.08768261 0.12760569 0.08154124
s53 -0.015158411 0.004113873 -0.0130086625 -0.006664536 -0.013460472 -0.040990103 0.026776757 0.032508936 -0.060053345 -0.020731376 0.010321615 -0.030551746 -0.008833115 0.009169753 -0.0013366609 0.018736491 0.021264883 -0.024704354 -0.035854146 -0.049955226 -0.0052226977 -0.014723348 0.05100378 -0.008310617 0.013844945 0.019296002 -0.039049152 -0.0044553094 -0.05136476 0.02407348 0.022444412 0.01995677 -0.0038562363 -0.0023835243 -0.012512392 0.033467513 0.020743584 0.02437669 -0.005003819 -0.009805073 0.0061729713 -0.008456911 -0.004957508 0.0008840348 0.058952115 -0.009535217 -0.027063277 -0.0017903029 0.023589244 0.036098823
s556 -0.033114366 0.018795576 -0.0057020714 -0.0058394037 -0.027571233 -0.07877609 0.13267902 0.105010904 -0.12584691 -0.036486704 -0.011479167 -0.05140284 -0.034937352 -0.0016035525 -0.06380408 0.025651019 0.019180624 -0.02603452 -0.042824455 -0.11448051 0.044771135 -0.0024138624 0.19809651 -0.012138429 -0.0006697482 0.04954352 -0.06289531 -0.030120656 -0.13937478 0.05610472 0.02621131 0.019366551 -0.0051527014 -0.011851506 -0.007941267 0.08740952 0.009027902 0.010617795 0.0011473261 -0.0421817 0.060041033 -0.015441835 -0.06311276 0.022143267 0.16016504 0.011599094 -0.003979494 -0.06941042 0.114032015 0.06834301
s1195 -0.012260347 0.03229835 0.00938669 -0.016442996 -0.044098563 -0.08083169 0.11505237 0.10031965 -0.12445474 -0.07789961 -0.002517344 -0.07818728 -0.048554715 -0.007789631 -0.067323186 0.030644916 0.018296849 -0.013982487 -0.062116116 -0.088769734 0.027545134 -0.00666229 0.17680183 -0.0017480984 0.011271854 0.046398696 -0.04022984 -0.031898405 -0.14365147 0.05176723 0.021707743 0.027719818 -0.015391404 -0.012496859 -0.00534537 0.060944006 0.020563465 0.025009992 0.0052336175 -0.040597018 0.065241724 -0.02338432 -0.060807068 0.00632527 0.14869729 0.0048282035 -0.01081416 -0.047474243 0.10963003 0.07192274
s483 -0.016403778 0.037293285 0.006867177 -0.0104369335 -0.021110093 -0.08395608 0.12372175 0.088153705 -0.09022154 -0.040275123 0.008530957 -0.08412563 -0.04263524 0.005057271 -0.05939211 0.012450445 0.016963908 -0.025589542 -0.057043515 -0.07857137 0.013449393 0.022227677 0.17425783 0.0074642757 0.015132159 0.05555045 -0.07043285 -0.03702973 -0.14614235 0.028334262 0.036240667 -0.003489213 -0.023302194 -0.039650355 -0.017277328 0.053585418 0.02646527 0.025174014 0.01930472 -0.051898967 0.028585417 -0.013421303 -0.07710247 0.011326004 0.1457193 0.026072377 -0.031386875 -0.051911086 0.09949493 0.07666842
s1461 -0.031133823 0.01593013 0.025950078 -0.04208303 -0.04728113 -0.12268074 0.17714626 0.15583402 -0.15282157 -0.06192282 -0.017396862 -0.110227324 -0.056665584 -0.0054073357 -0.07641604 0.033659033 -0.012508917 -0.012776377 -0.065731555 -0.14130668 0.043468524 0.016032062 0.26562822 -0.018852174 0.016001532 0.080185294 -0.09741386 -0.060926728 -0.19631843 0.03306457 0.016342964 0.014625393 -0.0017658938 -0.034386 0.011320242 0.08513354 0.03140424 0.004828758 0.020132942 -0.057880443 0.06819569 -0.011424627 -0.07452535 0.0127255 0.23549682 0.041097064 -0.011072649 -0.06605849 0.120962955 0.08611549
s1315 -0.012989763 0.03442257 -0.005478936 -0.012267998 -0.06536212 -0.10033956 0.15623179 0.1290492 -0.12978399 -0.055352237 -0.01254226 -0.08894189 -0.03919274 0.017232025 -0.08030689 0.04959012 0.0260789 -0.020366516 -0.056321796 -0.12896055 0.054960337 0.004840283 0.24525836 0.017589455 0.03645959 0.07987135 -0.073855 -0.04592408 -0.17952923 0.052906863 0.0461222 0.02547185 0.0076269056 -0.052308753 -0.015893089 0.1026196 0.047218297 0.0071335877 -0.010109696 -0.060239207 0.039870504 0.0076379846 -0.06883628 0.012202308 0.2197402 0.037890255 -0.028604541 -0.08234899 0.12856185 0.10585823
s768 -0.04740533 0.032433763 -0.0010218555 -0.021775575 -0.036714464 -0.10707369 0.11738855 0.11773025 -0.13064271 -0.03999698 0.0035340881 -0.0903007 -0.053959407 0.0038131122 -0.06791733 0.0117340125 -0.0128674675 -0.020814383 -0.033720177 -0.089877285 0.0378945 -0.012789596 0.20726828 0.007928642 0.024235936 0.060281202 -0.06341034 -0.040648356 -0.16987506 0.044981416 0.022664856 -0.00046023214 -0.02723059 -0.018394278 -0.018942952 0.07022823 0.045094885 0.006999328 -0.0035370046 -0.056703556 0.045296453 0.00042930915 -0.07665281 0.013137023 0.17043754 0.0139540015 -0.030880366 -0.07942665 0.12445865 0.0898649
s225 -0.024942111 -0.0012198346 0.004035722 -0.018857388 -0.0066021467 -0.047569457 0.058563672 0.059470695 -0.08762232 -0.027289746 -0.011179794 -0.04721144 -0.017708216 0.014354772 -0.019788237 0.0006781476 0.014874969 -0.02552596 -0.043891825 -0.07614275 0.01341715 0.004032545 0.10473828 0.0012895414 0.032573022 0.05759507 -0.037840035 -0.0043231617 -0.08454743 0.017301364 -0.0020425767 0.021848071 -0.02359011 -0.02021085 0.013950332 0.040411185 0.02302422 -0.0093982285 0.010791297 -0.012175193 0.007764854 -0.014035737 -0.021005189 0.02139043 0.10589956 0.014815235 -0.028521907 -0.013677657 0.058040433 0.033796187
s771 -0.01245956 0.026737867 -0.0009672481 -0.0065206015 -0.04679274 -0.10338462 0.13026598 0.12361975 -0.09086814 -0.05042011 -0.0008259356 -0.08282855 -0.03442475 0.017573155 -0.049595367 0.024195235 -0.0035868292 -0.01346803 -0.06173355 -0.08680956 0.031298563 0.0237147 0.16916847 -0.014849243 0.008262931 0.054326266 -0.05299326 -0.027988765 -0.13673368 0.043544587 0.00038661005 0.011096066 -0.02625773 -0.022001898 -0.009845837 0.094627626 0.022379313 0.01775833 0.011768236 -0.040776618 0.045748875 0.0069628246 -0.052065916 0.039553333 0.17153499 0.033667855 -0.0051999064 -0.073602706 0.085983515 0.072363205
s232 -0.024485625 0.033690754 0.013637997 0.0018699904 -0.05152548 -0.08350366 0.124723256 0.10742483 -0.093811765 -0.040552683 -0.006287121 -0.080489114 -0.037034318 -0.02224488 -0.05072656 0.0045036515 0.0026088662 -0.029989831 -0.030753886 -0.10569332 0.049472425 -0.016204216 0.16605075 0.004904002 0.013961652 0.073500775 -0.062594965 -0.0398332 -0.14925097 0.013837507 0.031994037 0.011603241 0.006399865 -0.044737354 0.007990349 0.052765835 0.04598094 0.02204881 -0.011178407 -0.025221836 0.030477291 -0.025723493 -0.057560083 0.028546989 0.14340486 0.001073317 0.005587899 -0.04934927 0.09994666 0.0706408
s762 -0.033125263 0.03346704 0.016003363 0.0039862734 -0.05101923 -0.08642532 0.12963234 0.09686651 -0.13072251 -0.034121387 0.007352402 -0.07559355 -0.03543812 -0.0017034394 -0.058489867 0.02143618 -0.008699878 0.0027024366 -0.044404883 -0.11809023 0.029968057 4.9259077e-05 0.2014195 -0.00405924 0.03993732 0.07647088 -0.06668427 -0.022563728 -0.1405752 0.028696664 0.0082964115 0.008075026 -0.019539988 -0.02251825 -0.021176608 0.06568997 0.03884556 0.008344989 0.014603285 -0.05126871 0.04343784 -0.0049455934 -0.05029789 0.02736059 0.19354571 0.030568616 -0.02980012 -0.05997963 0.08634649 0.05987787
s295 -0.022552123 0.0025665727 0.0292726 -0.008979606 -0.035374057 -0.0807667 0.06932348 0.061579756 -0.06461497 -0.04438101 0.006051457 -0.05987616 -0.014347479 0.004975987 -0.03512245 0.010829431 0.0028133742 -0.01653997 -0.021180194 -0.067929976 0.024263695 0.010247204 0.14656466 -0.014151986 0.035431076 0.057853196 -0.056263074 -0.012525627 -0.111098796 0.045450117 0.013118426 0.023801146 -0.0015743017 -0.032999527 -0.01008646 0.077479795 0.027463175 -0.0053016874 0.0012601266 -0.03835968 0.03764617 -0.023666034 -0.031888954 0.020626104 0.14375886 0.02461869 -0.020555401 -0.03333853 0.075848244 0.03287548
s13 0.005318602 0.031837523 0.025547992 -0.013816888 -0.03428546 -0.025943875 0.030746074 0.060056094 -0.039423306 -0.009987476 0.010307517 -0.026323695 -0.022904528 0.00011395339 -0.0007819736 -0.00482716 -0.003052 -0.0097914385 -0.009392608 -0.029551744 0.0029873862 0.009848401 0.06564859 0.005356366 0.02733759 0.03581729 -0.03353007 -0.022184018 -0.04211737 0.033474833 0.020197865 -0.00043868233 -0.006058373 -0.02418161 -0.0108457375 0.03866249 0.0001930191 -0.009170947 0.017815625 -0.00028700908 0.03444908 -0.0022501757 -0.0427663 -0.0045689153 0.071490444 -0.011120321 -0.021293826 -0.017565625 0.03576375 0.008968949
s226 -0.0048175463 0.0031986583 -0.0063496176 -0.017535876 -0.027264886 -0.06894619 0.07323756 0.093644276 -0.06108348 -0.05264772 0.01689113 -0.033847917 -0.0492825 -0.004694768 -0.025752682 0.03260051 -0.0048981193 -0.021544628 -0.02539516 -0.091214634 0.008963329 -0.00034990927 0.14490528 -0.0126199145 0.02637095 0.053047843 -0.036587425 -0.014258255 -0.10180469 0.042554967 0.014385686 -0.00742453 0.012440069 -0.032125395 0.0075212945 0.047246058 0.008792166 -0.0060606017 0.009857926 -0.033736635 0.034327816 -0.026178034 -0.054832928 0.0032610719 0.14149754 -0.002475031 0.0015800272 -0.041389212 0.074810095 0.06845422
s204 -0.022255702 0.005738188 0.009750075 0.0039148508 -0.0057401834 -0.06325408 0.07739804 0.078182675 -0.07843292 -0.019290727 -0.017396148 -0.036188412 -0.020969126 0.0076475935 -0.040011045 0.019685362 0.01565158 0.012932457 -0.048193857 -0.05060935 0.02784056 0.0006151987 0.13257846 -0.009237813 0.010352531 0.030189948 -0.045046758 -0.02380484 -0.09488646 0.010786728 0.02423181 -0.001477765 -0.016990744 -0.0025887112 0.017990753 0.05475468 0.020267889 0.0051723085 -0.00080665783 -0.014568403 0.012909598 -0.0062466674 -0.030577224 0.011032268 0.107158184 0.020671416 0.009940407 -0.030613394 0.08317245 0.032168716
s14 -0.0007127872 0.0063390145 -0.0023752097 -0.007931895 -0.031075766 -0.05949589 0.06862628 0.07370821 -0.071756154 -0.047310993 -0.0073401397 -0.019085106 -0.043108646 0.018165063 -0.026900537 0.02054071 -0.0017898476 -0.02092244 -0.01747532 -0.041331634 0.0009774136 0.00011520928 0.0996502 0.0075294925 0.026378151 0.028659908 -0.016536552 -0.03293312 -0.07887101 0.038185164 0.021525625 -0.009809538 -0.008570976 -0.03448945 -0.0064023403 0.05256892 0.0024626697 0.013074366 0.014195522 -0.03144438 0.0052477196 -0.010087554 -0.038061015 0.019828836 0.10425685 0.014127631 -0.013951234 -0.024913492 0.038522042 0.035009466
s777 -0.0190024 0.04026041 -0.0029123265 -0.029935082 -0.030842798 -0.072176106 0.08528167 0.08202538 -0.09696148 -0.052471418 -0.020004265 -0.06558764 -0.044722892 0.012504869 -0.041792434 0.026568707 0.003386485 -0.016234979 -0.032862358 -0.08333805 0.03607693 0.0032424594 0.13881765 -0.00019886876 0.039751157 0.04715326 -0.061398372 -0.038324982 -0.10325987 0.029393867 0.035650343 -0.0063659456 0.00765435 -0.04549272 0.015173608 0.067044236 0.02932452 -0.007612948 0.02151761 -0.026947957 0.028542096 -0.028557457 -0.036849253 0.009334313 0.12123222 0.023206819 -0.024936756 -0.06330783 0.10440218 0.055531833
s319 -0.024683887 0.01832245 -0.0015207125 -0.028669728 -0.04710895 -0.093466334 0.08734997 0.118923664 -0.082231686 -0.05578585 0.0031281053 -0.07772528 -0.024903895 0.017220017 -0.04026147 0.012773957 0.002061555 0.0018714265 -0.0523661 -0.07816598 0.045698404 0.012131191 0.15308161 0.0110699115 0.010457164 0.055377185 -0.031199217 -0.051779367 -0.13165861 0.031770926 0.002874082 0.005107975 0.00036634173 -0.033690643 -0.015019586 0.080219895 0.024309741 -0.009476336 0.0027010618 -0.037008256 0.057033863 -0.002671771 -0.036492273 -0.0036735088 0.15915133 0.03457589 -0.0077518686 -0.057012133 0.09275535 0.06176235
s443 -0.03607482 0.010474339 0.011657062 -0.019881878 -0.016681267 -0.08195373 0.1170631 0.1002214 -0.07743229 -0.0672609 0.0029754061 -0.06356347 -0.03513395 -0.0008877022 -0.056485653 0.044461608 3.5874946e-05 -0.006066146 -0.057929076 -0.07820935 0.04599174 0.0026149997 0.1742534 6.7450324e-05 0.03380488 0.08457615 -0.046637684 -0.03745349 -0.14690945 0.05234391 0.0113995215 0.014312271 -0.012002055 -0.006984987 0.013459395 0.07085922 0.036255512 0.018414728 0.005958667 -0.02294473 0.04069302 -0.01027109 -0.04311417 0.011269379 0.14183325 0.039704904 -0.031459708 -0.056879375 0.08199547 0.07388547
s544 -0.003961872 0.012892793 0.022497293 -0.015649183 -0.053920813 -0.08004616 0.094109796 0.08201524 -0.09201887 -0.05478612 0.0085804425 -0.03761595 -0.041644014 0.004616378 -0.042260204 0.019314023 -0.01101357 -0.00681801 -0.03248858 -0.06809978 0.036526565 0.010460523 0.16283964 -0.014992155 0.014306629 0.04997065 -0.033357352 -0.017256547 -0.13007997 0.032599244 0.027038572 0.013543027 -0.005459869 -0.039130617 0.018436596 0.04799433 0.014352938 -0.0041586403 -0.01056235 -0.043523863 0.017648008 -0.0045207664 -0.059395015 0.013799036 0.15388297 0.02539008 -0.007962695 -0.04931542 0.10624199 0.058493778
s1502 -0.011707193 0.04662874 -0.008432261 -0.040794354 -0.020891601 -0.08887657 0.11593651 0.1222028 -0.12057095 -0.07026195 -0.0181443 -0.053737 -0.051156264 -0.015767872 -0.061837383 0.042402677 0.002063523 -0.023828108 -0.052493803 -0.10425544 0.022796987 0.00025707352 0.19633049 0.0032313336 0.013091591 0.07859412 -0.047198065 -0.0588677 -0.160918 0.05183452 0.003183735 0.013804537 -0.030198937 -0.011488739 -0.012355436 0.064708516 0.02948125 0.0023425187 0.0178761 -0.026118955 0.048753098 -0.0033641392 -0.05152401 0.022821687 0.15763035 0.02172693 -0.011447531 -0.04208408 0.09538056 0.050151315
s245 -0.0064471615 0.03949449 -0.007922353 -0.018577626 -0.037881747 -0.051422603 0.10156616 0.0772141 -0.06117472 -0.023402413 0.0068545216 -0.06459524 -0.025199523 -0.002181094 -0.035710577 0.030807592 0.006229035 0.01485895 -0.03866606 -0.063873254 0.017622057 -0.014739075 0.10624799 0.01164638 -0.00214122 0.059442855 -0.027178017 -0.03987722 -0.10601887 0.014891239 -0.0032828264 0.0056649484 0.013188792 -0.03168209 -0.008702267 0.069770835 0.045592867 0.023646282 -0.021502277 -0.017458567 0.017911656 0.012551821 -0.027523534 0.0040056286 0.13138838 -0.00027404886 0.005218951 -0.03120304 0.082811706 0.061571866
s39 -0.01368197 0.01827832 -0.008024797 -0.01959116 -0.012435731 -0.055567052 0.04606645 0.045934808 -0.029259212 -0.035746083 -0.0051882854 -0.03566443 -0.028047439 -0.0027321228 -0.010761218 0.0011423512 -0.002326995 0.011163879 -0.021936703 -0.04735141 0.027191529 0.004670587 0.07278685 0.018394444 0.026951505 0.03374711 -0.016640779 -0.02083438 -0.041026775 0.026384816 -0.0029198865 -0.0069763875 -0.00571865 -0.029192714 0.004793494 0.012369699 0.008244572 0.009977258 0.0075388835 -0.011958257 0.0007324782 0.00305028 -0.012797013 0.016937016 0.08259366 0.010954349 0.00510636 -0.0052584 0.037589476 0.025697155
s2782 -0.011504458 0.0052430476 0.019298574 -0.023809515 -0.034811337 -0.06553687 0.09644736 0.0820065 -0.077643834 -0.042448916 -0.007513191 -0.0492067 -0.04218429 -0.0089957155 -0.032242786 0.027642936 0.00655293 0.0081336135 -0.032360896 -0.07381172 0.0043678354 0.014740848 0.14147356 -0.012247027 0.024318736 0.07083186 -0.052268296 -0.032788713 -0.118797705 0.0324885 0.0058730575 0.012589178 0.011708664 -0.036587648 -0.021042401 0.056482244 0.004793305 -0.014183119 -0.018039338 -0.030173333 0.028673004 -0.005396838 -0.04445096 0.032708433 0.135598 0.002727781 0.008263278 -0.057328016 0.06709733 0.053704143
s968 -0.019766737 0.015732754 0.0101058595 -0.01242993 -0.053558998 -0.08236157 0.07614192 0.09472517 -0.08920917 -0.055735525 0.0071689566 -0.053601313 -0.030720009 0.009709194 -0.04741256 0.036289092 -0.012952645 -0.015649661 -0.053800534 -0.0787406 0.009167211 0.022091325 0.15804528 -0.015420648 0.031076854 0.07249421 -0.06098593 -0.022164032 -0.1315389 0.048004393 0.025872054 0.010554689 -0.02543181 -0.024418574 -0.0033242982 0.06329345 0.042727686 0.0015457632 -0.015964057 -0.053789448 0.03383911 -0.0047022556 -0.04823299 0.014707246 0.15327625 0.01713452 0.0016569404 -0.035521455 0.06704346 0.0507474
s56 -0.029406834 0.00065143435 -0.0017015964 0.0061001875 -0.019996645 -0.023484822 0.04869849 0.038306195 -0.041957613 -0.019444931 -0.0016223369 -0.035723977 -0.032448422 0.0070684003 -0.03727163 -0.0062153055 -0.015934091 0.012155078 -0.015829047 -0.032596555 0.034464043 -0.011965795 0.09180502 0.005132203 0.023169324 0.02668851 -0.006189677 -0.02919242 -0.051535442 0.031439368 0.008763377 0.015097858 0.010271882 -0.009795268 0.013493509 0.040170185 0.0127300285 0.019293556 0.0111907115 -0.026699413 0.023536252 -0.0039558467 -0.018012043 -0.0012856442 0.06889857 0.007919479 0.0016850613 -0.03988941 0.06300671 0.025753828
s1737 -0.015136372 0.035973016 0.027359596 -0.03054812 -0.043961305 -0.08338378 0.10537004 0.12313607 -0.1237932 -0.04571927 -0.0011564676 -0.066683434 -0.035638615 -0.009516263 -0.053522617 0.00037084165 0.0083819255 0.0034944718 -0.059745807 -0.077096194 0.036518715 -0.012288476 0.1770659 0.004451203 0.0022031514 0.069237985 -0.046662983 -0.024938306 -0.12844189 0.0428265 0.015977832 0.0027475073 -0.00033238876 -0.048071805 -0.007079355 0.06525715 0.041115597 -0.0063329376 0.017030487 -0.042109553 0.037356548 -0.02556402 -0.08152629 0.029560117 0.13981679 0.033306576 -0.023239907 -0.07662353 0.0853088 0.0828452
s1427 -0.02333632 0.039201844 -0.008725402 -0.038510695 -0.050640848 -0.08605584 0.09696614 0.08640328 -0.12107199 -0.05474244 0.013347182 -0.081485026 -0.055073123 0.0018914865 -0.04019819 0.009772896 0.023840304 -0.027388318 -0.035484932 -0.07421879 0.039756656 0.016027754 0.19437885 0.006668476 0.002019995 0.08125109 -0.070183605 -0.047909133 -0.12287867 0.019454151 0.007979538 0.0039025175 -0.0034999389 -0.014908119 0.000897153 0.08219347 0.023958288 0.014228329 -0.012524115 -0.044072706 0.029364899 -0.007805501 -0.046361968 0.031231118 0.15007137 0.025434447 0.0021218522 -0.06526859 0.08751523 0.06474568
s976 -0.027644766 0.039043985 0.023369793 0.007305324 -0.0108926315 -0.07942073 0.07818788 0.06024359 -0.08495589 -0.054181997 0.0040547894 -0.046748072 -0.04437914 0.013812963 -0.031408638 0.018065952 -0.00494132 -0.016217336 -0.04045974 -0.051953025 0.025389401 -0.008053385 0.13685872 0.00034634248 0.0095426785 0.06764332 -0.047454584 -0.012992103 -0.10877096 0.010603726 0.0057219295 0.00035961083 -0.006807739 -0.02394384 0.009087547 0.06439484 0.01814046 0.013811598 -0.0029976764 -0.029701542 0.029476274 -0.010648644 -0.051754504 0.0077325087 0.11755049 0.018315816 -0.029614758 -0.025972735 0.066241905 0.043002747
s499 -0.026546562 0.011951819 -0.0025246132 -0.032890227 -0.029435074 -0.07904943 0.07159969 0.06143839 -0.056885444 -0.039915618 -0.017679162 -0.03592038 -0.04718004 -0.004061348 -0.02806432 0.0039257123 -0.014162144 -0.022024382 -0.018814107 -0.051146008 0.029034082 0.006216097 0.13599908 -0.009117582 0.03520356 0.0628213 -0.029911624 -0.0090712365 -0.118062355 0.027951702 0.032725785 0.0060372073 -0.021985756 -0.025568746 -0.008115002 0.048849538 0.018159304 0.018770365 0.0023598599 -0.022325246 0.024533972 0.0114333015 -0.05730788 -0.0029098631 0.10735858 0.00049137144 -0.021215847 -0.039439943 0.074705385 0.05313123
s680 -0.008501327 0.019926809 0.014544353 -0.0131777795 -0.01279665 -0.050889947 0.08108095 0.08318061 -0.092904255 -0.04902859 -0.018664008 -0.048474167 -0.04566896 -0.009824456 -0.031637233 0.023413789 -0.016717128 -0.0009884967 -0.02484781 -0.065055065 0.01533226 0.023546817 0.1562118 0.00048348054 0.01693777 0.035971824 -0.05151817 -0.028570818 -0.09712567 0.027424242 -0.0037043034 0.022476155 -0.022137139 -0.0032395343 0.009440244 0.042500254 0.029421937 0.018992212 -0.01251958 -0.045391094 0.050114874 -0.0042677834 -0.025003508 -0.0041583264 0.123626076 0.03019172 -0.013421068 -0.046624556 0.0621052 0.03926229
s122 -0.02320412 0.030722048 0.0022006815 -0.026826592 -0.0024410028 -0.05092886 0.05585686 0.05280165 -0.0487387 -0.037431475 -0.00034741918 -0.038534496 -0.0034305349 0.013715937 -0.021427235 0.0028714235 0.009996975 -0.0040791566 -0.03666227 -0.061999753 0.008842143 0.0057669566 0.07357412 -0.010713634 0.027025241 0.02590693 -0.010348734 -0.019300614 -0.08094142 0.008931868 0.008445164 0.015461367 -0.019712508 -0.027253397 -0.016724594 0.051505335 0.010857302 0.010021854 -0.00026077405 -0.037496112 0.021493357 -0.002755366 -0.021933725 -0.007033324 0.06687755 -0.0034367328 -0.0023731643 -0.038271308 0.05079601 0.042769004
s50 -0.003363166 0.019993102 -0.001878716 -0.01141579 -0.029804826 -0.05801271 0.073161766 0.046683833 -0.06822013 -0.01937657 0.016847054 -0.034934085 -0.016640304 -0.0053077596 -0.030252242 -0.0023856899 -0.009267308 -0.022091331 -0.03915755 -0.027691346 0.034175374 -0.0014554082 0.088092394 0.017942807 0.009887999 0.027903197 -0.016849976 -0.013478013 -0.077373944 0.008231555 0.029863704 0.017383745 -0.023833659 -0.022751039 0.0029584444 0.037959233 0.002287449 0.02155757 -0.010909827 -0.0081775915 0.04206205 0.002392723 -0.018648285 0.0010288098 0.06274427 0.013908196 -0.004872691 -0.047927674 0.06358297 0.018717
s601 -0.0065625776 0.01139577 -0.012336684 -0.03061353 -0.014606163 -0.07338212 0.090234056 0.07303599 -0.05591426 -0.021842219 0.017705103 -0.031270787 -0.046043783 -0.020241182 -0.04496217 0.017266952 0.014761603 0.0008658977 -0.03932745 -0.056983996 0.014911459 -0.010170227 0.13604426 -0.020851888 0.016706176 0.039446726 -0.023512324 -0.03377956 -0.093973085 0.012349523 0.033395912 -0.0027094886 -0.00033738956 -0.013477009 0.014826918 0.04134371 0.012464849 -0.0075772144 0.014873918 -0.039509814 0.04224184 -0.008120713 -0.026103728 0.002771377 0.115338676 0.015740817 -0.027781004 -0.021255087 0.06498906 0.061223764
s1070 -0.020581385 0.0358793 0.016415732 -0.00034295965 -0.05184133 -0.06441997 0.12107165 0.10249018 -0.088520214 -0.039569646 0.006165504 -0.0650395 -0.03416007 0.0010915817 -0.03237566 0.039744318 -0.011006288 -0.0075042807 -0.0592396 -0.090637885 0.007304704 0.008770369 0.15988858 -0.0051971967 0.03121764 0.045636933 -0.047841884 -0.040716454 -0.13407028 0.016358007 0.00042526016 0.030855736 -0.02800385 -0.01634498 -0.011685152 0.06502048 0.03216746 -0.0133418385 -0.007953956 -0.056800168 0.021843947 -0.01817895 -0.061184604 0.021747788 0.14495991 0.0022709658 -0.021018524 -0.057362415 0.07546861 0.04829009
s970 -0.017120492 0.00054351834 -0.010810858 -0.02802974 -0.018548232 -0.075401984 0.06933463 0.0858001 -0.057103798 -0.050050255 0.01255238 -0.060562696 -0.029775793 0.014850107 -0.0389447 0.038023297 0.0028425157 0.0020303337 -0.01723709 -0.08253011 0.0067239073 -0.01199945 0.11778552 -0.016499504 0.014862596 0.0281581 -0.036482163 -0.026637373 -0.079280995 0.004988548 0.0067218933 0.018943818 0.010148202 -0.022274692 -0.0021311098 0.036350615 0.021113783 -0.013583285 -0.013016071 -0.026849577 0.030353328 0.003937223 -0.05851598 0.018233467 0.113050364 0.0039015661 -0.011299852 -0.025005229 0.05141969 0.046652656
s141 -0.0018008979 0.015111894 0.010384976 0.010362147 -0.0042202696 -0.03340052 0.07114548 0.0319893 -0.033286985 -0.016809402 -0.01393104 -0.03850295 -0.0067921053 0.011396247 -0.042470608 0.016295187 0.002354779 -0.005337817 -0.007847572 -0.058482263 0.03297642 -0.017460648 0.09484751 0.019174568 0.0029507105 0.01245888 -0.01143816 -0.035627656 -0.08153041 0.015430329 -0.00458586 0.02287005 0.011687795 -0.011281717 0.013628053 0.054355964 0.024735948 0.011657393 0.0124346 -0.004715241 0.030571459 0.00978429 -0.043543894 0.028458966 0.09139654 0.02994193 -0.026944745 -0.03286873 0.0423175 0.040543996
s11 -0.024544282 0.010300359 0.016373748 0.012885351 -0.02122709 -0.026255976 0.051095553 0.032579944 -0.032408714 -0.036783416 0.00028881663 -0.0131347645 -0.0062403646 -0.020475516 -0.026082816 0.014007862 0.0051470716 -0.014591237 -0.0052191196 -0.02504323 -0.006891939 0.02133707 0.045785237 -0.0072785574 0.026846329 0.026499197 -0.031138413 -0.011041998 -0.056270253 -0.0012919026 -0.0092673 0.013556361 -0.02066652 -0.0018275825 -0.012242277 0.036001183 0.0020822063 -0.008582611 0.012345487 -0.03166778 0.017879901 -0.007492619 -0.034378305 -0.008765415 0.070953116 -0.002254999 0.00488604 -0.03878231 0.037748028 0.019812796
s407 -0.027902188 0.013358173 -0.009935698 -0.020441247 -0.0320579 -0.064161405 0.06667544 0.054110225 -0.06083285 -0.03854668 0.009871367 -0.037744388 -0.013408022 -0.0077738613 -0.05005318 0.020706961 -0.015172193 0.005197618 -0.015378966 -0.06532896 0.035970405 0.020764604 0.13157612 0.011670215 0.032547098 0.05096067 -0.054889973 -0.042759847 -0.09783693 0.024032941 0.030323574 -0.010688158 -0.012108513 0.00048970233 -0.0050775586 0.033922546 0.025810545 -0.007704868 -0.009046904 -0.04191127 0.030206919 0.008918725 -0.032113615 0.03156223 0.13032702 0.024142472 -0.02132395 -0.02467852 0.048351068 0.0370268
s766 -0.0045033474 0.04023019 -0.001752289 -0.03238014 -0.015713785 -0.083175294 0.08747569 0.10633369 -0.0820456 -0.035556577 -0.0090483315 -0.03924948 -0.023454491 0.012606545 -0.020700505 0.010276207 0.0042176414 -0.008785472 -0.02727051 -0.061914865 0.035591606 0.013051975 0.16820282 0.010430421 0.018425174 0.044365596 -0.051977117 -0.0133008035 -0.13196403 0.031917993 0.025158476 -0.00273507 0.007901765 -0.020412056 0.001997711 0.08069425 0.030162187 0.007071586 -0.015627127 -0.01614382 0.01555021 0.009673781 -0.041175388 0.01930579 0.12747794 0.037923265 -0.013940692 -0.035526186 0.07918467 0.04926756
s55 -0.0059411745 -0.010591535 -0.010505497 -0.024313334 0.0010011028 -0.02197659 0.027289884 0.036747366 -0.033690073 -0.0275462 0.0064715696 -0.0291622 -0.0087856585 0.018421447 -0.0144968135 0.01821384 0.010414905 -0.010900745 -0.0223535 -0.008048697 0.011281994 -0.000856102 0.046649855 -0.01143685 0.013806489 0.008571845 -0.006291641 -0.019661471 -0.03687545 0.017535955 -0.0101353405 -0.0011720409 -0.02131537 -0.006629006 0.0023711124 0.022936994 0.00850876 0.001987989 0.0076702144 -0.01454828 0.024429323 -0.008243619 -0.025652464 -0.005236581 0.020062849 -0.011567732 -0.0021962447 -0.007378421 0.012013215 -0.0011430527
s520 -0.024527157 0.027187305 -0.010947773 -8.916814e-05 -0.012021014 -0.04177163 0.055929318 0.07226495 -0.07691711 -0.0142340595 -0.011482366 -0.0434486 -0.01692384 -0.0033121128 -0.019085953 0.007464491 0.012704975 -0.025618654 -0.015403836 -0.062260956 0.0048435205 0.0032839028 0.10984156 -0.0012095103 0.009476533 0.024817102 -0.051427625 -0.0358536 -0.102933146 0.012440417 0.028871799 0.0038364523 -0.020552538 -0.02988841 0.005541966 0.040475614 0.014970083 -0.005330376 0.014447091 -0.041292474 0.0110846115 0.0088726785 -0.050547294 0.018502738 0.10155333 0.032391697 -0.00023936106 -0.030615075 0.06642799 0.045715414
s2394 -0.015263969 0.021052644 0.018991422 -0.0060242293 -0.020374592 -0.08861282 0.10720836 0.118923545 -0.12006017 -0.0543351 -0.015735973 -0.05407041 -0.06159001 0.0048823473 -0.027699912 0.022135844 -0.011398158 -0.026470555 -0.03998575 -0.10220765 0.040080924 0.0019426182 0.18828966 -0.0019406918 0.00499799 0.05703818 -0.052390207 -0.046492033 -0.120707944 0.027122153 0.008282883 0.014011394 -0.020573027 -0.042387 -0.014173662 0.06808347 0.030447088 0.013324249 0.015661122 -0.027780807 0.05708433 -0.008711937 -0.068487786 0.038104247 0.15591207 0.031049829 -0.017344449 -0.04066545 0.10410872 0.050146148
s464 -0.019968523 0.0180551 0.012025978 -0.0297822 -0.015924864 -0.04926359 0.07253751 0.060151782 -0.0841404 -0.017435003 -0.019823782 -0.057545725 -0.01993323 -0.018403368 -0.037154097 0.01219759 -0.0014647435 -0.020902017 -0.021982104 -0.060178734 0.02510947 0.00066634716 0.12978327 -0.020356521 0.025097989 0.034398843 -0.03205092 -0.039370015 -0.09486697 0.010054458 0.0065570567 0.027202679 7.333382e-05 -0.014266295 -0.014236724 0.058610965 0.0032715218 -0.0001843728 -0.0116698975 -0.04008359 0.03286264 -0.01229819 -0.0341901 0.022528077 0.09232174 0.010032598 -0.01518639 -0.054387677 0.044265196 0.0462325
s753 -0.0037296563 0.017883146 -0.0012436323 -0.005566997 -0.021703128 -0.07759322 0.09129396 0.08627189 -0.08500733 -0.037748102 0.010656081 -0.048819736 -0.03011784 -0.008560331 -0.019307518 0.033621386 0.007148861 -0.016135344 -0.033980183 -0.07216696 -0.0013364097 0.019715546 0.1167578 -0.0015892854 0.027683994 0.02722096 -0.022484375 -0.04103703 -0.102622725 0.03342575 0.0053127715 0.0020162947 -0.020136524 -0.027066045 -0.0088725425 0.041028254 0.03945032 0.022413066 0.0005210936 -0.027784223 0.018114857 0.0105377445 -0.049369864 0.026560811 0.12584785 0.02611505 -0.013146569 -0.025372537 0.078898266 0.03724528
s49 -0.012820793 0.030028393 0.015223249 -0.014880942 -0.015220729 -0.06267546 0.04166006 0.049263757 -0.06452272 -0.029601732 -0.0089943055 -0.03888589 -0.006856225 0.022816822 -0.007687291 0.022726748 0.0031403643 0.0015571134 -0.03561079 -0.06583293 0.0314713 -0.015238786 0.10389611 -0.0059592575 -0.0039136047 0.04105792 -0.03480944 -0.00068991754 -0.090769134 0.002445971 0.02377405 0.010899425 0.0032277508 -0.007256609 -0.00821654 0.029369963 0.024968961 0.020471945 -0.01213541 -0.022895658 0.028162051 0.01566965 -0.042560633 -0.0020391084 0.08475916 0.017267693 0.008302155 -0.017959597 0.036183693 0.052558303
s3226 -0.019479103 0.012871526 -0.010019191 -0.025322711 -0.006768351 -0.053588275 0.059704833 0.07894901 -0.08639508 -0.053989697 0.005138035 -0.04101713 -0.027024388 0.017366452 -0.01788933 0.006598529 0.008601286 -0.00079025934 -0.026398968 -0.046936736 0.005051672 -0.0034304084 0.12315102 0.013590382 0.011754396 0.066154875 -0.046483897 -0.044148408 -0.10877061 0.016240088 0.03201197 -0.00237495 -0.016186448 -0.0016598777 -0.01721718 0.053671386 0.031543914 -0.011145572 0.00068237074 -0.03349195 0.041071963 -0.015217657 -0.05331476 0.034580473 0.10167673 0.030402722 -0.025481522 -0.021545473 0.059940357 0.029240236
s284 -0.015471713 0.0097164335 0.0017366237 -0.0104833655 -0.030240184 -0.04786681 0.04413017 0.06425156 -0.038960993 -0.024227912 -0.0131328 -0.019884078 -0.03896708 0.0019461234 -0.013203455 0.0071479627 -0.008583312 -0.018856496 -0.03843103 -0.03042645 0.020639692 0.002033519 0.104114175 -0.018335618 0.011343022 0.032634366 -0.041948855 -0.035350032 -0.05075295 0.007837241 -0.0071915877 0.022122348 -0.016051624 -0.018569803 0.0019805531 0.026102336 -0.0019354264 -0.0046067787 -0.017386634 -0.017833782 0.009331171 -0.0054829875 -0.022073563 0.0062884684 0.09631067 0.024008607 -0.0058770613 -0.026454542 0.04821409 0.04530661
s843 0.0048125964 0.012602987 0.003964812 -0.017243933 -0.024088582 -0.06980467 0.06975059 0.05132852 -0.06754194 -0.03259732 0.005967978 -0.048027787 -0.01693809 -0.015839618 -0.010463009 0.01806965 0.007279985 0.0020426426 -0.029333819 -0.057107907 0.021269457 -0.017440936 0.10850042 -0.006291101 -0.0060405135 0.049488746 -0.026313964 -0.030385578 -0.07489868 0.021233123 0.012452187 0.019134296 -0.024407089 -0.03196201 0.012041249 0.03511424 0.03627714 0.015199049 -0.014524101 -0.010270379 0.043011412 -0.020595806 -0.054705665 -0.0035444254 0.11226597 0.026744943 -0.015965432 -0.032375652 0.04496086 0.033087283
s2665 -0.0060591027 0.002649129 -0.010013984 -0.013708473 -0.048044648 -0.08293005 0.09741852 0.0995143 -0.09800399 -0.025287764 0.017283306 -0.041266467 -0.04414937 0.018351752 -0.053405162 0.0118967015 0.0075413696 -0.023184026 -0.055708624 -0.06820285 0.03858085 -0.0074894247 0.12959261 0.0064547653 0.01587003 0.03719777 -0.0307283 -0.03581391 -0.09980822 0.033290956 0.032437246 0.027777657 0.006505844 -0.03903807 9.107664e-05 0.055372905 0.024996473 0.022695977 0.012037281 -0.052203532 0.05574658 -0.010254041 -0.04493599 0.02680131 0.11296397 0.0161104 -0.008916557 -0.02784565 0.08389807 0.04823544
s2596 -0.03560971 0.011527195 0.026881378 -0.03276214 -0.0020579826 -0.056446385 0.06654194 0.08994872 -0.046646547 -0.014102599 0.018835654 -0.0632289 -0.010296882 -0.023935528 -0.043845136 -0.0092012575 0.0074231275 0.01211529 -0.04364433 -0.064699054 0.013457967 -0.011267103 0.10976483 0.009945211 0.017774282 0.035841033 -0.043610416 -0.028550522 -0.09369362 0.032806758 0.035482097 0.025995951 -0.025954034 -0.032331016 -0.02038495 0.030421417 0.024668103 -0.008778046 0.009013478 -0.009609168 0.034533303 -0.0039971853 -0.019400211 0.02856202 0.09698803 0.00046707073 -0.0117184995 -0.018996602 0.07733761 0.03302773
s803 0.0036658864 0.024469575 0.01847662 -0.022626378 -0.015777614 -0.055360347 0.05070245 0.07724064 -0.08465075 -0.04511051 0.003496329 -0.022393452 -0.032034446 0.0133468155 -0.017794525 0.024515854 -0.009868595 0.0047520306 -0.04708461 -0.06887391 0.029013956 -0.013130517 0.12464521 -0.0063310745 0.012888594 0.031584125 -0.046550628 -0.030882725 -0.06963951 0.0330587 -0.0074612256 -0.0053958027 0.001140801 -0.034235884 0.011246236 0.059330102 0.00025816975 0.021606995 0.016432466 -0.029637389 0.030868536 -0.016492743 -0.024725208 0.028141206 0.1127027 -0.0045741457 0.0023018222 -0.040631335 0.0582669 0.055194717
s962 -0.014944579 0.033237603 -0.0042224736 -0.0057552475 -0.037766557 -0.07166768 0.1030378 0.094625086 -0.069106996 -0.05090484 0.0033241566 -0.037562586 -0.043002285 0.010251478 -0.05508894 0.03860895 0.011650948 0.005491759 -0.028507028 -0.06723026 0.016353173 -0.008801391 0.14025643 0.0040792413 0.009376669 0.042813294 -0.055716835 -0.012228702 -0.0936252 0.040742986 0.0067752497 0.01081374 -0.02546699 -0.0074090064 -0.0010094991 0.075015254 0.014954942 -0.00080393656 0.006759093 -0.025575327 0.020446956 -0.020731553 -0.04377342 -0.0013769838 0.14422092 0.029022833 -0.017316075 -0.055889316 0.062706836 0.05127342
s882 -0.0029335285 0.019443447 -0.009811489 0.005155817 -0.043829948 -0.05044414 0.09179155 0.07915139 -0.09315974 -0.02420321 -0.019965634 -0.056966975 -0.010889441 -0.017360376 -0.046541654 0.008286959 0.010155865 3.0157882e-05 -0.044860505 -0.07263626 0.03908121 0.022552155 0.14719193 0.0028012665 0.022834828 0.055164658 -0.034421634 -0.01596091 -0.095095485 0.026106142 0.0062534707 -0.0048196483 0.008948251 -0.030318446 0.0038836594 0.051333133 0.015037088 -0.0058984724 0.008784734 -0.04031027 0.015575284 -0.011247323 -0.031714074 0.02672928 0.11638491 0.032097835 -0.024839533 -0.050030988 0.05333854 0.0356368
s1096 8.473612e-05 -0.00082579063 -0.009265103 -0.033304244 -0.011429009 -0.06951154 0.08358049 0.06401368 -0.08105507 -0.037802223 -0.007281062 -0.06301325 -0.04486616 0.0036504844 -0.052508414 0.021815304 -7.865716e-05 0.008926724 -0.033251505 -0.056006316 0.006411566 -0.012287669 0.14100808 -0.00018799641 0.0028190287 0.04540434 -0.022040648 -0.04562436 -0.10691282 0.02978016 0.013726989 0.028164653 -0.011070771 -0.032478448 -0.017797958 0.032358557 0.0053263768 -0.0076335766 -0.011305187 -0.031182462 0.03190065 -0.015900694 -0.036010627 0.023942694 0.13526885 0.0055938764 -0.00033779416 -0.024396043 0.06100949 0.034393296
s1999 -0.017686438 0.0035313007 0.02067245 0.0067171715 -0.007672605 -0.07722619 0.085096635 0.08194133 -0.05866018 -0.054073084 -0.0023664136 -0.05779367 -0.048950303 0.0042707007 -0.011180172 0.031630933 -0.0103841135 -0.002105423 -0.038891487 -0.041455556 -0.00054899504 0.022197828 0.10460545 -0.01566706 0.014842024 0.04317114 -0.05469956 -0.027736023 -0.0918828 0.012686446 0.026217304 0.014648135 0.009490454 -0.0026170162 -0.016883174 0.059013255 0.03217123 0.015863994 0.013125276 -0.037124407 0.041141164 -0.0049252044 -0.036680114 0.00070694456 0.109836146 0.025818205 -0.030055702 -0.017452003 0.06980764 0.043838616
s353 -0.01930589 0.015480254 0.017462311 0.0029594172 -0.031508703 -0.025881123 0.052206304 0.032901634 -0.0330619 -0.014424809 0.0053483136 -0.015594285 -0.038372394 -0.0125694005 -0.027382886 0.0038228787 -0.0017204795 -0.0063579977 -0.04029933 -0.043037176 0.019598946 0.001073082 0.096650496 0.0028853382 0.023818687 0.03032529 -0.00881677 -0.021309096 -0.06125915 0.01010194 0.022468885 0.012594211 -0.0017547678 0.0054410156 -0.018595392 0.056194305 0.016888155 -6.849152e-05 -0.0070868963 -0.03853564 0.0154461805 0.0011720384 -0.016043132 0.028100852 0.06129375 0.029402925 -0.024977515 -0.017951028 0.06354939 0.028150205
s535 -0.031392764 0.00078250177 0.010295002 -0.011282267 -0.04640039 -0.048325785 0.07626277 0.07414458 -0.058186177 -0.025604721 -0.023141548 -0.02757592 -0.018295147 -0.018901316 -0.03363246 0.01555444 0.0004095406 -0.010202997 -0.04169212 -0.061521575 0.025708567 0.0019313341 0.11369678 0.003620773 0.0053315028 0.026856223 -0.016917778 -0.04413654 -0.093226574 0.020003393 -0.0032177127 0.010605623 0.009909979 -0.02089559 0.015767716 0.047877464 0.0072609563 0.0018212982 -0.0007368701 -0.014597203 0.042492136 0.008064369 -0.049536183 0.0010411632 0.11569433 0.01849727 0.0024573389 -0.033527303 0.07870295 0.023834735
s1333 0.006417959 0.0013248537 0.0036160606 -0.0012031692 -0.043387383 -0.049759388 0.059750378 0.056083865 -0.06341863 -0.03064439 -0.009124293 -0.02687867 -0.04404114 0.00078484725 -0.011965397 0.020763429 -0.01082223 0.001782553 -0.039704524 -0.061363038 0.025181424 0.017762829 0.13234118 -0.0093905805 0.032742653 0.03762132 -0.019935546 -0.040443063 -0.10690925 0.021719366 -0.0037239885 0.0010763138 -0.0073381527 -0.017288843 -0.022152964 0.035458803 0.0047186227 0.0039000493 0.011430498 -0.026935525 0.04833077 -0.014142395 -0.022103513 0.026054291 0.124918155 0.014790774 -0.009409561 -0.030788567 0.044734858 0.06322584
s2257 -0.026131183 0.040618774 0.015612974 -0.012625792 -0.031263605 -0.09027632 0.09057493 0.094120845 -0.10578026 -0.04936086 -0.0043714545 -0.060765155 -0.024022646 0.001420879 -0.02461508 0.0008776861 -0.009586179 0.0051917112 -0.023526384 -0.06349826 0.031123498 -0.016150778 0.15870303 -0.016219972 -0.0025831566 0.070863426 -0.05080406 -0.048869632 -0.114763334 0.0393525 0.011008627 0.02273921 -0.012997766 -0.016302664 -4.257658e-05 0.038359933 0.014052963 0.023258602 0.009924574 -0.04741073 0.049486715 0.0075773853 -0.03446692 0.018610135 0.10673921 0.0100827385 -0.0018356256 -0.056741558 0.095217094 0.03265803
s1083 -0.03394795 0.009033449 0.0210963 -0.030317077 -0.00946341 -0.0820545 0.08440596 0.08229527 -0.076906286 -0.017863661 0.008923001 -0.044379495 -0.02030477 0.011653392 -0.025875509 0.03374398 -0.0014890541 -0.023940016 -0.04081148 -0.07152007 0.004004866 -0.0032026232 0.14122257 -0.013482477 0.023805367 0.053634796 -0.041739732 -0.024975743 -0.0838302 0.012138152 0.021470234 0.028491748 -0.01859368 -0.03894534 -0.022267668 0.03218257 0.027144494 0.01321329 0.019032337 -0.03511522 0.033055633 -0.0009570036 -0.06447714 -0.0033674275 0.12004632 -0.0030446672 -0.018966815 -0.04870737 0.0788222 0.04157976
s1109 0.0071724467 0.018325772 -0.0036178448 -0.018083397 -0.020702 -0.06502793 0.08436984 0.08472234 -0.056560375 -0.047776207 -0.016043944 -0.039229445 -0.029834494 -0.0116257975 -0.011727915 0.027738381 -0.0060736425 0.00033116233 -0.018119594 -0.05290343 0.035003684 -0.00082159316 0.097606465 -0.0013616583 -0.0040459293 0.06405094 -0.05149768 -0.026616195 -0.092841364 0.028923677 0.020582039 -0.008852025 -0.01521988 -0.01593682 0.0065103234 0.055740867 0.016549392 0.002202991 -0.015093031 -0.0152229965 0.010076747 0.0011280567 -0.04324216 -0.003341634 0.11750232 0.012756702 -0.027600266 -0.053267322 0.062486317 0.025934255
s89 -0.006805269 0.02030206 0.008689255 -0.023093054 -0.00089979806 -0.059724256 0.066405155 0.04982997 -0.04777249 -0.016161717 -0.0050024763 -0.04169891 -0.023173664 -0.010443912 -0.02019591 0.004189976 0.016440975 -0.022321602 -0.034984965 -0.058854382 -0.0032785516 0.00046291572 0.06468425 -0.009963161 0.012002284 0.034391344 -0.011085848 0.0015030024 -0.08429599 0.028489048 -0.0059064208 0.014748327 0.009509317 0.007701744 -0.016254157 0.04127925 0.0037882235 -8.521578e-05 -0.011433167 -0.03413913 0.030452508 0.010535437 -0.033784848 -0.009629645 0.08325732 0.0048725517 -0.019558094 -0.03370385 0.040865544 0.050305743
s999 -0.024906503 0.031080754 0.017864952 -0.023030983 -0.028269073 -0.060761306 0.07727782 0.06581774 -0.07133752 -0.053106282 0.011717261 -0.060473334 -0.04583837 0.0031044267 -0.024355112 0.017769318 0.0047305324 -0.0012668101 -0.025592737 -0.044665776 0.010526222 -0.01082531 0.09543058 0.016132288 0.015399475 0.03146039 -0.021224115 -0.0071315165 -0.06917092 0.0076824618 0.0022959695 0.0033526442 -0.020293642 -0.0073826616 0.009369245 0.03312294 0.032588895 -0.012502337 0.013634721 -0.036113083 0.032564785 -0.01242232 -0.029071582 0.029488241 0.09842066 0.003878283 -0.026750863 -0.026696915 0.069199614 0.055511657
s778 -0.024685485 -2.247363e-05 0.021653866 -0.021654868 -0.014614154 -0.040108766 0.06327118 0.07152936 -0.0743523 -0.04658273 -0.015595993 -0.041639373 -0.044420514 -0.0048375726 -0.033208154 0.029869914 0.0046017957 0.008263483 -0.021980783 -0.06767541 0.0083917845 0.021918556 0.13024351 -0.017473927 0.022505593 0.063854784 -0.016299454 -0.04108785 -0.09329988 0.024655428 0.01688939 0.0040852693 -0.014693953 -0.004478376 0.012446287 0.047219936 0.00838188 -0.003997311 -0.009015684 -0.018180117 0.02744485 -0.01026672 -0.057158988 0.0101418 0.11914534 0.027007394 0.0007152774 -0.041105848 0.08184107 0.04513172
s12 -0.0048165987 0.022740003 -0.009191343 0.006923677 0.0062555554 -0.02080589 0.042354014 0.041519556 -0.036546662 -0.033137638 0.0019579476 -0.018894639 -0.027649846 0.003676398 -0.002657089 -0.007895263 0.0059100757 0.01095662 -0.03255175 -0.023656746 -0.009326344 -0.015797518 0.07018846 -0.015604233 0.0038050888 0.005763887 -0.035326593 -0.026335092 -0.042002622 0.015541555 -0.010507791 -0.0131494105 -0.007899518 -0.014307452 -0.013730368 0.013783526 0.017805357 0.009862274 0.013243899 -0.0050879978 0.010716566 0.002127138 -0.0013949994 0.010677225 0.055501554 0.0072054826 -0.022438264 -0.0058946237 0.04238526 0.022222545
s2595 0.002014576 0.008387815 0.015392496 -0.031789094 -0.045185897 -0.05537703 0.08636549 0.0893505 -0.09369226 -0.025273781 0.0064695207 -0.03514917 -0.028828066 0.008375554 -0.012909027 -0.0075138025 -0.019998942 0.0117248595 -0.035553966 -0.0841292 0.010244929 0.00050207134 0.13967513 -0.0071849623 0.0063642445 0.028477967 -0.0558594 -0.021274474 -0.09491626 0.007248455 0.017497722 -0.008856606 -0.016031979 -0.010174089 0.00071319536 0.06597257 0.031878464 0.0021243081 0.016417665 -0.01825247 0.049776256 0.011290446 -0.03220575 0.027021255 0.12590232 0.0132682165 -0.02418089 -0.018815028 0.06732527 0.03402724
s3525 -0.0130277425 0.00453476 0.024642821 -0.0054331203 -0.013442168 -0.038754467 0.08136563 0.053180024 -0.07406173 -0.039008174 -0.010254154 -0.05747838 -0.028028823 -0.016526408 -0.0075185616 0.008455968 -0.009693957 -0.02179205 -0.033842657 -0.07465913 0.01704277 0.01249062 0.09723718 0.014322393 0.0063020107 0.025591569 -0.038704187 -0.02834192 -0.093986236 0.0014255883 0.0031659494 0.003471727 0.004111247 -0.03110348 -0.012516538 0.045390926 0.013926082 0.010909354 -0.0020174475 -0.015896162 0.042647116 -0.021630097 -0.025307233 0.025221875 0.09242056 0.026480181 -0.02034092 -0.039331216 0.040736206 0.058519714
s1068 -0.03253197 0.009578323 0.006361706 -0.022311118 -0.0030511115 -0.06580942 0.049659576 0.08297489 -0.07915957 -0.0093154255 -0.00929684 -0.02591088 -0.0257356 -0.009877918 -0.041783817 0.0011017984 0.015920263 0.008138307 -0.025706852 -0.041472986 0.02471595 0.008849825 0.109805465 -0.02427647 0.0314727 0.02179198 -0.03703917 -0.020163558 -0.071163565 0.00086908287 0.015093335 0.022004386 -0.027036158 0.0029970475 -0.013906439 0.06278668 0.003729023 0.016543612 0.022461124 -0.046563555 0.027173158 -0.021964071 -0.018503614 0.032635223 0.08054516 0.014169139 -0.012459216 -0.049310613 0.057360914 0.018929599
s1104 -0.0127393305 0.0073873233 0.019841226 0.0013451596 -0.033246346 -0.07403283 0.06433784 0.089147046 -0.072961204 -0.020539166 0.0027502708 -0.054969266 -0.02686091 0.0167792 -0.015806036 0.03566651 -0.014021773 -0.021746699 -0.019731896 -0.08617157 0.02795629 0.019034935 0.12686658 0.013822156 -0.00077871414 0.068074636 -0.028507855 -0.021468306 -0.12085048 0.04531609 0.030994244 0.0054426678 0.000401754 -0.007486328 -0.005733239 0.06659373 0.014560352 0.0018593533 -0.00087667775 -0.039317247 0.030183831 -0.021541795 -0.037432794 0.034281425 0.13212548 0.029043036 -0.018703083 -0.030812597 0.060393754 0.040574763
s1732 0.009617569 0.027051637 -0.004410247 -0.022484686 -0.007795732 -0.04429682 0.076136015 0.045848824 -0.060703844 -0.033246957 -0.0019022266 -0.031476863 -0.03788472 0.008305488 -0.03297164 0.032467537 0.00030188257 0.011897407 -0.027686657 -0.0422851 -0.00078702054 -0.014735837 0.09900417 -0.0050332393 0.030766435 0.047424067 -0.042849652 -0.0064893137 -0.07508284 0.0016361527 0.023542019 0.0027095815 -0.025587156 0.0029424096 0.011779199 0.058094237 0.017307358 0.018224029 0.011753221 -0.03801637 0.045408044 -0.012506975 -0.051284954 0.029422574 0.079636134 0.029816868 -0.025511501 -0.011562238 0.041384164 0.044621073
s334 0.005845689 0.02867883 0.0033371877 -0.021742338 -0.04619875 -0.045666996 0.08513139 0.057441927 -0.051119074 -0.019335812 -0.02055898 -0.035280146 -0.04166536 -0.010260495 -0.02613297 0.0006946482 -0.0056726136 -0.023275176 -0.043382484 -0.071951695 0.036374517 0.019255664 0.110196084 -0.0059415023 0.024331722 0.04734741 -0.05374601 -0.036871865 -0.08345731 0.037724614 0.017858721 0.02663046 0.010234868 -0.017204331 0.016618738 0.063656814 0.036967583 0.02412971 -0.019085223 -0.018377192 0.010350353 -0.019402565 -0.054143056 0.01861728 0.1030968 0.00014183839 0.003993816 -0.017395861 0.06970899 0.057558037
s1896 -0.018850025 0.0012355887 0.013505025 -0.01578326 -0.037531152 -0.042854458 0.056722682 0.050379593 -0.055644114 -0.016951136 0.011666377 -0.03659439 -0.0081139235 0.0046709813 -0.014050182 0.013147179 0.006731443 0.006578132 -0.04720155 -0.04180557 0.017345203 0.014963597 0.097090565 -0.006931754 -0.00051270536 0.031775657 -0.037631016 -0.03283555 -0.07559723 0.036831457 0.021529742 -0.009035723 -0.021597452 -0.02067991 0.0051826914 0.02282067 0.029524222 0.010370856 -0.0047591077 -0.0065478524 0.043537773 -0.00481855 -0.022408994 -0.0065693576 0.07401216 0.006712325 0.008428527 -0.023391312 0.06565975 0.024019826
s236 -0.002427465 0.014038695 0.0035354118 -0.0146879405 -0.007610295 -0.05947089 0.06328184 0.060992736 -0.05436964 -0.03222797 -0.017246293 -0.043468352 -0.030862775 0.006058647 -0.031194333 0.00992327 -0.015915986 -0.01160376 -0.023150217 -0.06079709 0.020012882 0.021667112 0.092409566 0.0043157334 0.00010278614 0.031181887 -0.020956362 -0.014320626 -0.0472106 0.015124927 0.022281023 0.01740746 0.0026161503 0.0016094284 -0.011008076 0.027426606 0.029252365 0.019383118 0.007877366 -0.027665231 0.03485769 0.0016064616 -0.028623624 0.027579514 0.085706234 0.018426996 -0.005908073 -0.043891102 0.040796682 0.03736367
s182 -0.02279166 0.027929282 0.020743962 -0.025858397 -0.031442393 -0.053882666 0.051571038 0.046095338 -0.05493274 -0.028387954 0.0057943715 -0.010894861 -0.03027848 -0.017787991 -0.013556653 -0.0013132028 0.01668698 -0.00092212576 -0.03915361 -0.06289169 -0.0058670933 0.0066062273 0.088309295 0.0040375995 0.011096082 0.035462923 -0.019125503 -0.022065539 -0.08232251 0.016084762 0.015754059 -0.0015889736 -0.008681652 -0.017584532 0.013484572 0.03039622 0.034418233 -0.004932335 -0.018172901 -0.035249107 0.011857301 -0.0018092012 -0.016334562 0.015040477 0.09386203 0.011152636 0.0044575813 -0.024403159 0.041353207 0.044442587
s6 -0.0022218006 0.023180706 -0.015035028 -0.023067597 -0.009574789 -0.023273168 0.019909725 0.022507284 -0.03308312 -0.027043063 0.015876401 -0.022274217 -0.015497371 -0.0032290209 -0.012012907 -0.01275881 -0.0010497037 -0.003961262 0.0053500244 -0.03578212 -0.0025404878 -0.002724223 0.045149285 -0.011432347 -0.007696122 0.00053751114 0.0010986705 -0.025238547 -0.037168086 0.008341909 0.007425811 -0.018320417 0.015482403 -0.009533409 0.00068841473 -0.001913119 -0.008155992 0.009303156 0.007948573 -0.0030321702 0.020859575 -0.014596428 -0.015195434 -0.0023032003 0.034307115 0.0140520185 0.0019871332 -0.027163303 0.028105974 0.02753686
s2256 -0.03148581 0.027155787 0.0006137545 0.0018551971 -0.015850183 -0.05450356 0.069936104 0.055599425 -0.054394413 -0.037405375 0.015699115 -0.035338193 -0.042852987 -0.005160308 -0.02206211 0.004246674 0.02175467 -0.012816354 -0.046985477 -0.05404498 0.0107826 -0.016729439 0.12166477 0.007905168 -0.00074190856 0.03437504 -0.053754512 -0.021126196 -0.09940774 0.040166117 0.016519206 0.015123425 -0.019158037 -0.0062520863 -0.003911829 0.029238435 0.0023689938 0.0043272586 0.02231328 -0.024025382 0.019340485 -0.020140728 -0.06118668 0.02333816 0.08511541 0.020845113 -0.0072528026 -0.037786946 0.043283753 0.055014607
s1394 -0.016835256 -0.00018542538 -0.0074048983 0.003940741 -0.02323772 -0.07871583 0.07682118 0.0867203 -0.09457751 -0.04979309 -0.00597724 -0.066392556 -0.030993769 0.0023794356 -0.015021148 0.019721959 0.0051379986 0.004047309 -0.040950954 -0.05288531 0.020456722 0.0017047442 0.10712564 0.0007912306 0.027778244 0.054092195 -0.05570655 -0.03383085 -0.11159036 0.037361618 -6.681179e-05 0.019885747 -0.017725855 -0.033918306 -0.017818695 0.060277794 0.0031183863 -0.006684761 -0.012092239 -0.038404673 0.02219762 -0.0038233043 -0.029111823 0.012492422 0.10578531 0.018122986 0.0013802438 -0.048672285 0.060441665 0.05858624
s1772 -0.0017189602 0.0010903651 0.022266183 -0.03127908 -0.04084297 -0.06650723 0.07190321 0.06596377 -0.05855501 -0.016190495 0.0073850267 -0.047345653 -0.039731026 -0.017472208 -0.029714936 0.03672044 -0.012754291 0.0012040291 -0.020607082 -0.06770625 0.0040267003 -0.009028814 0.09978801 -0.014908512 0.02510896 0.029041903 -0.03901036 -0.01375465 -0.086945176 0.006829685 0.0036277673 0.014892694 -2.9976334e-05 -0.019492095 -0.0030480681 0.051152933 0.021411855 -0.0006774444 0.012488939 -0.042208787 0.04086271 -0.02480859 -0.040213592 0.026945999 0.09362439 0.027417643 0.0035329226 -0.04778472 0.059441835 0.033259377
s1251 -0.030798445 0.015307034 0.019702636 0.006565104 -0.03313052 -0.05824805 0.054677714 0.06692126 -0.058458358 -0.050889544 0.0022057437 -0.056691688 -0.02606555 0.00879168 -0.037614904 0.014378828 -0.0027660388 -0.022209164 -0.033553515 -0.048200138 0.00054746 -0.009753438 0.10631165 0.01619244 0.015178306 0.06337912 -0.048992783 -0.0054947613 -0.09332689 0.008568336 -0.004397026 0.011300613 -0.010720332 -0.00067302847 -0.002979696 0.04986783 0.031344052 -0.012665361 -0.0027313335 -0.03504569 0.008132324 0.0014916013 -0.03157258 0.0092987465 0.09619589 -0.000562412 -0.014400054 -0.02945608 0.07572772 0.055416785
s1603 -0.021086574 0.025043612 0.0016575626 -0.022775387 -0.033404827 -0.07239579 0.08307441 0.056417055 -0.08538926 -0.0442788 0.012907589 -0.040909164 -0.019085435 0.01604258 -0.044056557 0.008887172 0.01958768 0.0031942376 -0.02136979 -0.045109306 0.037065197 -0.0023199583 0.122677945 0.010340443 0.03038492 0.0680026 -0.053203464 -0.035567116 -0.08301485 0.026229963 0.01328992 0.023095412 0.0062582055 -0.032594305 -0.0075578974 0.03306621 0.034772426 0.009300816 -0.0027752875 -0.024027951 0.046223536 0.0105468705 -0.025908746 0.020222625 0.112334125 0.0318444 -0.006910834 -0.03623601 0.045992877 0.050598502
s1503 -0.030919392 0.027356617 -0.005084871 -0.014594291 -0.014771667 -0.044865243 0.031389173 0.0592914 -0.06516241 -0.041250315 0.008810032 -0.030081624 -0.0055674217 -0.015580724 -0.018725451 0.006089163 0.013217932 -0.023925735 -0.009432741 -0.06177581 -0.0033415803 -0.0008310607 0.07629823 -0.009150692 -0.003316371 0.035870776 -0.045411915 -0.015702562 -0.05429555 0.01504384 0.0088190595 0.02208303 -0.0285523 -0.03622691 0.008127577 0.049098242 -0.0035886038 -0.015619892 0.0043294113 -0.04093231 0.02512848 0.014545679 -0.04359038 -0.003925058 0.087713145 0.0071906694 -0.0161473 -0.033643425 0.026116215 0.021553772
s567 -0.022302268 0.017573413 0.006830451 0.0035657834 -0.005977709 -0.051194616 0.039130148 0.06301928 -0.06837809 -0.009407495 0.0029194574 -0.037818115 -0.012211555 -0.007065695 -0.03208584 0.012909371 0.019114718 0.010152321 -0.022210216 -0.043737072 0.011091028 0.02217574 0.08370603 -0.005568658 -0.00018809842 0.058031604 -0.035552453 -0.023837548 -0.060747936 -0.00030783724 0.003791424 0.012764546 -0.018035498 0.0027912706 0.0017369745 0.028255004 0.027385816 0.019997317 0.0027434237 -0.008940015 0.007913673 -0.011370985 -0.011627138 0.022250053 0.09473263 0.0050731297 0.0035548415 -0.025876267 0.071830176 0.037044168
s2305 0.007133145 0.002511946 -0.0106663015 -0.012661435 -0.015304553 -0.049418844 0.07081357 0.0380885 -0.07235879 -0.012515456 0.011747251 -0.041353736 -0.030457685 -0.0077187438 -0.025184471 0.033004764 0.004703511 -0.010161081 -0.031076714 -0.052752987 -0.0044617006 0.016498452 0.07396394 -0.005321636 -0.004559394 0.05552653 -0.015927063 -0.0205475 -0.06362672 0.013532682 0.030834353 -0.0012712905 0.004777189 -0.021616103 0.017185252 0.057437103 0.028917074 0.0031812591 -0.002244734 -0.039190117 0.04224169 -0.02109298 -0.04358233 0.022011753 0.07876961 0.027218102 -0.023100778 -0.009318815 0.055610236 0.016956538
s559 -0.005092482 0.0057052923 0.017153528 0.0005212101 -0.03925014 -0.036871817 0.073694624 0.072899245 -0.07168982 -0.041738454 -0.020221807 -0.02656189 -0.033159643 0.010954665 -0.016464125 0.03369734 0.009175162 -0.006476018 -0.024329564 -0.045753404 -0.0011193459 -0.009540004 0.09744184 0.010173664 0.010055295 0.023294756 -0.02854989 -0.006149981 -0.06567667 0.02754569 0.0019981558 -0.0025676615 -0.0099447835 -0.026059298 -0.01915048 0.040739615 0.022695616 0.012445402 0.008519857 -0.00584745 0.01055396 0.017550796 -0.039628662 0.011863354 0.08263212 0.004606432 -0.008635645 -0.04613483 0.074145176 0.049550936
s903 -0.015917053 0.017558467 0.020087555 -0.019968795 -0.010287129 -0.03955973 0.057667766 0.04582507 -0.06914167 -0.010610709 -0.005522875 -0.04825529 -0.019230193 -0.013317396 -0.005402152 0.00012736615 -0.00028446966 -0.004520284 -0.03143153 -0.049974184 0.029286318 0.0062005725 0.064274184 -0.0008339223 -0.010095476 0.02906474 -0.014560936 -0.008994988 -0.0777164 0.020547096 0.020328064 -0.010788979 -0.010909278 -0.016804237 -0.01944165 0.038871855 0.029639406 0.00798154 0.00604475 -0.020923717 0.018519495 -0.015046964 -0.028413367 0.02233176 0.08314211 0.011470956 0.011179855 -0.020136034 0.030956516 0.047657013
s537 0.00545419 -0.0022470579 0.021448307 -0.024604203 -0.023812454 -0.037958413 0.048757967 0.041345038 -0.07245623 -0.047242492 -0.015627146 -0.016580943 -0.017048638 -0.02084457 -0.0081667295 0.027260585 0.017036663 0.014072052 -0.044089332 -0.057494942 0.018970937 0.0066801915 0.106844135 -0.015820999 0.021589575 0.057954717 -0.04758367 -0.0042484193 -0.06980917 0.011515586 0.008221287 -0.010478447 -0.01967578 -0.0033663644 -0.007774578 0.06131189 0.0013013897 -0.008911572 0.013373975 -0.0069449567 0.032137733 0.009947526 -0.018002452 0.0004097922 0.10730499 -0.0004982117 -0.01320532 -0.040710118 0.06442511 0.026694497
s2805 -0.0017295331 0.0070132487 0.0017033946 -0.018986037 -0.025916323 -0.03998887 0.041684132 0.04327276 -0.045492094 -0.015040724 -0.013801706 -0.0044771447 -0.018441958 -0.014565409 -0.019843085 0.024816087 -0.0009946044 -0.012780567 -0.03344306 -0.046138108 0.0044993935 0.017002992 0.051675245 0.0023996537 0.0077763004 0.035051323 -0.03677056 0.001858854 -0.057225678 0.024151476 -0.012886334 0.0144355735 -0.020709654 -0.016516244 -0.003818732 0.019538544 0.009824665 0.0027855616 0.009849521 -0.019592466 0.008068723 -0.01633948 -0.004922628 0.01647433 0.07982321 0.019495873 -0.0135314055 -0.0033211666 0.022253023 0.031253546
s1009 -0.019670945 0.017108517 0.013680449 -0.016103288 -0.031555634 -0.05629933 0.06735934 0.07623237 -0.075058535 -0.021154003 -0.011646999 -0.054741897 -0.038424455 0.0019687149 -0.00853248 0.030612554 0.020295216 0.009118882 -0.032606006 -0.0615467 0.03497915 0.015592838 0.118229546 0.0136222625 0.016084613 0.04775204 -0.050039697 -0.0060285605 -0.064552695 0.006749083 0.013961022 0.024966743 0.0018112918 -0.0016945828 0.013410335 0.040095583 0.035474323 0.016046694 -0.0027851132 -0.023655346 0.044713933 0.0066316715 -0.049151514 0.006252667 0.09091514 0.019061109 -0.005833657 -0.050093196 0.06247526 0.05961215
s2051 -0.007782357 0.02291966 0.008476689 0.0070142797 -0.000654611 -0.035450518 0.046799004 0.0586393 -0.0643781 -0.0065116454 -0.0099552665 -0.011236025 -0.04021018 -0.0056915865 -0.0042772694 0.004377741 -0.0013857671 0.0058970735 -0.0042700907 -0.044052232 0.0002196974 0.021390168 0.064583346 0.0023936857 0.020534681 0.019138027 -0.03623894 -0.035192624 -0.06608724 0.027533641 -0.006752333 -0.0012892825 0.013244852 -0.021543993 0.0054691657 0.04175122 0.009044307 -0.0067678015 0.018073736 -0.025067687 0.037988264 -0.0076518795 -0.022248194 0.020946749 0.07781629 0.019095019 -0.016999064 -0.008849717 0.043298203 0.024095764
s1069 -0.0013273555 0.036141913 -0.0042125178 -0.009035561 -0.01223746 -0.05425518 0.062955484 0.07775595 -0.04031448 -0.040873725 -0.0074473107 -0.0152790435 -0.02368722 -0.021269225 -0.026405156 -0.00010483746 0.0042239274 -0.0023700888 -0.034518942 -0.0588774 0.03326928 0.011397258 0.10273031 0.0022810744 0.026496742 0.027371388 -0.016254347 -0.022361543 -0.090740405 -0.0012337413 0.006592442 0.02373236 -0.00213351 -0.032945134 0.0017163933 0.033489775 0.0082547795 0.019599201 0.013522804 -0.021883253 0.029156985 -0.0024468687 -0.050583687 0.018057644 0.10309392 0.019555237 -0.00171749 -0.038419284 0.057998884 0.020004274
s4 0.0040502436 0.010664471 -0.0012585495 -0.007798612 -0.00019014608 -0.011939591 0.02108095 0.037342124 -0.0070979088 -0.006418779 -0.0055687577 -0.02540198 -0.025586788 -0.004344047 0.002007283 0.022167098 0.007840019 -0.0092951935 -0.0030350378 -0.020016015 0.004685325 0.01969965 0.045728374 0.0008975234 -0.0108795585 0.023199685 0.016305843 0.013961043 -0.02749209 0.020611003 0.022275558 -0.021243798 0.01592729 -0.0018338822 -0.009549434 0.018730888 0.027227825 -0.014290002 0.01417915 -0.016629072 -0.009293699 0.014032904 -0.01712579 0.009214368 0.043576736 0.0251304 0.014127812 -0.026672985 0.023930056 -0.006281462
s1166 -0.0147923855 0.035987746 -0.004906682 -0.0033320365 -0.03321543 -0.06587041 0.07872771 0.06583605 -0.042643137 -0.02269612 0.0014639718 -0.030198647 -0.041672654 0.01458188 -0.03438431 0.0253111 -0.0070894505 -0.0030972513 -0.019963952 -0.056930713 0.0016119694 -0.0100665735 0.07792519 0.019311784 0.0014654165 0.039221533 -0.045518897 -0.029224189 -0.08715864 0.026693983 0.022754619 0.011834566 0.014767404 -0.010462817 0.018299185 0.055792853 0.0247544 0.008044776 -0.014381778 -0.027436554 0.035706118 -0.018922705 -0.027661175 -0.0049566235 0.110165775 0.012584368 -0.004075507 -0.04014598 0.06717083 0.024088517
s275 -0.023997 0.024126695 -0.0014982631 -0.0072247 -0.004991683 -0.022279179 0.05280616 0.05157517 -0.02738981 -0.037224095 0.008840177 -0.004829646 -0.026133938 -0.00033188393 -0.024336215 0.0006579135 0.017021168 -0.0038951887 -0.010144447 -0.049112186 0.021952009 -0.004054527 0.054805588 0.004512006 0.028900988 0.013177115 -0.014870533 -0.016112706 -0.06500522 0.0046077687 -0.010469715 0.016664822 -0.0077795503 -0.020954825 0.00034484765 0.037627254 0.030846257 -0.016457945 0.0014016592 -0.018823247 0.009977485 -0.0055342885 -0.0048616175 0.0054599117 0.079800755 0.007490714 -0.007234845 -0.0051241666 0.05126099 0.024442293
s645 -0.013303641 0.028392904 -0.0004270196 -0.00018297366 -0.024593236 -0.062249646 0.07838941 0.05141494 -0.05600952 -0.04384923 0.0038715717 -0.02505947 -0.015260232 -0.017250998 -0.04007019 0.029645711 0.007921059 -0.0054323934 -0.039499443 -0.059019692 -0.0028649373 0.005306677 0.09316626 0.0018840957 0.020885713 0.045793056 -0.046127193 -0.021992756 -0.09395818 0.013744839 0.015741723 0.024204314 -0.018434498 -0.011833278 0.014780441 0.063622765 0.028957792 -0.009715458 0.008530874 -0.0072504645 0.033750955 0.00035859094 -0.038345505 0.0207793 0.10162186 0.028793752 -0.016166562 -0.049037933 0.071095794 0.025980866
s128 -0.008832852 0.011954649 0.0015022553 -0.0136760995 -0.008029253 -0.043357093 0.03292124 0.020378245 -0.039490666 -0.006449262 0.0013328101 -0.010185789 -0.010711014 -0.018891823 0.0071420367 -0.00026418176 -0.0030501983 0.01293466 -0.013993509 -0.01889973 0.012184998 0.0067000277 0.062653914 0.020551844 0.004236714 0.013423779 -0.0042480077 -0.027315848 -0.020636087 0.014220025 0.01726788 0.008788025 -0.0043048873 -0.005643168 -0.010892059 0.03866758 0.019687291 0.008386187 -0.01079675 -0.02839651 0.026621629 0.0034129606 -0.025715046 -0.012454305 0.037206326 0.008134929 -0.021274086 -0.013863189 0.033893753 -0.0011344316
s2714 -0.012613967 0.005350926 0.00048956944 -0.015200028 -0.04622966 -0.06452654 0.058256015 0.053616866 -0.06570107 -0.030646848 0.016656866 -0.023986803 -0.042511992 -0.019271854 -0.015314736 0.028503807 0.016929729 -0.013362861 -0.04101816 -0.07123504 0.0004918539 0.015248599 0.10820439 0.017021881 0.0013218318 0.06486651 -0.045454074 -0.0073881587 -0.099678144 0.00865709 0.027815664 -0.011927134 -0.024433218 -0.007560848 -0.023162689 0.058881767 0.027204588 -0.010144952 0.0071664625 -0.02565943 0.04717188 -0.00048156886 -0.047000043 0.00953339 0.118979126 0.00093885214 0.008455159 -0.04153904 0.054158032 0.034457754
s1538 -0.0068447804 -0.0039489493 0.012106871 -0.019014116 -0.0029724478 -0.059599638 0.047113873 0.06665945 -0.041049644 -0.023265995 -0.0064227427 -0.029677939 -0.04110812 -0.01016204 -0.03487108 0.018027823 -0.010647025 -0.021126928 -0.041485142 -0.04258195 0.021681225 0.020345122 0.104733825 0.0092201345 0.020991422 0.049946986 -0.03990527 -0.018377198 -0.079003945 0.030606294 -0.0012233449 0.0049315877 0.0025363266 -0.02423928 -0.0185377 0.053864505 0.016285546 0.0051526516 -0.010853766 -0.0066067665 0.027659494 -0.00069395837 -0.03353739 0.013751611 0.10381075 -0.005264042 -0.0029877205 -0.041831423 0.07323619 0.04746647
s571 -0.02347584 0.011893365 -0.004671668 0.0083089275 -0.0035486699 -0.04112581 0.079643294 0.045616973 -0.050382808 -0.03774746 -0.019475106 -0.042598 -0.025987659 -0.012091761 -0.034375645 0.015726509 0.002353504 -0.024440546 -0.010718677 -0.04811999 -0.0043220813 -0.0005386625 0.0787067 0.015617033 0.0097076325 0.053282462 -0.01870991 -0.02932108 -0.09262923 0.0062160157 0.02872686 0.0037919306 -0.0055912356 -0.015249011 -0.018330052 0.048185162 -0.001202615 0.023521716 -0.015013433 -0.0065449304 0.01980284 -0.00844046 -0.036236964 0.014057451 0.09136407 0.014378299 -0.008578581 -0.012801249 0.039388567 0.019831093
s494 -0.022899957 0.023098808 0.0004246479 -0.016066767 -0.0035240517 -0.047274854 0.04537615 0.056706008 -0.023811813 -0.024409099 0.003113934 -0.012846743 0.0021243813 -0.006361576 -0.014327807 0.0004275616 -0.005264825 -0.0009127772 -0.011896643 -0.045093678 0.018023236 -0.0077074836 0.05520486 -0.018390974 0.023208719 0.03414493 -0.02399756 0.0042028534 -0.04579878 -0.007823416 -0.009085045 -0.0045880014 -0.018061819 0.0051105986 0.009628254 0.029309873 0.010297801 -0.013320021 0.013116283 -0.025310587 0.009112533 -0.015173819 -0.026259376 -0.010871115 0.06635291 -0.0072905845 0.0097280415 -0.035431173 0.023045907 0.02448702
s3111 -0.028305119 0.02780415 -0.001529714 -0.011397746 -0.008026065 -0.04720703 0.066619396 0.07951268 -0.06270514 -0.021394951 0.010460606 -0.05616136 -0.023198934 -0.02064976 -0.030792248 0.033687532 -0.0015767566 -0.01624304 -0.02295454 -0.041649804 0.02936881 -0.010648684 0.121300414 0.014999146 -0.00017623647 0.040946044 -0.034576688 -0.042309277 -0.087675214 0.041983258 0.006917711 -0.008427335 -0.014848345 -0.035495844 0.002064028 0.056670986 0.020647878 -0.003166025 0.01937422 -0.04442974 0.018218683 -0.024730707 -0.014946103 0.008215011 0.086456336 -0.0022148693 0.008865087 -0.038339816 0.04727043 0.048087776
s1839 -0.029538954 0.037414063 0.019851496 -0.020534985 -0.032283843 -0.054073397 0.052779302 0.07755843 -0.05986251 -0.021723108 -0.020706736 -0.042896982 -0.04190798 0.010745736 -0.010403756 0.015703099 -0.01236813 0.00383545 -0.03227923 -0.055357486 0.0054656016 0.00096514705 0.11096293 0.015345127 -0.002662842 0.039073918 -0.037744526 -0.029803919 -0.079215206 0.022690231 0.007833105 -0.00987473 -0.024985448 -0.013964778 -0.0026767992 0.029009217 0.035467796 0.019001924 0.013775177 -0.033769157 0.027820582 0.010561057 -0.051992852 -0.0011911179 0.08992702 0.02272596 -0.026607685 -0.031920135 0.080379486 0.0473446
s1483 -0.031922437 0.03034696 0.016893547 -0.02587072 -0.008991819 -0.028425068 0.07001231 0.0475245 -0.043759465 -0.03506794 -0.016561046 -0.026340153 -0.03239629 -0.0052039498 -0.03444138 -0.0033614144 -0.0013971052 -0.0024582527 -0.021320932 -0.032076925 0.022370974 -0.019639073 0.074612804 -0.00819909 0.006528734 0.021639775 -0.011078352 -0.012125721 -0.08821459 0.029306693 0.0074031935 -0.007894441 -0.006232346 -0.000991866 -0.012740221 0.0305868 0.011565153 0.013151462 0.012666675 -0.03931185 0.0060579153 -0.006085998 -0.025587488 0.018211152 0.08976336 0.010845967 -0.010138567 -0.021302735 0.048419762 0.045535147
s984 -0.009874203 0.03306487 -0.0016869687 -0.003279857 -0.014584158 -0.061713267 0.08310393 0.06939649 -0.04830955 -0.031786166 0.018230582 -0.027811948 -0.026101511 0.0061075087 -0.015678836 0.032196656 0.006277002 -0.0026764965 -0.032464325 -0.06427942 -0.001816688 -0.0009842062 0.09345193 0.005103145 0.011342019 0.042088732 -0.017934907 -0.03401934 -0.06447641 0.032142673 0.023685452 0.010959993 -0.006183101 -0.011622905 -0.01778863 0.029417567 0.020755433 0.0035587451 0.009488418 -0.030942809 0.035256486 -0.011108499 -0.020893779 0.0064669754 0.081497975 0.018214367 -0.01068526 -0.036124244 0.046344776 0.054729693
s1001 -0.03367202 0.027711289 0.00037633433 0.008508954 -0.015252753 -0.049243085 0.061239965 0.062198617 -0.07614753 -0.035190072 0.008868298 -0.059099697 -0.020804066 0.006695608 -0.0126202265 0.008282911 0.012852391 -0.024015035 -0.027354306 -0.041358303 0.027261067 -0.007343889 0.10326489 -0.016811768 0.013321613 0.053925313 -0.048244856 -0.011660316 -0.09352907 0.0313939 0.022876022 0.012288063 -0.0087023955 -0.03578258 -0.012235097 0.045580335 -0.0019705468 0.022983115 0.007951643 -0.026985064 0.04337831 -0.013509748 -0.033241786 0.014980513 0.115991704 0.018893344 -0.013440457 -0.04154398 0.044312824 0.052407842
s710 0.0022998753 0.024740677 0.017013287 -0.026523365 0.0042807674 -0.050434075 0.045845088 0.041144736 -0.0265455 -0.03785861 0.005261047 -0.03752444 -0.016952656 0.015085863 -0.037267815 0.030429943 -0.016141584 0.009638603 -0.035816632 -0.051124904 -0.00559887 0.014049507 0.064817645 0.0032187493 -0.009460748 0.04777993 -0.015218072 -0.023934228 -0.06125283 0.029962363 0.013504031 -0.014005014 0.0030905446 -0.022284428 0.00336754 0.046140943 0.010007359 0.001909731 0.012407253 -0.0284431 0.024530128 0.0049881046 -0.04346714 0.00041227287 0.08087227 0.0119468495 0.012735707 -0.02639876 0.05603113 0.0106212245
s2816 0.0007084418 -0.005343962 0.010015061 0.0079112565 -0.022130627 -0.025297323 0.031739026 0.047121927 -0.038983826 -0.03434015 0.0130680865 -0.043592792 -0.022836693 0.018365795 -0.0051607434 0.012934108 0.02196576 -0.023495518 -0.027119124 -0.03789228 0.0073434203 0.011901563 0.09631136 -0.00819283 0.004202466 0.051659167 -0.038541004 -0.034452848 -0.06305015 0.000799467 0.010499276 0.009661894 -0.019375013 -0.013611056 -0.010866896 0.028290557 0.018786428 0.010796061 -0.0044719004 -0.002173222 0.020820135 0.010080423 -0.019794632 0.019336555 0.09315687 0.0015224543 -0.0052428795 -0.032246947 0.052513693 0.017451644
s1897 -0.0147945965 0.03048321 0.0008249459 -0.0036725947 -0.021606455 -0.04844507 0.063406505 0.04386028 -0.041674174 -0.01859878 -0.020656284 -0.05206818 -0.021697884 1.0517288e-05 -0.033075873 0.03369747 -0.014670571 -0.011162336 -0.012764281 -0.05473064 0.0042883395 0.020312065 0.1145358 -0.008523206 -0.004978516 0.036802128 -0.014711406 -0.027661633 -0.06922572 0.017473346 0.020891491 0.0040609287 0.0052395863 0.005015381 -0.02032042 0.05468506 0.002672154 -0.015590434 0.012567721 -0.01950081 0.038575377 -0.025210217 -0.01579603 -0.0048332657 0.078796774 0.01621891 -0.018747902 -0.025201103 0.044775352 0.025110578
s147 0.008504719 0.00079621264 0.015847916 -0.010628331 -0.011361358 -0.013377134 0.041339353 0.021645315 -0.045748852 -0.018405447 0.0140564935 -0.0025959217 -0.023415575 0.007696058 0.00732356 -0.0076394835 0.0016021999 -0.0017943343 -0.022682557 -0.03532165 0.017236335 -0.008088068 0.032139912 0.0032570467 0.02396985 0.029279761 -0.024488894 -0.015309478 -0.013861366 0.009986417 -0.0048055383 -0.01393116 -0.014461948 0.003994517 0.002879294 0.0042023812 0.019010693 -0.003676013 -6.9761256e-05 -0.019763079 0.018269228 -0.0017829955 -0.009304961 -0.003116096 0.032481235 0.0035099448 -0.013055024 -0.016291564 0.03895157 0.021231387
s1401 0.0016864188 0.019726295 0.009358088 -0.007835524 -0.0007516185 -0.032396436 0.037433222 0.06732835 -0.062381975 -0.025787123 -0.019777618 -0.05042817 -0.0273002 0.009043243 -0.018565973 0.010816797 -0.009334093 0.0063359095 -0.004494553 -0.029313695 0.012006236 -0.015608341 0.101079196 -0.007215952 0.014471986 0.04245863 -0.0062486087 -0.020903878 -0.07610803 0.0138625195 0.016112043 0.0063604508 -0.00967918 0.0062819403 0.002044401 0.02516299 0.033365473 -0.011249871 -0.004735272 -0.0102686165 0.011550194 0.0098883845 -0.0404189 -0.0082747955 0.05831398 0.014914352 0.0049991356 -0.012433354 0.05113751 0.040993452
