3373 50
m776 -0.017426843 0.008765781 0.004476886 0.02697045 -0.009751069 -0.026030716 0.009864938 0.025962492 -0.02634227 -0.0026683582 0.014310824 -0.010316503 -0.023540724 0.02062584 -0.014853075 -0.00040231872 0.015155332 0.016578615 -0.026898844 -0.024979044 0.02223182 0.015037078 0.020048173 -0.01068195 0.032917712 -0.009044423 -0.00016930453 0.03308341 -0.030526686 -0.015516129 -0.005365658 -0.0066088964 0.030979162 -0.023004735 -0.011674998 -0.007959047 0.034623764 -0.0029035928 -0.0009461766 0.0013910974 -0.015355198 0.0033502565 -0.033189744 -0.005490607 0.01621115 0.0036957017 -0.016261768 0.027996639 0.01887229 0.035326786
m1460 -0.03661019 0.01878498 -0.015198593 0.01310364 0.03166743 -0.01997194 0.0039634714 -0.009000726 -0.025326464 0.026053451 -0.003775352 -0.009934149 -0.022786476 -0.011129921 -0.0068959035 0.008904214 0.009215939 0.032188263 -0.016170068 -0.0023357715 0.017553536 0.02694539 -0.0014941233 -0.034811947 0.036023796 -0.00019267973 0.016749348 0.022564685 -0.02295179 -0.027514728 0.009706384 3.7511245e-06 0.024733469 0.0063420427 -0.020805642 0.0016459895 0.034957565 0.0021330493 -0.009169534 0.03145791 0.008767453 -0.0071732774 -0.010712687 0.0035336337 0.040485628 0.014602811 -0.019105544 -0.0076414207 0.011261275 0.031965822
m1644 -0.035343025 0.015379576 0.005106962 0.022851875 0.026981672 -0.024001047 0.0008108126 0.019836182 -0.023400566 -0.008784029 -0.001724591 -0.025576774 -0.02554152 0.021225497 0.0036470576 0.018605005 0.024593612 0.029561853 -0.018887999 -0.008567062 0.011417896 -0.005729651 0.022629496 -0.03840685 0.03668713 0.0044795517 -0.008280307 0.029791603 -0.020461135 0.009132894 0.032775156 -0.015946837 0.010379559 -0.019077843 0.0013106656 0.003352493 0.03253853 0.02209005 0.021731235 0.031197548 0.021523222 -0.020116191 -0.034448978 0.0028083965 0.01025719 0.020690262 0.010219941 0.0041447417 0.009991343 0.023061836
m595 0.02201459 -0.023874765 -0.0030942115 0.0043458063 -0.005867985 0.017150486 0.023861038 0.019368444 0.0012517174 0.017116807 -0.021969602 0.0038465364 -0.010947988 -0.012176232 0.0048481044 0.013089706 0.0203754 -0.015628934 0.016286202 0.014111937 -0.0075083612 -0.02159579 0.017705902 0.013866537 -0.005012688 -0.014622182 -0.019639108 -0.0106208585 0.011215444 -0.009349181 -0.029136887 0.010180729 0.013192375 -0.017313609 0.0013299799 -0.0044819345 0.0022858356 -0.02565969 0.002157824 -0.010057063 0.0011163618 -0.0016062817 0.007771418 -0.017472772 0.0013364872 0.007128666 0.0122991875 -0.007993015 -0.020397052 0.013925597
m1459 -0.014879783 0.013814021 -0.022100138 0.004283367 0.026917698 0.0089302175 -0.010925111 0.012153592 -0.030751364 0.019246427 -0.012286154 -0.016480604 0.0066922894 0.0076463893 0.012747737 -0.011836117 0.020425893 0.036970325 -0.023681698 -0.016680418 -0.009815325 -0.0074883685 -0.004801125 -0.029820591 0.03815178 -0.012813377 0.020697705 0.034530338 -0.028992515 0.001233379 0.021522844 -0.022949712 -0.0058319196 -0.015849955 -0.025181035 -0.008442594 0.016961124 0.016918648 0.0019272108 0.009574639 -0.008492495 -0.003410302 -0.016156787 0.01943358 0.028304273 0.013656981 0.0044368985 0.0022200902 -0.0014121614 0.012549201
m561 0.0017880361 -0.006123721 -0.017152414 -0.014650051 -0.022225553 -0.013333302 -0.003099593 -0.007011956 -0.015214829 -0.00843604 0.008409497 -0.006209943 0.01845831 0.0025937073 -0.018103767 0.01994422 0.019560153 0.010061298 -0.016904905 0.012785187 0.0058677895 0.009304332 0.010511849 0.0058809193 -0.009741291 0.01860949 0.018083807 0.006785865 -0.0042599053 0.0041123223 0.0060237814 -0.020688979 -0.01706681 -0.0029984454 0.0060574426 -0.0124818515 -0.014327783 -0.016792858 0.018019622 -0.002990069 -0.01205792 0.011230108 0.020688884 -0.010526427 0.01918577 0.008789307 0.012662416 -0.0026200456 0.017784849 -0.01610317
m851 -0.014399663 0.018095862 -4.7582944e-05 -0.00082182535 0.0050542396 -0.010881876 0.009758449 0.015881952 0.008695272 -0.020685697 0.02147126 0.010163794 0.0107518565 -0.014687244 0.016399773 -0.00352129 0.01941062 -0.014299677 -0.021680996 0.013647483 0.002931277 -0.002319765 0.022547465 0.021295309 -0.024296388 0.008548236 0.009970001 0.008033663 0.0023342862 0.0047336174 0.0030384704 -0.0071795024 -0.019490968 -0.003777923 0.009676923 0.022880495 0.01698114 -0.013696998 -0.019897318 0.019159455 0.009792279 0.008689778 0.0111917965 -0.0051943175 0.018580947 0.004123751 0.0054848827 -0.011447601 -0.0064735627 -0.005345482
m853 0.011452195 -0.0018124087 -0.020588364 -0.017043164 -0.017693665 -0.002750745 0.007336594 0.020879935 0.0054367003 -0.012373544 0.0033236302 0.008965143 0.016793171 -0.0029395856 0.0052383672 -0.011789122 -0.0013165694 0.01403676 -0.010941918 -0.021548646 0.010825214 -0.006971605 -0.00022642536 0.02167262 -0.0069410917 -0.00921305 -0.013664119 0.013444862 -0.0156231 0.00664752 -0.007049097 0.014821004 0.0070290864 0.0061785486 -0.003811799 -0.0028918753 0.015712906 0.010964956 -0.0045421813 -0.021262618 -0.014114421 -0.0035737748 -0.0029020181 -0.005289071 0.024095993 -0.0026764795 0.011510419 -0.020793106 -0.004173255 -0.012155193
m1643 -0.027321044 0.010895455 -0.023292104 0.0009785524 0.016771667 0.006491754 3.135774e-05 0.011221337 -0.021757735 0.02118591 -0.015885852 0.0028047943 -0.027775276 0.009352289 -0.013556714 -0.008491091 -8.154651e-06 0.026011327 0.003979254 -0.015174934 0.007479775 -0.014066926 0.019819478 0.009279319 0.011187866 -0.0016807362 0.0047706617 0.03023738 -0.032723606 -0.005170261 0.02256994 -0.0007755768 0.011709385 -0.029816318 0.012764178 -0.01807999 0.008903854 0.016989795 -0.0044117905 0.011231689 0.0055003418 -0.021234032 -0.032747112 0.023857577 0.029786127 -0.010909501 0.0074272873 0.0066963914 0.016510516 -0.0028931014
m2038 -0.0036923094 0.014812358 0.01480896 -0.0046516657 0.0034061589 -0.021762548 -0.023906782 -0.013549066 -0.0130842505 -0.008040333 0.009137537 -0.018914126 -0.0044851233 0.0054519894 -0.012135866 0.0002043946 0.027838077 0.0317261 -0.014056321 0.015325483 -0.0080997525 0.01739444 -0.0030849015 0.00042628022 0.02250319 0.0121645145 -0.0034103761 0.03619676 0.0046526855 -0.027368177 -0.011570931 -0.019214967 0.015089412 -0.012062079 -0.02154914 -0.020286893 0.03166457 0.011966398 -0.022566231 -0.0004999007 0.0080839 -0.014958952 0.0001805107 -0.005985485 0.019457577 -0.013365151 0.013338127 0.01685815 0.008419465 0.017513959
m158 -0.023105035 0.004170024 0.0055702734 -0.025067283 -0.02491416 -0.0036847447 0.00929537 0.009562373 -0.012798332 -0.014726713 -0.013015515 -0.0051177526 -0.02051226 -0.02280693 -0.010134148 -0.018040378 -0.017611042 -0.013118394 -0.0048215287 -0.005149234 -0.020873735 -0.0028620681 0.022441575 0.021157846 -0.01953267 -0.0022009604 0.0058576036 -0.025053736 0.004187449 0.017830353 0.011834287 -0.021538282 -0.010746568 -0.01672669 -0.0008885358 0.023871861 0.014556824 0.004949976 0.012794516 -0.00859236 0.023577686 -0.015767677 -0.016477017 -0.0043767407 -0.002682056 -0.008289137 -0.0009449522 0.0119993165 0.0018271916 -0.0072732093
m1557 0.008367414 -0.020204093 0.015211739 0.017730655 -0.02423425 0.0028005375 0.024056887 -0.01364467 -0.016840583 -0.01953163 0.01878793 -0.0017340174 0.019108303 -0.01645793 0.005037066 0.007041033 0.0023001018 -1.5237692e-05 -0.018926991 -0.021525811 0.0027267858 0.01292399 0.01895917 0.0134011805 -0.0047264774 0.018708277 -0.022588594 0.005141476 -0.0015442154 0.011843517 0.016196372 -0.013123454 0.010210894 -0.0202103 -0.0016366105 -0.015826715 -0.01297166 0.018610254 -0.0032558707 0.0029887748 0.019326834 0.018050538 -0.016596483 -0.0058901245 0.024480952 0.009017576 -0.0033193363 -0.022360865 0.005537492 -0.014257584
m173 0.013829795 -0.00783238 -0.0032047988 0.009103015 0.0030705587 0.004842511 0.020407738 -0.005928842 -0.00223224 0.0056754393 0.012145745 0.0030138781 0.0012299966 0.026326999 -0.008447772 -0.0003888186 0.020262847 0.017544234 0.006234342 -0.025808336 0.00085121224 0.0026071833 0.024901474 0.0063802437 0.010261155 0.019061023 -0.0041181147 -0.023710364 -0.0008734738 -0.007116273 0.021193312 0.02530285 0.007310343 0.01918447 -0.021895515 0.01149012 -0.02308467 -0.018623877 -0.0063507766 -0.02458966 0.022764282 -0.0062918 0.021691538 -0.017280845 0.0014404049 0.026099144 -0.011149579 -0.024524042 -0.009908321 -0.008801038
m1551 0.005403368 -0.022469958 -0.019396657 0.010095544 -0.024148999 -0.02283569 -0.00048407383 -0.017385628 -0.0202815 -0.024917094 0.0016776541 -0.009035786 0.015962055 0.0013288008 -0.009776687 0.01540866 -0.011938848 -0.014476456 -0.020346414 -0.010806228 -0.006419933 0.0151285725 -0.0024929377 0.013002597 0.008199876 -0.013160427 0.0065328404 0.011697191 -0.0073603527 0.02211344 0.016038172 -0.013174277 -0.01958224 0.00424649 -0.002924048 -0.009232901 0.016073544 -0.011885958 -0.015518323 -0.0027148824 -0.0031896117 -0.0020936064 -0.0084912265 -0.00036370472 0.003746967 -0.0018292908 0.016009914 -0.019011594 -0.00431545 0.011180973
m1304 0.024025388 -0.013211706 0.023808625 0.022470023 -0.019387757 -0.003004466 0.015210152 -0.0080595855 -0.02026432 -0.020220958 0.0020927405 -0.00012092144 0.013186885 -0.01112095 0.0003824386 0.008396992 0.011551274 -0.0043788333 -0.023963584 -0.023195826 0.00088545587 0.018887406 0.0055929935 -0.01946624 -0.024720365 0.019377852 -0.011429922 0.012794632 -0.018157454 0.024607848 -0.015366495 0.011231978 -0.0070120776 -0.018134223 -0.008031077 0.0010410472 -0.018845763 -0.003455059 -0.018956916 0.0052214377 0.025862755 -0.0077806935 -0.0047695898 0.00876052 0.022442997 -0.018294575 -0.015919538 -0.0151090175 0.022041844 0.00029790966
m946 -0.020440737 -0.0028734417 0.023975031 -0.017396942 -0.014813522 0.022468504 -0.022550236 0.014665883 0.0032990146 0.013641642 0.018939316 -0.009507183 -0.010754482 0.01936589 0.006187386 0.01396235 -0.024304906 0.021598183 -0.0034257304 -0.018854138 0.010066263 -0.0003525548 0.011223634 -0.0064932844 -0.009570938 0.007032643 0.020171333 -0.01396427 0.0052865054 -0.020717064 -0.01340751 3.9582264e-05 -0.021656621 0.011645609 0.004017075 -0.006933493 0.011763022 0.02453414 0.022334147 -0.0077888607 0.00843685 -0.013663414 -0.023163997 0.017721841 -0.0055826465 0.0010111916 -0.005076773 -0.014490542 0.014028572 -0.009096926
m177 -0.030418413 0.023828017 0.013679524 0.034759328 0.019924743 0.011588145 0.03627615 -0.018507775 -0.008548388 0.024846733 0.007189198 -0.016544854 0.026621327 -0.0048462087 0.02937872 0.0037003697 -0.017240014 0.0012450101 -0.014037034 -0.014661741 -0.0009931031 0.031907856 0.03194001 -0.013403426 0.015785906 0.022755207 -0.0076157525 -0.03981423 -0.0020826801 -0.02700807 0.023219004 -0.009918392 0.024353532 0.04404454 -0.012510814 0.022731293 -0.01584951 0.017351499 0.02056887 -0.029147567 -0.0011485987 0.016450133 0.0014960794 -0.005880047 -0.011036171 0.003385421 0.008724863 0.010783026 -0.0071321907 -0.012113666
m1357 0.00037576526 0.0006893517 -0.0048878845 -0.012347943 0.009680048 -0.009266258 0.007010966 0.004221685 0.012935234 -0.019214839 -0.014906822 -0.010234479 0.023545602 0.0033951579 -0.026344787 0.0025256462 -0.010493703 0.017636072 -0.029704982 0.013666537 -0.019137682 0.008699958 0.016790476 0.01667958 -0.02064366 -0.021941436 -0.012981581 -0.019007253 -0.022922793 0.00023768362 -0.007357478 -0.022160253 0.0110406 0.006760631 0.012631838 0.009000568 0.0023795154 -0.016135572 -0.005197915 0.009951119 -0.004176859 0.003436196 0.010843437 0.0031179632 0.025075156 0.028160559 0.001330288 0.01741344 0.009485046 -0.010147007
m1462 -0.020639043 -0.009040957 -0.019511696 0.023517089 0.0015091919 -0.020675724 -0.012355877 0.013665473 -0.015340575 -0.0035101 0.00383236 -0.012632833 -0.010803372 0.005569849 -0.008648578 0.018990058 0.015340397 -0.009535441 0.008046395 -0.016427545 0.0038337058 0.014083013 -0.008149962 -0.011985132 0.031661425 -0.009409856 -0.0134563 0.034667253 -0.013342394 -0.015464202 0.023266895 0.0041252784 0.015967747 0.0138933025 -0.02429455 0.009510035 0.0155531 0.015330443 0.0029014323 0.017245913 0.011456911 0.009634411 -0.016093904 -0.008286361 0.012039367 0.008130521 -0.0066761435 0.017816413 0.012992557 0.026630683
m1679 0.0042685154 0.014595246 -0.00077188836 0.016857935 0.004619684 -0.017790155 -0.006852288 -0.0024903817 0.00854053 -0.00069858076 -0.0077868644 0.016103512 0.020915637 -0.002904437 -0.011487411 -0.009294954 -0.008756801 -0.023833888 0.0034003826 -0.009657585 0.004299218 0.012464033 -0.0072753793 -0.021488892 0.0015344084 -0.01433361 0.0026150402 -0.011818978 0.013009383 0.0031094986 0.009067958 -0.0048408704 -0.005154609 0.019282257 0.004700873 -0.009775816 -0.019560557 0.00409421 0.013917864 0.009125465 -0.016517969 0.01862338 0.008629217 0.014581602 0.022419669 -0.014439022 -0.019146658 0.010732492 0.019229438 0.008581552
m1339 0.012991631 -0.0039057638 0.019194216 -0.019735053 -0.01984804 -0.013158288 -0.0076544667 0.012399242 -0.0068565626 -0.01770801 0.015226237 -0.008789745 0.018639697 -0.012018859 0.008470689 0.010471915 0.0052307 -0.010747707 0.007328803 -0.017739894 -0.006612657 -0.0057690293 0.013732025 -0.009910101 -0.015841227 0.010322824 -0.002320991 -0.0101820445 0.013919806 0.009618101 -0.008089855 0.0026282058 0.017292822 0.020170948 0.014896258 0.009909658 0.0021277168 -0.0033953055 -0.012237444 -0.00045625874 -0.0025138364 -0.00067565753 -0.014126141 0.0143801365 -0.011708162 -0.016329851 -0.0050673494 -0.0063029644 -0.013437874 0.0015457362
m175 -0.020867407 -0.0006308098 -0.015255739 0.015973702 0.013060781 0.0064622182 -0.000984829 -0.013275608 0.026086934 0.025794731 -0.021640386 -0.011500417 0.007981275 0.0102611175 -0.016260518 0.011661737 -0.022448542 -0.010015344 0.014923769 -0.014532198 0.0046649408 0.03275657 -0.0015278661 0.02645226 0.017532825 0.0456294 0.014830407 -0.041526694 -0.010608695 0.0071386294 0.02030109 0.026301658 0.029283086 0.04249897 -0.040658277 0.022401685 -0.023384828 0.008429094 0.025964078 0.0029868819 0.027858717 0.014514057 -0.00024882244 0.007905869 -0.027111974 0.0099657215 0.034407087 -0.013570589 0.00945651 -0.02093426
m1325 0.02349878 0.016670266 0.0021447001 0.014079157 5.8866954e-05 -0.01634825 -0.0022234928 0.0154815465 -0.014470115 -0.013833125 0.0110644465 0.005348603 -0.0042392397 -0.0061631817 0.010214717 -0.012518845 -0.006517563 -0.0188012 -0.013807621 -0.019203655 -0.009522337 -0.01719757 0.005141733 -0.019627715 -0.0240588 -0.018250814 -0.016743304 0.014923952 0.006688039 0.004472758 -0.0035311352 -0.015039163 -0.000961308 0.0016782407 0.0014640582 0.0033275948 0.0007158374 -0.0008869687 -0.017067796 -0.014326306 -0.018059835 -0.004823983 0.0036819214 0.015803428 -0.001364794 -0.0059369784 0.018268738 -0.0031363445 -0.004229249 0.01852584
m1306 0.009283863 -0.014498 0.016167937 0.0154316565 -0.022428935 -0.0038066332 0.004353767 0.013713908 -0.012643631 -0.009246606 0.008129549 0.002183694 0.0052375216 -0.007978759 -0.013453896 0.017237443 0.015868101 0.016554136 -0.027803957 0.004105999 -0.008899018 0.026654357 0.010322649 0.015662272 0.00061867177 0.018769272 -0.016046593 0.018943008 -0.006282639 -0.00851864 -0.001870307 0.027889727 -0.02162657 -0.008269263 0.015913397 0.005103729 -0.016979238 -0.016326679 0.019144773 0.014443533 0.016090197 -0.009357541 -0.024901396 0.01073436 0.019424574 -0.014531665 -0.01999356 -0.013142956 -0.011644334 -0.0065637166
m159 -0.008027624 -0.015015583 0.026710533 -0.02776573 0.0072337887 0.012198509 -0.002741492 0.021570504 0.023782415 -0.013155884 -0.016328936 -0.016627576 -0.021532334 -0.008561324 -0.016532796 -0.01694831 -0.0013919881 0.0059251585 0.015877342 -0.007416452 -0.011374997 0.0036368151 0.005353793 0.023934348 -0.0033026482 0.022404842 -0.018820466 0.015052791 -0.004689757 0.022482438 -0.017210096 0.0032210962 0.0021051082 -0.0005814415 -0.01222855 -0.018785248 -0.015601011 -0.02443324 0.005684893 -0.00046742964 -0.0033097733 0.017596235 -0.0059524253 -0.0032907962 -0.01923035 -0.024437198 0.018452218 -0.01807876 -0.012712181 0.008220473
m597 0.020974044 -0.020065071 -0.0021179034 -0.018141957 0.0019539273 -0.011951289 -0.005492635 0.011229499 0.025992705 0.015388251 -0.025521774 -0.017344588 0.017407913 0.0044064447 -0.011263367 0.0034972278 0.02381106 -0.0041254465 -0.020661188 0.002448695 0.0143953515 0.010780029 0.014290786 -0.012892275 -0.0023649528 -0.0015077608 0.007996611 -0.020449258 -0.017649136 -0.0016047459 -0.031314723 0.016118307 0.0039851903 0.020275068 -0.014330506 -0.0018040726 0.019733908 -0.011893242 -0.018735005 0.00578836 0.005057734 -0.0020303319 0.017235052 -0.01865736 0.012614366 0.002304328 0.019513424 0.013842514 0.014014501 0.024115877
m284 -0.021604408 0.017419873 -0.011670638 -0.009505718 -0.014497952 -0.011830107 -0.016355336 -0.013159638 -0.009239296 -0.004186861 -0.011610129 0.011006677 -0.022902284 -0.011646244 0.016529452 0.015458887 0.014688173 0.007217268 0.0008910284 -0.0140845 0.009584478 0.005819503 0.019120105 0.016183188 0.013403262 0.024393689 -0.022917928 -0.018043214 0.002013875 0.015540703 0.016710987 0.012567277 0.015791759 -0.010347061 0.013090062 -0.005986667 -0.019356987 0.013821572 0.00488421 -0.0069238218 -0.0033654557 -0.008592104 0.010420136 0.008977398 -0.004526089 -0.017346786 -0.008281953 -0.0045279507 0.015557235 -0.008563698
m289 -0.005539053 0.002576428 -0.01547566 0.009740289 -0.00031227383 0.0089110155 0.016148964 -0.008054652 0.0011618346 0.026854748 0.009892776 0.01403824 0.011418644 0.024291543 0.01825342 -0.0010201269 0.019641675 0.014014812 0.017268524 -0.008269636 -0.007025782 -0.0031148433 -0.016023641 0.009877594 0.026787654 0.033224843 -0.0028647922 0.002823369 0.005789971 -0.012649245 0.008869408 -0.0071847183 0.027134372 0.025061566 -0.0031660832 0.0155118145 0.011338629 0.016145233 0.005200513 -0.01867741 0.026525036 0.022361338 0.0061130673 -0.005884913 -0.020250825 -0.0028614996 0.027064104 -0.008413254 -0.013547399 0.020769237
m1139 0.021868631 0.017522782 -0.0028332905 -0.021403216 0.016853852 -0.0114122 0.016293384 0.01659278 0.02624559 -0.019258607 0.016207354 -0.023624478 -0.015448963 -0.018926227 -0.0140680475 0.017743116 0.023733547 -0.010149155 0.00819344 -0.0072310553 0.020882644 0.011710192 0.003690434 -0.008271007 -0.016826643 0.010018075 0.0006056332 -0.008142124 0.015733782 -0.010208531 -0.028450292 -0.0033669185 0.0036485991 -0.017920015 -0.0135770235 -0.017318752 0.02082432 0.014394491 -0.0057372204 0.01722754 0.016311105 0.0024184065 0.01860404 0.0082164975 0.015236284 0.019491069 -0.0102522895 -0.006238571 0.001409521 0.013977137
m2328 0.005910829 0.010806995 0.011481872 -0.017746946 -0.008059256 -0.015632475 0.022103406 0.015045428 -0.0019724602 0.009553051 -0.01761714 -0.013940488 0.0066603506 0.014543855 0.00858217 0.012435358 -0.0047728824 -0.009366633 0.00013997413 -0.008182219 -0.012736198 -0.017704181 0.016332489 -0.0031763774 -0.0042200955 -0.016353074 0.018049177 -0.0013169047 0.0015043624 0.005093938 -0.013398416 0.0037120262 0.005396593 -0.01677632 0.010709323 0.0055880225 0.01626418 0.009492826 -0.007401215 -0.018493572 0.015882237 0.0059661986 0.011357387 0.013320102 0.006787168 -0.013687524 0.0010113636 0.014990134 -0.011867393 0.021125197
m354 -0.01670665 0.0059196195 0.00920147 0.010435706 -0.012832788 -0.0102229 -0.012880642 0.009104939 -0.009396819 0.016693491 -0.010722922 -0.019830335 -0.013219674 0.011472799 -0.017089559 -0.009965631 -0.017404208 0.011854703 0.0073701264 0.003540118 -0.007525094 0.011355266 -0.009979369 -0.0016423175 -0.016559385 0.0022287266 -0.0062239706 0.015491285 -0.0001390111 -0.014506103 -0.011667908 -0.015254717 0.0041309833 0.019435685 -0.012383937 0.019442337 0.017839463 -0.018745271 -0.017544633 0.018156271 0.019109262 -0.0089142835 -0.014091883 0.017096888 0.008597887 0.014419941 -0.016056055 -0.023864439 0.0058403844 -0.0210378
m174 -0.021899596 -0.0066313297 0.026179437 0.032845914 -0.0010059077 0.019762062 0.028727634 -0.01401278 0.031686068 0.03310075 0.003195915 -0.013090498 -0.0096037425 -0.0028503467 0.027246617 -0.013799497 -0.0100227 0.028359497 0.012729818 0.010299151 -0.0235353 0.0076503004 0.017986067 -0.011013196 0.027309094 0.04231559 0.0005182169 -0.018570453 -0.0047934316 -0.021604775 -0.015576046 -0.0017014785 0.0064297365 0.0311291 -0.0284937 0.02434329 -0.025532259 -0.016202454 0.030987808 0.016839297 -0.002419233 0.019954935 -0.015000925 -0.024219166 -0.026288746 0.023499776 0.027253067 0.024818933 0.018833464 0.016886914
m65 0.0013125301 -0.022416795 0.011050337 -0.0023029556 0.010186202 0.0044325404 -0.006671199 0.016982319 0.0029880484 -0.00056107756 -0.009763518 -0.018269178 -0.018301716 0.018167358 -0.020075303 0.019566743 -0.020049153 -0.0011126838 -0.003075335 -0.018995274 0.016470615 0.015024629 0.008262935 0.012080974 -0.0009755329 0.023576243 0.013575243 -0.022974676 -0.010444004 -0.0019946918 0.0070229718 -0.008935531 0.0026615711 -0.015909478 0.0046691755 0.011755393 0.010519688 -0.009880007 -0.015758274 -0.019747311 -0.0012028546 -0.014850865 -0.014135122 0.012924083 0.016499441 0.0033315187 -0.016580826 -0.014647084 0.018810283 0.0054342174
m1237 -0.012543254 -0.016603338 -8.740504e-05 0.004891611 0.0045194994 0.002528436 -0.009427831 -0.019536681 -0.014864918 -0.0038138216 0.011133948 0.009097351 0.005836271 0.015915938 -0.00544454 0.012005679 -0.021574317 0.0189576 0.006089176 0.017053025 0.017800873 0.0227396 0.004334568 -0.004238729 -0.0021920202 -0.025200857 0.019408673 -0.014876527 0.015053481 -0.00558008 -0.0032261754 -0.024252143 -0.024557348 -0.013269747 -0.015191845 0.0058245724 -0.014555489 -0.008980827 -0.011072002 -0.0074681696 0.020983389 0.010955107 0.021266928 0.020716961 -0.010465452 0.02418797 -0.022386545 -0.006077993 -0.020389035 0.011582202
m877 0.002302354 0.015754394 0.0048650703 -0.021848887 0.01739371 -0.012903399 0.022301205 0.009814828 -0.008978295 -0.012140122 -0.010336053 -0.016817914 0.018858781 -0.008799535 0.01781487 -0.018515429 0.0010814697 -0.00423337 0.015626343 -0.020825261 0.013750373 -0.012529685 -0.01473423 -0.014854696 -0.008873798 -0.010577682 -0.0046555973 -0.016469808 0.0012021222 -0.0033679318 -0.006605143 0.009379094 -0.019922152 -0.00400169 0.013432432 0.017396703 -0.021867355 0.011776296 0.016440129 -0.012308285 0.01982496 -0.022611221 0.014574268 0.015084735 0.00059943646 -0.014724766 -0.011663885 -0.0058482983 0.0052097226 0.0040750224
m66 0.012464855 0.01917945 0.021843428 -0.011783027 0.017201543 -0.0028562811 0.010448969 0.0064990777 -0.0006126373 0.006512548 -0.012614329 -0.012527162 -0.017869866 0.003133096 0.010792923 0.0013155999 0.0009634154 0.0055950955 0.01686735 -0.016740648 0.0038115948 -0.014384344 0.009519617 0.022745352 0.012511071 0.016024975 0.016515229 0.011083381 0.013667754 0.020270653 -0.010022699 0.01731469 0.009285067 -0.004216168 0.01575158 0.012716343 0.020270197 0.0015848906 0.020409873 0.0023132314 0.020227054 0.0077983784 0.012659439 -0.0069897217 0.013640627 0.014342801 -0.0050457586 -0.0073397 0.0083842985 -0.015879406
m984 0.022016602 -0.02199357 -0.009820184 0.0088650575 0.013073966 -0.011846584 0.00553424 0.028625038 -0.01376446 -0.0136803165 -0.013581795 -0.010714586 0.0008685907 0.02276621 0.015374527 -0.000114126815 0.0043985513 0.019419275 0.024104988 0.008135408 0.020627704 -0.021448508 -0.008188695 -0.013929022 0.015690101 -0.005430024 -0.02203119 0.016771244 0.019288875 -0.010130507 0.025422307 -0.0011960818 -0.010489622 0.001739452 0.0010874647 -0.014153365 0.0070357453 0.014967692 0.018111939 -0.023211809 -0.001524931 -0.019220367 0.015269919 0.019443113 -0.01335589 0.007043238 -0.011913503 -0.0013578605 0.02401295 -0.0065269754
m1042 -0.011772738 -0.014584366 -0.008994234 -0.0044460404 0.006651381 0.019445116 -0.0055733407 0.003920318 0.019470945 0.0012817486 0.0025875198 0.020233529 0.020169575 0.018451765 -0.014966868 0.023153912 0.012864984 0.019423036 -0.0073377574 0.009927168 0.015075725 -0.0055729896 0.017888775 0.0065218955 0.01722278 -0.008581009 -0.0055347616 0.010441053 -0.019922474 -0.012219042 -0.015666472 -0.005678322 -0.007814315 0.017866388 0.020163337 0.0010766777 0.0026920275 0.005470468 -0.0044761817 -0.017760161 0.01785474 -0.008243222 0.012290309 0.023640128 0.0072102873 0.011944841 0.0076460787 -0.0055533545 0.005120512 0.0021796648
m1642 0.013352015 0.010618771 0.003968634 0.013665908 -0.021697028 0.010630964 0.019667404 -0.006485968 -6.945264e-05 -0.013730112 0.0026533639 0.0046749944 0.016618997 0.0012649175 0.003629402 0.0022568705 0.017323228 -0.015311171 -0.015287033 -0.008863354 -0.0056430413 0.010303955 -0.015179018 -0.0056730052 -0.019335194 0.009870347 -0.0063653155 -0.019380372 0.0072671375 0.022144979 -0.0044115805 -0.01186086 0.0036061832 -0.0009899238 -0.019765863 0.018808743 -0.016754199 -0.011230046 -0.0054185805 -0.013359857 0.0035397008 0.018920172 0.008836274 0.016562868 0.0021869252 0.0004303345 -0.0050914777 -0.021512542 0.007888885 0.004075035
m1047 -0.022103151 -0.00940933 -0.024562014 -0.021392237 0.011949656 0.020012539 0.012819259 0.009831332 0.01660977 -0.0066742618 -0.0054109534 -0.023094682 -0.0019215303 -0.011522811 0.0019476445 0.019604018 -0.01875025 -0.010329891 -0.013534526 -0.010816871 -0.010253131 0.0021223556 0.004593066 -0.013602111 -0.012603044 -0.0007616609 0.014340385 0.0079142535 -0.008102652 -0.01054671 -0.020057794 -0.00023704162 -0.0013180414 0.008767629 0.019116802 -0.00532784 -0.0021291052 -0.01597594 0.0034458733 -0.022308476 0.0017675547 -0.00014205227 -0.018264119 0.025474574 -0.023108616 -0.025738737 -0.02238854 0.01870521 0.014486066 0.020585693
m1631 0.004388764 0.0018212729 -0.004057934 0.01902883 0.0057472507 0.008061093 -0.001794419 0.004319917 0.012490888 -0.0017026615 0.005498709 -0.0026783105 0.010838706 0.007971606 0.00658579 -0.010419177 -0.009213077 0.008284452 -0.011992382 -0.0008439911 -0.0017436106 0.007470199 -0.01632528 0.017722413 -0.0028899165 -0.010225518 0.0070222113 -0.0057022423 -0.017162554 -0.009170095 -0.00015985148 -0.017931094 -0.0006017467 0.0068116835 -0.0054736035 0.00691115 0.00446793 0.019809248 0.0029144017 0.0024847162 0.0066500506 -0.003675254 -0.017969174 0.016345076 -0.0029409362 -0.020305712 -0.013219225 -0.009071933 0.009209418 0.010641404
m419 0.011328001 -0.016127255 0.0051237466 -0.009191823 -0.014588489 0.013575603 0.0077997204 -0.0036254833 -0.017136123 -0.012658849 -0.00093443 0.01488976 0.010821818 -0.018172147 -0.023185017 0.015915802 -0.007337283 -0.0089461375 0.010818738 -0.013110421 0.007864633 0.0002939693 -0.011351486 0.0023028124 0.010303731 0.02472596 0.00358374 0.008505893 -0.011041423 0.0002802162 -0.010466288 0.001710835 -0.0044407635 -0.006367881 -0.015644178 0.02329678 0.008224936 -0.009462887 -0.0078057903 0.015943667 -0.012162615 0.006845696 0.00062479195 0.017466031 0.01624406 -0.007362231 0.0052498793 -0.008034561 -0.01710812 -0.008808533
m2482 0.0006818939 0.011517265 0.019703323 0.022200119 -0.020751534 0.013799908 -0.009629368 0.0012851135 -0.0030738157 0.015520765 0.0078085237 0.011625334 0.024042403 -0.0012943684 -0.017241947 -0.014685643 0.01886576 -0.014475135 -0.008469884 0.010354217 -0.006305433 -0.01517539 -0.0037128602 0.004654646 -0.00035904878 0.013887072 -0.013368421 0.005803649 0.018486943 0.008065532 0.0153366765 -0.013538972 0.014216818 -0.01920555 0.011555809 -0.019820163 -0.010678198 -0.024331864 -0.0028919019 -0.015544709 -0.011606521 0.0021724382 0.0075771087 -0.0071788603 -0.015373643 -0.015233177 0.0028373087 -0.014723247 -0.017954735 -0.0043014903
m1328 0.015259266 0.01306069 -0.025528679 0.005516723 -0.010688176 -0.025115648 0.0057126866 0.0017333134 -0.014341581 -0.018194083 -0.005989081 0.015616042 -0.013930965 0.022848923 -0.0064410334 0.0067389654 0.01952664 0.015305004 -0.017217057 0.015819265 0.0096491035 0.020888973 0.004545956 -0.009320667 0.0010640385 -0.019789165 0.003973886 0.00970322 0.007167292 0.025402782 -0.021565966 -0.018450715 0.009594865 0.008275121 -0.012963319 0.008487031 0.0068867407 -0.0044420427 -0.008673608 0.013369564 0.025742209 -0.017081846 0.004176333 0.0022836693 -0.010552626 0.008304365 -0.013751998 0.020554446 -0.01729453 0.01112178
m2532 -0.00170303 0.008031406 0.0050583105 0.020455455 0.0008248578 -0.0114071155 -0.0014518093 0.007043768 -0.008369464 -0.015966028 -0.013012173 -0.014302405 0.012428374 0.007989051 0.015854511 0.014034848 -0.012579363 0.0035691345 0.016728798 0.0019500797 0.0051270514 0.012528259 -0.017121827 0.016458374 0.013083269 0.016738871 -0.018814512 0.010968272 0.011900183 -0.0024775104 -0.012686701 0.011052447 -0.014756419 -0.009068246 0.008245889 0.018015923 0.016449358 -0.00862968 -0.017783789 0.01768689 0.014536756 -0.008405458 -0.016722927 -0.009542549 -0.00640207 -0.006589136 0.0011446896 -0.001988037 -0.0056777387 -0.011765338
m639 0.019963542 -0.011377123 -0.01405119 0.016493546 0.0023610415 0.015978426 -0.007822181 -0.012521798 -0.0019079808 -0.0037512237 -0.01889927 -0.0032723777 0.007616352 0.012262069 0.013815061 0.008125361 -0.008370931 -0.004831213 -0.011807289 0.010538195 -0.013370701 0.0064785415 -0.0014698561 -0.011211511 -0.017255602 0.012990656 -0.018593773 -0.0014477202 0.004400389 0.01752018 -0.014998141 0.008093063 0.017926205 -0.014830708 -0.0069046794 0.01151004 0.008774159 0.002653178 0.015898904 0.0013628482 0.007112781 -0.0044326433 -0.018741304 0.0075660613 0.0068891644 -0.019154733 -0.0022007974 -0.0033327087 0.0015602873 0.018606016
m1164 -0.006723986 -0.011606177 0.018217271 -0.015564371 -0.021318952 -0.0025605322 -0.015931584 0.0023412467 0.006865376 -0.0069225845 -0.015542402 -0.0008166195 -0.0009763023 0.0052133254 0.01746131 0.012767246 0.01681408 -0.023156073 0.021817155 -0.005410079 0.01623726 0.0032064759 0.0064748144 -0.02216943 -0.022528786 0.02111437 -0.00684108 0.0030366667 0.014099072 0.0025526283 0.020739729 -0.0020098062 -0.020022841 -0.01123592 -0.00074468256 -0.016574869 0.01317255 0.008442378 -0.017898656 0.01785527 0.02027308 0.012454358 0.014065502 -0.020223655 0.0024026847 -0.020737695 -0.0078001353 -0.0027751797 0.0016464653 0.0018955586
m1903 0.0051999646 0.0025847226 0.013361519 0.015367537 -0.014433675 0.01627833 0.012484913 0.0222114 0.009848199 -0.006296711 -0.00961895 -0.0022759102 -0.0026830712 0.020514756 0.0006159761 0.008494777 0.007824378 -0.021257166 0.015597084 0.015244917 -0.0051672785 0.0053344094 -0.014609747 -0.013813859 0.015861401 -0.0066701844 0.011966897 -3.3639371e-06 -0.0066238972 0.006029821 -0.007673633 -0.002030982 0.0021098212 0.013600211 -0.0015729025 0.0030006955 -0.018808825 0.021558065 -0.017570904 0.013671313 0.010136578 -0.013596711 -0.011669653 -0.016534695 -0.008366786 0.014728891 0.019952165 0.0043007135 0.0014408147 0.019803397
m267 -0.010589924 -0.004183955 0.009288065 -0.017544765 -0.02424631 -0.019977424 0.017527958 0.013928939 -0.009858355 -0.019725382 0.0023066706 0.004291763 -0.004733478 0.0027981861 -0.011344175 0.01116001 0.0022582375 0.017513419 -0.020105163 -0.012255312 -0.020437362 0.0008095539 -0.014282639 0.013175295 -0.016283777 -0.0077367374 0.008779775 -0.02036891 0.0030630205 -0.013204165 0.024177028 0.019322861 0.0035457257 0.010552576 0.0102686975 -0.010501553 0.0211677 -0.024932614 0.019399082 0.0057863486 -0.0061416794 -0.0074101067 0.01893251 -0.010109017 0.019979458 -0.013921047 0.016160531 -0.0050917477 0.019019166 -0.010223131
m769 0.010462242 0.018488752 0.0067272335 0.0023036418 0.0080287345 0.017767174 0.018218381 0.018844994 0.015418079 0.015682915 0.016253397 -0.0011855208 -0.0016082881 0.0013729829 -0.00016274212 0.001939667 -0.017211631 -0.022340855 -0.00310711 0.018516015 -0.009005012 -0.01610142 0.008301541 5.688164e-05 0.002589898 0.008529494 0.006144348 0.011254769 0.0027018837 0.0045226226 0.018205576 0.006432161 -0.0099877035 0.015156737 0.011919172 0.0063882056 -0.008279131 0.0074426443 0.0136245275 0.0155211855 0.0028810597 -0.017582959 -0.0002531763 -0.00027974846 0.009344886 -0.020310406 0.020267874 -0.016484104 0.013751574 -0.019135267
m1298 0.022162158 0.012760539 0.0013566202 -0.0048467964 -0.004395311 -0.0010178618 -0.011202954 0.013227395 0.001768407 0.0038825101 -0.012665058 0.017746948 0.0022034242 -0.0012172416 -0.021605404 0.009714621 0.014889391 0.012878247 -0.01673145 -0.016271286 -0.013097822 -0.0016559815 -0.013952739 -0.016125744 -0.0064587807 0.0046598325 -0.021855528 -0.008389149 0.0011762473 0.01875282 0.007417953 -0.0012473776 -0.01827153 -0.01501915 -5.3035317e-05 0.017233284 0.008715745 -0.0041759876 0.0026832065 -0.022528106 -0.0040020635 -0.010773212 0.011274157 -0.006220491 -0.006522031 -0.021657739 -0.002847336 -0.019373013 -0.003807886 -0.009613385
m1299 -0.003331644 -0.009461739 -0.01771019 -9.037129e-05 0.0004782153 -0.009532858 -0.014378949 -0.0058209724 -0.021226898 -0.0040700305 0.012679889 -0.0064302655 0.007377889 0.010583534 0.014572332 0.013180352 0.019869462 -0.021942839 -0.018938398 -0.015168058 -0.01798819 -0.01654593 -0.013823869 -0.005414369 0.0018697943 -0.005122022 -0.018966403 0.009159959 0.0013850589 0.0126248235 0.018192545 0.014575419 -0.0030050867 0.009216931 -0.009786017 0.0049540964 0.008721388 0.020083828 -0.0065420545 0.0037836062 -0.01169349 -0.004635165 0.01627533 -0.009492879 0.000640607 -0.020042522 -0.017980257 0.014852098 -0.011770174 0.011491464
m2481 -0.017407259 -0.0056628794 -0.020305416 0.017284987 0.011797426 0.012789844 0.02085976 0.0004654974 -0.02466101 0.021346498 -0.012998144 0.017602764 0.01358766 -0.0026693016 -0.018962303 -0.005092001 0.016452996 -0.017368088 0.001813054 -0.01650292 0.019531269 -0.009936525 0.02327786 -0.0112439105 -0.02549452 -0.019711403 -0.009436996 0.00914285 0.002191038 0.024395468 0.011421362 0.005864338 0.008432206 0.014830184 -0.0006660239 0.017068965 -0.025364343 0.0049581565 -0.0025732848 -0.0008752135 0.012787871 -0.006226437 -0.0049975705 -0.0046674185 0.0014051998 -0.009899567 0.014807213 -0.018600738 0.01838864 -0.0011407731
m1606 0.008285766 0.007009763 -0.0009660009 0.0064699207 -0.009144439 0.007111836 0.0014962996 -0.0052515143 -0.020704756 -0.024573281 0.0036186771 -0.012593382 -0.0026747913 -0.008903107 -0.020706536 0.0013961458 0.013305114 -0.008947562 -0.017552655 0.006484214 -0.0009139582 -0.012071205 -0.0018153848 -0.002721668 -0.008782574 -0.02228341 0.013370754 0.008071108 -0.0064375573 0.017505154 0.00408271 0.013606609 -0.0038450153 0.015711194 0.0007237738 -0.012757942 -0.010736886 0.020795243 0.0015400634 0.001297751 0.015581266 -0.014476042 -0.00424708 -0.017764319 -0.011863613 -0.019287784 0.007814707 0.0022865478 0.012876334 0.00660718
m1327 0.0051659266 0.011357378 -0.0050443285 0.0078708315 0.01608817 -0.00028943518 0.014797324 -0.012752483 0.012231836 0.0074684485 0.011426239 -0.02118927 -0.0021097243 0.0062203873 -0.014018824 -0.013956473 0.013266935 -0.017521432 -0.013803142 0.016238166 -0.015239724 0.018455276 0.0020522894 0.008466919 -0.007906962 -0.012681657 -0.019454954 -0.0014045123 -0.010829397 -0.0046772244 0.017378662 -0.015467187 -0.015045825 -0.009945543 -0.0126574375 -0.018778421 -0.0029471952 0.019317325 0.017653191 -0.012482688 -0.018842338 -0.0067344513 -0.01911985 -0.010200975 -0.010248089 0.003927 -0.018550806 -0.0007064713 0.006097072 0.010072613
m2391 -0.004688794 -0.02284548 0.013374418 -0.0125559075 0.0077382843 0.002789051 0.019885097 0.0064434763 -0.0047790883 0.014224115 -0.015862692 -0.018456295 0.008486998 -0.005235837 -0.009989868 -0.0031998232 -0.019822113 -0.002325561 -0.0013844084 -0.008250745 0.0040637264 0.009849487 0.013766225 -0.01801035 -0.011298319 -0.019319512 -0.020650713 -0.011177429 -0.004149205 -0.016948437 -0.011346497 -0.003940999 0.0123777855 0.005534847 0.018754913 -0.016062934 -0.011999913 -0.0011471749 0.018012332 0.0006149758 0.0047198758 0.0028159807 0.005253556 -0.018503455 0.009754692 0.011501421 0.010134484 0.008495699 -0.017082715 -0.0068888613
m1254 0.01724344 -0.0030438856 -0.02135923 0.008397341 -0.01354238 0.011823436 0.011874185 -0.008686114 0.0030873152 0.011085197 -0.0058959224 -0.0043509374 0.019540023 0.02108664 -0.021761855 0.014632928 0.021220585 -0.008106571 0.0033037388 -0.006138352 0.01623782 -0.00077124074 0.012747139 0.020295078 0.008086964 -0.0150562655 -0.005575631 -0.0018792632 0.0033019914 0.007164982 0.021942869 0.010590856 0.018107323 -0.016940845 -0.013278749 0.005928544 0.008066558 -0.003021783 -0.014435719 -0.0087524075 -0.0153114265 0.02142067 0.00858048 -0.015023843 0.0069872322 0.009737161 -0.013966188 -0.012647696 0.0038233546 0.019640693
m45 -0.020120002 -0.00081888016 -0.01371957 -0.0030565439 0.0046225544 -0.011655705 -0.0060748965 0.0032938828 -0.014793179 0.014018938 0.009069727 -0.01847112 -0.003840532 0.006615696 -0.018353183 -0.014435874 -0.01854357 -0.012380881 0.018980088 0.013413361 0.005932953 -0.017737603 0.013029167 0.00954621 -0.0020584916 -0.018575221 -0.0037470025 -0.0024864802 -0.01685185 0.0065712156 0.0005824776 -0.016023627 -0.0190262 0.014701272 -0.016217912 -0.010152895 0.01110344 -0.0031898383 -0.0056126798 -0.0119156325 -0.0013387767 0.010939853 -0.011636457 -0.0112811215 -0.009520697 -0.008712787 -0.018251134 -0.022176791 0.01796511 0.016803991
m2174 -0.008913321 -0.018887032 -0.0038178028 -0.0070986706 0.019317375 0.0056156823 -0.010687349 -0.0050397073 -0.02242912 0.0031244545 -0.008698965 -0.0061896066 0.010036049 0.016616028 0.007821073 -0.015135394 0.013498632 -0.022701813 -0.017162941 -0.017966129 -0.0055088936 0.0023830708 -0.007226909 0.0037928822 0.017647464 0.012329049 -0.0036176788 0.018444156 0.0032170615 -0.002960255 -0.013353692 0.013912335 -0.020263672 -0.0027985387 0.016290318 -0.005512374 0.0025945466 -0.015034888 0.011346512 0.013852876 -0.020347528 -0.0067931516 0.01653189 0.0077442476 0.00082860736 -0.00017535833 -0.022059262 0.016916405 -0.0033720522 -0.010507635
m1329 0.006103146 0.0027873516 -0.016561175 0.010556235 -0.004048071 -0.018293692 0.018906321 0.015491652 0.018749844 -0.0017022453 0.001833871 -0.017197778 0.012137524 0.026970796 -0.005954708 0.0012372842 -0.011136569 0.0044680494 -0.02401096 0.020629903 0.004416998 0.027313055 -0.011240976 -0.011404949 -0.014763199 -0.024057968 0.009222489 0.008452969 0.00028100578 0.01162056 -0.025808098 -0.008530203 -0.021665335 0.010867494 -0.00530251 0.02559524 -0.0063483757 0.015145583 0.008450678 0.0054805204 0.0056038285 0.019120736 0.009220327 0.025267176 0.008957978 0.022072904 0.008642283 -0.0163569 -0.017151749 0.005674355
m943 0.0021652342 0.0032322295 0.0041776053 0.01658991 -0.00910187 -0.00012126948 0.014462308 0.009283173 0.009565325 0.008592178 -0.0046315826 -0.018862993 0.0043406915 -0.016860526 -0.004342111 -0.019851387 -0.001236625 -0.015688395 0.017915854 -0.012441489 0.02439195 -0.02075276 -0.008741261 0.0026087416 -0.0048989956 0.0034145901 -0.009217817 -0.0014728733 -0.010968415 -0.022567896 0.015405649 0.0017238816 0.012630078 -0.013777669 0.0068244464 -0.02432083 0.016006093 0.013123311 -0.0107260635 0.012582755 -0.009759615 -0.022064904 0.0026512055 0.010317535 -0.01790045 -0.017425623 0.0193081 0.0020181949 0.0044697267 0.0051391865
m1401 -0.0079329405 0.003297358 0.0052007395 0.019906752 -0.011630551 0.004123093 0.0138772065 -0.01200118 -0.017715782 0.018267458 0.013082387 -0.0085651735 0.012551249 0.0020912983 -0.010021842 -0.0025792294 -0.010026963 0.010799046 0.004256591 -0.01724304 -0.0011421656 -0.004998529 0.013434818 -0.002841887 0.0143415155 0.004548676 -0.009392517 0.014561421 0.006112153 -0.008033094 -0.011463589 -0.0052747093 -0.011486379 0.008960613 -0.018458577 -0.010562133 0.005842059 -1.4956338e-05 0.011516091 -0.007995603 0.00059210294 0.0059621017 0.011294429 0.0027709121 0.021092184 0.0073177647 -0.015185597 -0.0037103659 -0.016923051 -0.0107088005
m1607 -0.0034661426 -0.02219056 0.019066423 0.0019193545 -0.0024232452 -0.013989044 -0.016541936 -0.018429678 0.017374678 -0.007386417 0.009325723 -0.009799459 0.020700375 0.008986173 0.0016548109 -0.007603388 0.0031815197 -0.008527651 0.01421679 0.009997715 0.0016043505 0.0065478613 0.008877783 -0.01662515 0.017691365 0.002543937 -0.013265249 0.017004253 -0.0028704493 0.018881192 -0.0023047514 0.015849613 0.0037092818 -0.007789176 -0.0072562355 0.018952621 0.0033819207 -0.013404104 0.0011523657 -0.00642863 0.004122402 -0.01581334 0.015611736 0.0017655073 0.017460803 0.008322563 -0.009008203 0.006531006 -0.00021661205 -0.021057984
m1236 0.016777296 0.018673003 0.020515786 -0.008933075 -0.018663846 0.009097667 -0.014195063 0.020394603 0.0048750537 0.011688356 0.011482434 0.0008523585 -0.0052642096 0.0018024583 0.020064948 -0.014020552 -0.00325437 -0.006688623 0.0094634015 0.012457225 -0.009652537 0.006556797 -0.007960671 0.00604004 0.015303215 0.008497757 -0.011014115 -0.009276536 0.015617268 0.02102928 0.012240897 -0.0062156166 -0.0048745633 -0.01102094 -0.008416397 0.008492803 -0.015613322 -0.014816415 0.017872732 0.01720394 0.017347103 0.0043151416 -0.017589211 -0.01477295 0.0038089047 -0.019414334 -0.015474682 0.0017138617 -0.0042054825 -0.018609094
m1261 0.014656496 -0.017678687 -0.015624918 -0.0027465953 0.0013644474 -0.0038977088 -0.009680068 0.01401061 0.016286993 -0.01760167 0.020935241 0.014303664 -0.015872575 -0.004151213 0.00708101 0.013954705 -0.0076109725 -0.016695922 0.0071746795 -0.018781476 -0.01208611 -0.0019638294 0.01170669 -0.011347473 0.0075827567 -0.0012439522 0.004381259 0.012095935 0.0016639057 0.017380126 0.00069184706 -0.01650149 0.01724123 -0.010542732 0.009849587 -0.0073464164 -0.015302819 -0.013811332 0.009750215 -0.0019686779 0.0027895262 -0.019494029 -0.010813965 -0.012096331 0.018431975 -0.018040264 0.009447527 -0.0049450053 0.0027439818 0.01749663
m1280 -0.006831727 -0.0152649265 0.002653447 0.015304605 0.016366437 -0.008218664 0.0068618716 0.01169604 -0.012110887 0.0136796655 -0.013841772 0.004489512 0.00862706 0.009146559 -0.0101442905 0.0055752206 0.014723308 0.015728429 -0.01993737 0.010585845 0.009808424 -0.0036160399 0.019700386 -0.00918983 -0.004744489 -0.0135234995 -0.009459166 -0.0017720436 -0.007044407 -0.010653227 0.012995574 -0.010239434 -0.013062047 0.016893046 0.020199982 0.009516443 -0.0010503221 0.00087054144 -0.0017579128 0.012075296 -0.012020897 0.00152792 0.009504534 -0.0046954323 0.0031292653 0.00700358 0.0188529 0.0024006309 0.021231333 -0.011432362
m1509 0.011880182 -0.010097663 -0.009795146 0.0038132158 -0.013555915 -0.014066954 0.009229594 0.018721104 -0.018015286 -0.023389205 -0.0065669385 0.014537211 -0.019326814 0.01859987 -0.003903286 0.006572469 -0.003075402 -0.014329859 0.0036057723 0.011338501 -0.016829329 -0.0022981893 0.0051300563 0.0097376965 0.012907896 -0.006643524 0.012367713 -0.0124915475 -0.0067522377 0.023670547 0.01423902 -0.017784137 -0.0048906608 -0.018183557 -0.0024971608 0.013099118 -0.015616944 0.010891344 0.01144926 -0.009877379 -0.020629495 -0.007102885 -0.006271655 0.0073115663 0.022515224 0.002102783 -0.0049851816 0.002322217 -0.014109058 -0.003919992
m1326 -0.001113205 0.020530714 -0.012144688 -0.012879955 0.0024686872 0.0022114036 -0.014146099 -0.01079366 -0.0026219622 -0.008909165 -0.017289145 -0.008295297 -0.0064263497 0.014107727 -0.00047606401 0.0023073454 0.0017781924 -0.010322907 0.005169262 0.0015970514 0.012818744 -0.0013210437 -0.017910114 0.0011486236 0.017728662 -0.010582815 -0.013000848 -0.005112884 0.017381273 0.0003858924 0.021156063 -0.01838937 0.018138586 -0.020007122 0.019327436 0.0035082148 0.0048865112 -0.011651985 0.01822881 0.010306829 -0.0115618445 -0.020944882 0.014838702 -0.011808567 -0.01691414 0.0056439117 -0.010376236 -0.017297836 0.020468252 -0.0026885914
m244 -0.0036582623 -0.009740724 -0.007852736 -0.010618182 -0.014208358 -0.01253802 -0.015721506 0.021202397 0.01203447 -0.0073583513 0.0056345775 -0.016057028 0.015318634 0.017891208 0.0013346954 -0.015227149 -0.007046111 0.009205112 -0.0060836193 0.0045011565 0.020035185 0.0087768715 -0.008633137 0.011038823 -0.008378462 -0.013305761 0.013001725 -0.023465315 -0.0030294366 -0.0027682446 -0.017573578 -0.0039691925 0.009487788 -0.008562429 -0.012873754 0.014370797 -0.007985221 -0.018297441 0.0018361193 -0.0018837127 0.016569393 0.0028255547 0.016949156 -0.020476831 0.00939548 0.013980648 0.0014658066 -0.006175401 0.0049255765 -0.0015637013
m1446 -0.016219055 -0.014384944 0.0009560166 -0.0049615945 0.020305645 -0.004428296 0.015205042 0.004037153 0.015112891 -0.021895597 0.0050932746 -0.0022975162 0.0053962544 0.003986697 -0.01657593 0.021792885 -0.007600449 0.0061894045 -0.018405013 0.013398572 0.022862606 0.0019873572 0.015619792 -0.0010335242 0.015262268 0.014908471 -0.000266282 -0.004699593 -0.02139768 0.023006173 -0.008763497 0.00015076077 -0.0076109753 0.020273147 0.017931096 0.0075677186 0.0057745506 0.013683349 0.0055040186 0.01442756 0.0041839937 -0.005215541 0.013416209 -0.0017475362 -0.004975941 0.024960758 -0.02104671 -0.0069359452 -0.010492787 0.014332757
m2411 0.017273156 -0.016049929 0.012877841 -0.0040977015 -0.017714556 -0.007634622 -0.0040097027 -0.0076770643 -0.0027768696 -0.013341316 0.012798613 0.020694897 -0.0037353835 0.00967626 -0.0009935872 -0.0010767805 -0.01479995 -0.00019241824 0.008614773 0.014812524 0.013214695 0.0076704514 0.010819582 -0.018388562 -0.0031355207 -0.015102371 0.013556815 0.018069625 -0.008582649 0.003340299 0.011340114 0.00645982 -0.0012868582 -0.013367692 0.021326587 -0.017516244 -0.011553783 -0.011213744 -0.012545995 -0.00903487 -0.01867858 0.0019348355 -0.008169819 -0.0074573983 0.013668288 0.0055114413 0.0035363517 -0.003474724 0.023150196 -0.0010044436
m1046 0.009638087 0.020986505 -0.025340369 -0.03062367 0.024520203 0.0072088605 -0.00042116287 0.014050875 -0.011555008 -0.019052716 -0.020932037 0.013270127 -0.009103269 -0.022490751 -0.01204293 0.01929289 -0.009807 -0.015187674 -0.004302119 -0.004235775 -0.0119975405 -0.0062897764 0.008504051 0.0015638383 -0.008727866 0.0028568057 0.013917659 -0.02185804 -0.016750274 0.013182361 -0.02601081 0.00134791 -0.02483275 0.023886032 -0.006296397 -0.016626596 -0.003912306 -0.007357841 0.025213761 0.013291761 0.0009795391 0.0035077916 0.01027205 0.005285421 -0.017075736 -0.006412848 0.0014104387 0.020485993 -0.0064843595 -0.022058357
m1356 0.015040163 0.01752346 -0.017022397 -0.00365658 -0.012176994 0.012060607 0.02251054 0.0036964626 0.014110029 0.014316175 0.0063485103 -0.019618586 0.0065028234 -0.0041727 -0.006501001 0.012279343 0.00079616415 0.018181412 -0.0015102078 0.0011084607 -0.0026288324 -0.018377276 -0.017184999 0.009413838 -0.01483528 0.0051141125 0.0034324073 -0.01723306 -0.006575967 -0.013074475 -0.024982678 0.0010748599 0.02261444 -0.015579741 -0.010219783 0.016706776 0.02087335 0.017509084 -0.022883195 0.010610569 -0.014485549 0.015240992 0.015394327 -0.0076934397 0.017586846 -0.014246344 0.0098880185 0.009320886 0.011778721 0.016030334
m2536 -0.009243945 0.008731977 -0.015442674 -0.013574118 0.004365618 -0.020824512 0.0014910102 0.0038445808 0.013408604 -0.012400514 -0.006368931 -0.007838876 -0.009338848 -0.0007658235 0.008026659 -0.0102573205 -0.0006755216 0.016372088 -0.003338636 -0.009015491 0.016360587 2.6167945e-06 0.0019330935 0.021602172 0.014454686 0.00706909 0.006217601 -0.004084241 0.020699127 0.013506464 -0.008208327 -0.016102903 -0.0014138826 -0.018243194 0.011252013 -0.020060657 -0.008085062 0.006312002 0.007572862 0.004550274 -0.021678451 0.007694051 0.012387388 0.004821428 0.018982144 0.00030425616 0.015284759 0.016111206 -0.0013769451 -0.0029126084
m596 0.006129448 -0.017494064 0.009801989 -0.012067583 -0.0077224616 -0.0043814383 0.018013187 0.0071900026 -0.00046499423 -0.005980484 -0.0062933657 -0.003540648 -0.010409427 -0.008786408 -0.001530826 0.011222241 0.0051365187 0.013635668 0.0006265132 -0.0076771374 -0.014536059 0.011806667 0.015718829 -0.012809118 0.0088856835 0.020257855 -0.014247002 -0.007502912 -0.019736677 0.006262875 -0.010069319 0.005267355 0.020206641 -0.016841413 -0.020284789 0.0033836532 -0.015501236 -0.020471623 -0.020053992 -0.0007207719 -0.0016739822 0.0018085919 -0.0015106003 0.018556783 0.021197122 -0.013014417 0.01845754 -0.019368904 -0.0020222876 0.0070908708
m1875 0.0019902259 -0.010749878 0.0018544225 0.0042052516 -0.023024391 -0.012570172 -0.015589654 0.010229127 -0.005966338 -0.019444833 0.013194446 0.0012193887 0.0049004843 0.010356707 -0.011765837 0.017760277 -0.014468986 -0.009339296 -0.019336672 0.00020868663 -0.01818563 0.018609008 0.013197864 -0.014962756 0.011965503 0.0153913535 -0.018892469 0.010305137 -0.016528899 0.022668248 0.012320899 0.00072823325 -0.020508066 -0.0027914545 0.0011344823 0.0034679412 0.015984895 -0.0058005536 -0.018164413 -0.019290434 -0.002813763 0.0014485196 -0.0016532482 -0.0046771597 0.02227487 -0.002056405 0.012516403 0.0058664037 -0.015229711 -0.004032675
m936 -0.016059339 -0.015544111 -0.007934451 0.013529236 -0.003843145 0.018138746 -0.0040017283 -0.009202318 0.0062598498 0.002941266 -0.0010058451 -0.0043266783 -0.011867779 0.007624913 -0.018098183 -0.017299138 -0.01864443 0.015437399 0.0068190824 0.014673282 0.018544376 -0.015832959 0.009917 0.0064975186 0.010288826 -0.0067328974 0.018382316 -0.012148822 0.014892608 0.01699475 0.00068072334 0.009181101 0.013149897 0.0042914865 0.016812116 0.0059706764 -0.00504323 0.01488239 0.009809476 -0.008162928 0.002734416 -0.00021200355 0.010111199 -0.011859508 -0.0067660837 -0.0035932236 0.007986678 -0.016044427 0.016999615 -0.0055729956
m536 0.013342303 0.0038773983 0.012070963 -0.008899029 -0.008048384 0.0043068393 -0.0048645055 0.012590326 -0.013125205 0.0031913058 -0.0013260163 -0.0018518807 0.0057859034 -0.004680627 -0.010296237 -0.016134808 0.006453169 0.01002993 -0.013604418 0.017259177 0.0073380684 -0.010305618 -0.0012079553 0.008453953 -0.015425138 0.004330128 0.010079064 0.012659564 0.010091344 0.009167595 -0.0047172825 -0.011739129 0.016274195 -0.014733188 -0.0036083532 -0.005900017 0.0129784 -0.013473338 0.0060660527 0.0033645013 -0.00817213 -0.017325234 -0.015464825 0.0068504256 -0.016214134 0.010649553 -0.00619783 -0.020810612 -0.010659548 0.016168524
m449 -0.00454797 0.01386406 -0.02048357 -0.020918772 -0.011364637 0.0020826408 -0.013932673 -0.019012129 -0.018221583 -0.0014875735 0.01596294 -0.016547753 -0.010255668 0.0042768256 0.006057346 -0.01538443 0.017031401 -0.017229337 0.008727559 0.02055818 0.011912275 0.013061391 0.01926003 0.00852626 -0.015833132 0.011120246 -0.01744434 -0.012813011 0.01135525 -0.015209715 -0.012718413 -0.009511309 0.0050743516 0.013656678 0.0053786947 0.011948365 -0.00558645 0.010050619 -0.014559913 -0.005111325 -0.014288747 0.0007219504 0.010386463 0.014236038 -0.008948857 0.005345257 0.015942644 -0.011877855 -0.008329881 -0.0015455716
m1666 -0.007089414 0.017631324 0.0150927305 0.021861225 0.016455874 -0.020600569 -0.00022778727 -0.015393395 -0.011850403 -0.023585334 0.008918225 0.0015734164 -0.014220932 0.016688764 5.8539e-05 0.0009282 -0.006968715 -0.011946562 -0.008688395 0.015387981 0.0035265984 -0.010594147 0.011011577 4.721454e-05 -0.0074964254 0.015370704 -0.0097563425 0.014669984 -0.009179523 -0.011199509 -0.0074793757 -0.008259054 -0.0030712388 -0.0029072857 0.0112874955 0.0132416235 -0.0049741603 0.008007574 -0.004335378 -0.0009323391 -0.0031972148 -0.0059021143 -0.009390226 -0.0094247125 0.00262183 0.0017239809 -0.01952263 0.009373199 -0.0034350303 -0.0054361825
m1138 -0.0064991317 -0.010365392 -0.0129780825 -0.022665111 -0.00035119054 -0.018669909 -0.008110247 -0.012394501 0.02300008 -0.0029858842 -0.018092832 0.007955747 -0.016742082 -0.0046194717 0.0053132386 -0.013658068 -0.01612544 -0.015569464 0.016177932 0.019490384 0.009779762 0.005104045 0.011247991 -0.008623516 0.019452618 0.014519396 0.0071312957 0.016818425 -0.0183552 0.0011392904 0.0134507585 -0.0009005445 -0.012745336 -0.005685953 -0.007459596 -0.0046756305 -0.0038146917 0.013961629 -0.004053022 0.010796352 -0.008050764 0.018629177 -0.01111599 -0.01948406 -0.0066509834 -0.013222347 -0.009906796 0.00017611172 0.005095716 0.0055443672
m2508 0.010060672 -0.0055258684 0.0050318427 -0.0019209998 0.016815022 0.015157525 -0.0047950516 0.0038035088 -0.012576227 -0.0110681355 -0.014128239 0.00079213426 -0.009537371 -0.006721392 0.0031419569 0.0056099314 -0.018584998 0.0025071618 0.010608936 0.009414415 -0.0065763975 0.019774538 0.020208519 -0.002382987 0.0026266894 -0.019863931 -0.010279482 -0.00069957355 0.007606688 0.0012881462 -0.01721501 0.013483655 -0.016897457 0.01856692 0.011143547 -0.013810768 0.005969846 0.015284737 -0.012504421 -0.0151024405 0.019528054 0.0037113072 0.020036984 -0.021258445 -0.002102681 0.013172314 -0.0032176722 -0.0037005972 -0.013612499 -0.013382143
m256 -0.015007308 0.017390851 -0.0026768106 -0.018015582 0.0153050935 -0.006806952 -0.00212036 0.0009202402 0.0041939574 -0.008851263 -0.002641308 -0.0062459307 0.017767567 0.01572679 0.0011940214 -0.012714859 0.0070683006 0.0025364803 -0.013677458 -0.013478201 -0.0067853276 0.0054805437 -0.01480284 -0.011583615 0.016722208 -0.0068608285 0.016288588 -0.0008734813 -0.013963668 -0.009930844 -9.7296754e-05 0.010376483 -0.011977973 -0.010766832 -0.01467326 0.014843885 -0.0047834646 0.007854109 -0.0031525728 -0.017146805 -0.00040522616 0.0010775416 0.008015685 -0.01704912 -0.012217644 -0.01359193 0.006200888 -0.009101539 0.004237046 0.009271639
m1144 0.013671185 0.0029724461 -0.005501153 0.0046796896 -0.017454319 -0.0149396425 0.0220051 -0.008345724 -0.024996107 0.0035323112 0.02114866 0.0001831846 0.00768274 -0.009406882 -0.009685967 -0.01697343 -0.017082116 -0.020198094 -0.018232873 0.016033297 0.020965023 0.000282267 0.0015606824 0.020222945 -0.0019275846 -0.008684031 0.0031450568 0.0057327617 -0.009781858 -0.008246021 0.02105848 0.020990415 -0.022134202 -0.01530143 0.0027413082 0.004498232 -0.020563493 0.019462923 -0.012335343 0.009427982 0.023960248 -0.0001205454 0.0055234265 -0.005436281 -0.018443557 -0.000986945 -0.003826054 -0.026312923 0.014235053 -0.017282449
m136 0.010088829 -0.010283127 -0.018156618 -0.019046742 0.011833486 -0.010984334 0.011643152 -0.0027996507 0.020019127 0.014384897 0.019451238 0.017393176 -0.016652765 -0.020307185 -0.011833438 -0.0010812121 0.009599088 0.0063940594 -0.0045589805 0.009266583 -0.008108279 -0.014309508 0.011285543 -0.021299446 0.0013412143 -0.010409544 0.014708745 -0.009654532 0.005297583 -0.012232408 0.020054642 -0.010494775 0.0067416467 0.008348735 0.018562164 -0.011088443 -0.009982168 -0.013113179 0.012746835 -0.011171436 0.009992 -0.0002723684 0.014888455 -0.012633498 0.00010002507 -0.00076910347 -0.018165069 0.01785271 -0.0032884118 0.0130492095
m2101 0.0010443698 0.011088822 0.004592677 0.018707482 -0.017175144 0.016990254 0.020543782 0.003755407 0.008518868 0.0067300485 0.008052482 -0.0076080956 0.0044031763 0.0019241411 0.009412034 0.016827352 -0.018516412 -0.0028647732 -0.020195106 -0.0054661226 -0.019721128 0.008256776 -0.0017475426 -0.0013201471 0.01191003 -0.018445587 0.0013824188 -0.0055916742 -0.007523809 -0.01449879 -0.01710778 0.017533474 -0.017355122 0.011627575 -0.007964972 -0.003663308 0.0053569195 -0.017651742 -0.011014974 -0.018446347 -0.01998284 -0.010698822 -0.006899139 0.0023398048 -0.0013012686 -0.016837323 -0.009654536 -0.00867179 -0.011737214 -0.013308172
m594 -0.0016980007 -0.019356139 -0.018109145 -0.018606262 0.005743195 -0.016904674 -0.006887415 0.017122487 0.018482978 -0.012533774 0.010849518 -0.017459987 0.0006509975 0.013163587 -0.007664471 0.02031627 0.001989959 0.009123429 0.013011514 -0.018435014 -0.011351049 -0.015847124 -0.00017975333 -0.015811162 -0.000723374 -0.017009186 -0.00017469598 -0.0031353321 0.012954974 -0.01915186 -0.013099971 0.013959511 0.020836668 -0.0037411964 -0.00022905735 -0.013451052 0.0033233555 -0.018837199 -0.018807102 0.003517005 -6.463907e-05 0.0129089225 -0.01793814 0.0025465356 0.0065239295 -0.010194683 0.0014391629 0.012540866 -0.013545658 0.0044458495
m2679 0.010661013 0.0028070693 0.0034809234 0.015157202 0.014019305 0.0053851604 0.017202025 -0.01310599 0.017915823 0.008058366 -0.012827306 -0.010666248 0.012886009 0.01156403 -0.020510966 0.0025744832 0.001346294 -0.00074514246 0.014240336 -0.013420802 0.021330753 -0.018819124 0.015777213 0.019270394 -0.009677812 -0.019464187 0.011520168 -0.01984124 -0.016867246 -0.0022655742 -0.017609734 0.018650845 0.016362412 0.0006945128 0.015470044 0.019745288 0.010826724 0.007987111 0.007889187 0.014315643 0.009334163 0.014380029 -0.012884165 0.01750033 0.018523842 0.020932276 -0.018859033 -0.0070830905 -0.0005765773 0.01005355
m2873 -0.0183388 0.0001139659 0.012963508 0.020994961 -0.0061323163 0.002387047 0.013682261 -0.0024656684 0.002276942 -0.019638777 0.00064403954 0.008855587 0.010103429 -0.020562196 -0.0113042435 0.00665248 0.0034898045 -0.011355927 0.012978929 0.005893155 -0.01693796 0.021795927 -0.015715253 -0.0070201997 0.020003619 0.0022385723 -0.012812338 0.00088484125 -0.009506849 -0.014235318 -0.01595407 0.01047086 -0.019809006 0.009951861 -0.010862393 0.012607146 -0.00997771 -0.0121055385 0.013032287 -0.020111838 0.004194022 -0.0045002955 -0.015025379 -0.015745196 0.015002624 -0.008499498 0.009695693 -0.020164886 0.0049148896 -0.0041599986
m309 -0.012506467 -0.0064517236 -0.016417954 -0.0073191407 -0.0068620024 -0.005194896 -0.010257515 -0.018166628 0.009976208 -0.0030284117 0.012608079 0.005716588 0.017080382 -0.007245414 -0.01914505 0.002910947 -0.017798517 0.011670317 0.016677272 0.00083997386 0.015898328 0.017733913 0.009566535 0.010893683 0.017828703 0.0029722005 -0.017291954 -0.017529583 -0.0038215616 -0.00018858683 0.017423058 -0.018543398 -0.0061692367 0.018415863 -0.003060113 -0.017415442 0.0037871504 -0.012622438 -0.011238254 -0.013433022 0.00083469553 0.014478291 0.007959199 0.016764931 0.01919064 0.009474871 -0.012792633 0.01284945 -0.018869566 -0.009168766
m1140 0.02004566 0.016404603 -0.013998474 -0.02023413 0.017798284 -0.011166172 -0.0068682237 0.01782796 0.015632527 0.006826696 -0.0040022456 0.016593287 0.018168231 0.013313471 0.019097248 -0.012728745 0.003912444 -0.007024786 0.014629425 0.022109382 0.014033969 0.009393947 0.016600156 0.011995072 -0.0027055254 -0.016580066 -0.006217642 0.01774187 -0.011428567 0.0018404564 0.0058199386 -0.014749147 0.017051192 0.001176012 0.0043746214 0.01831646 0.0026616754 0.0022683404 -0.02322685 0.023250768 -0.020494176 0.021006305 0.013329164 -9.244991e-05 -0.015790116 0.022060342 -0.0043436848 0.008780277 -0.00561533 -0.009314135
m2504 0.0007051323 -0.021327304 -0.012828547 -0.024076369 0.01322868 -0.0013119322 -0.0029868383 0.013208283 -0.0046743876 -0.018160086 0.005909794 -0.011960689 0.0026783845 0.022680506 -0.0022244111 0.013352986 0.008925214 -0.0108771315 -0.01098623 0.019543376 0.004096395 -0.0011227012 0.0041915914 -0.013869316 0.009117657 -0.008563263 0.008045507 -0.008833604 -0.0014254886 0.010522479 -0.013728617 -0.0014017075 -0.021014215 0.0048793247 0.0046234643 0.0040990897 0.0021921634 -0.00045651107 0.005549736 -0.0047214474 0.014232717 -0.0056066406 -0.010246804 -0.012925002 -0.018898796 -0.017826494 0.0042006406 0.0077364882 -0.011356773 -0.022847524
m2874 -0.013592655 0.009570465 -0.018749956 0.011055121 0.0134117985 0.011953291 -0.015669094 0.00726317 -0.013396781 0.018771457 -0.009539694 -0.005530215 0.010877471 -0.0026253932 0.010744944 -0.008636512 0.010399364 -0.021521429 0.013008672 -0.0037305765 -0.012668795 0.0014763782 -0.0026509578 -0.0023944231 -0.0045154965 -0.019276524 -0.017619852 -0.014977626 -0.018663965 -0.008994693 0.019986551 -0.0032850073 -0.016513035 -0.010822946 0.008324621 -0.0042204247 -0.0034447995 -0.009573345 0.012245385 -0.01882486 -0.013701558 0.015254719 -0.01662629 0.0048392564 0.0015021123 0.020833522 0.009293619 0.0036458385 0.0069418177 0.0043757
m87 0.0042060683 -0.0051732464 0.00940535 0.011519097 0.016949894 -0.0017628398 -0.0020056874 0.014407142 -0.017122366 -0.0011272539 -0.013196641 0.00943765 -0.018416725 0.007008472 0.017439548 -0.003947112 -0.017726533 -0.017661283 0.0061578713 -0.011101115 0.012560328 -0.0024236662 0.016846625 -0.0013752404 -0.013579445 -0.011004595 0.00091312616 -0.011643738 0.012534093 -0.0066510895 -0.011520108 0.0023210407 -0.009944752 -0.015884243 -0.010703911 -0.0026863618 -4.5970104e-05 0.0070522525 0.013920699 0.0130330585 0.01252767 0.0007974666 -0.011597308 0.018258058 -0.0004980676 0.009529956 -0.0035848925 0.010039652 0.011594841 -0.01474782
m308 -0.0060601477 -0.0002819272 0.005026867 -0.018709648 0.008293266 0.00653644 3.776999e-05 -0.006807756 -0.016223341 0.01502578 -0.017284269 -0.014780461 0.00907118 -0.017019015 -0.0077709462 -0.00432769 -0.0036796809 -0.015226165 0.008426657 0.0016884715 0.00715365 -0.0021907836 0.0150139695 -0.018945722 0.010693982 -0.009409791 0.0031279065 -0.014929008 -0.0053566564 -0.012444683 -0.0066912207 0.020180833 0.0050015347 0.004344731 -0.012244118 0.01290734 -0.017421253 -0.0054076933 -0.01279 -0.0135708125 0.005129174 -0.005913246 0.0044517023 0.0074922806 -0.011643642 -0.0030936552 -0.0060748854 -0.021295467 -0.019512337 0.001924777
m1194 0.009590401 0.0019333926 -0.012059558 0.006557656 0.0029593618 -0.021430213 0.015841784 0.017848248 -0.01620513 -0.0037143903 0.0125671225 -0.0056491555 -0.0002763339 -0.005759508 0.010598587 0.015893176 0.0054586865 -0.008837346 -0.0070582316 -0.0053031323 -0.020075362 0.018594554 0.0006284479 -0.0005808233 0.01305849 -0.021799026 0.012836821 -0.015989628 -0.011559007 0.013198902 -0.009890266 -0.0100676585 -0.014687902 -0.004269039 -0.0059003383 -0.0060400474 0.019394508 0.019990163 -0.00028386994 -0.00062447577 -0.0086717205 0.016573496 -0.008721086 0.015840907 0.019746982 0.015653972 -0.002338975 0.010968605 0.011751872 -0.006965562
m535 0.001869099 0.011946884 0.010957313 -0.0007524598 0.0039058954 -0.013961293 -0.017848132 -0.009234118 -0.011901195 0.00065400917 -0.008614167 -0.00051938626 0.01596808 0.020034235 0.015528579 0.004785875 -0.004978928 0.003912358 -0.0059091216 -0.01815057 0.0138889495 -0.017754555 0.008746857 -0.007957592 -0.0124752605 -0.002446002 -0.013774035 0.01639639 -0.013644451 -0.01763021 0.01144302 0.008949505 0.009817271 0.005383927 -0.0069725057 -0.009715891 0.0031457182 0.016527029 -0.011233511 -0.0055571804 0.0037807075 0.01370122 -0.012342944 -0.009837032 -0.0042044856 0.0026171934 0.010443262 0.009475744 -0.017229224 0.01475964
m1088 -0.005084063 -0.00681079 -0.020888159 -0.012772424 0.019060038 0.0053812577 -0.015632996 0.0068831104 -0.015917553 -0.017794222 0.008421752 0.00275102 0.0035355862 0.020295177 0.0100965295 -0.011026865 0.008223601 0.0038998579 0.003917716 0.016696539 -0.015349823 -0.0043676016 0.0027199076 0.014201394 -0.0010575175 0.015489682 -0.010911472 -0.021890935 -0.014544912 -0.007761042 0.02167488 -0.008353563 -0.010984824 0.017150095 -0.016718797 0.005492656 0.0127336085 -0.016059155 -0.0007008231 -0.006079642 0.013234465 -0.0065883417 -0.011895473 0.021373928 -0.00894647 0.017336128 -0.018315827 0.014491039 -0.005788463 -0.014059426
m1540 0.001587908 -0.0074176434 -0.005042493 -0.003538222 -0.01450936 -0.0077877776 -0.0041786814 0.01978992 0.015311223 -0.00036060408 -0.012362733 0.008299787 -0.018046971 0.0031628343 0.006605213 -0.0023197422 -0.006061387 -0.018383425 -0.01666212 0.013739615 0.008268264 -0.0023317272 0.023087276 -0.01814717 0.00017537804 -0.001417081 -0.018440124 -0.021631293 0.015318749 -0.009278164 -0.022625137 0.01895914 -0.01063536 -0.0072352933 0.002253553 -0.007580703 -0.0154300425 -0.010236145 -0.02059077 0.0027276983 -0.00953407 0.0018562049 0.0074558808 -0.0063166018 0.020975856 0.016074585 0.00012379474 -0.0017276558 0.0013978462 0.016903657
m264 0.017545933 -0.005748929 -0.0023465906 -0.006735582 -0.0010445924 -0.014451955 -0.0041870833 -0.017068133 0.0005612329 0.002982619 0.008312934 -0.0065467246 0.012362511 -0.015544408 0.018837258 0.0018345681 0.003856767 0.009060522 0.00013143012 0.0053139473 0.0019226448 -0.018212384 -0.005655439 -0.005270932 -0.021391291 0.00944023 0.008399376 -0.006785521 0.014560815 -0.0011801001 0.001006242 0.011787726 -0.01833965 -0.013916024 0.015224325 -0.012503206 0.016626135 0.010203959 -0.016083304 0.016721329 0.015348978 -0.014151583 -0.017827002 -0.019474914 0.008719148 0.013623439 -0.0046135704 0.0011648283 -0.016596591 -0.012421398
m1839 0.008514242 -0.019293973 -0.02048629 0.0020583174 -0.01760148 -0.01470598 0.010502393 0.01789852 -0.016354091 0.017707074 0.020237025 0.007805878 -0.009171613 0.021003824 -0.018136239 -0.008368553 0.0054196734 -0.016430756 -0.021898124 0.005028762 0.014801026 -0.009495575 -0.007549573 0.009546212 0.002081222 -0.017143317 0.0119296685 -0.009569821 0.006415635 0.0067470195 0.019406771 0.019155037 0.014154214 -0.015952393 0.00028057094 -0.0005096527 0.0027741613 0.017405959 0.010110552 -0.01873732 0.021577144 -0.00015075401 0.0015989715 0.011449716 -0.0124839 -0.0003343047 0.0025143067 0.01409568 0.01010396 -0.0023760549
m1130 -0.017174104 -0.009974036 0.016054949 -0.01901312 0.018677909 -0.001798164 -0.0011199343 0.020642038 0.01877107 0.018885657 0.019497255 -0.022488737 0.015694741 -0.016784322 -0.018938877 -0.01907563 0.0063557876 0.013166471 -0.014060968 -0.006334091 -0.0052849553 -0.008560936 -0.0011553544 0.011652293 0.008362544 -0.007422862 -0.009288307 -0.0074002217 -0.007711896 0.008841384 0.022287626 0.017248938 -0.015713083 -0.0136575885 -0.020341318 -0.010656145 0.008780371 -0.012995797 0.0025287694 0.017049309 0.007879727 0.0046092775 0.019013219 0.014476188 -0.0023291877 -0.012328057 -0.002707875 0.015015634 0.016241075 -0.0072695417
m1842 0.020476157 0.0036416706 0.011269243 -0.0128229875 0.007982838 0.0011567852 -0.019557549 0.011238116 -0.018807424 -0.012998742 0.0054896767 0.01949322 -0.0056633996 0.014162632 0.009022426 0.0089294035 -0.012701875 0.010274865 -0.016841197 -0.009400912 0.010223217 -0.017140921 0.013294758 -0.008685114 -0.0025550032 -0.01444532 -0.014553166 -0.0076034735 0.016693853 0.012167174 -0.019797826 -0.013467922 0.0063632145 -0.01617817 0.0140205985 0.014517771 -0.01921209 0.016865285 0.016411101 -0.0052513774 0.005091312 -0.0117358565 0.013233832 0.016129132 0.007935634 -0.018992033 0.009618918 -0.0075390656 -0.003425397 0.01348411
m1894 0.0033592493 0.009343637 -0.012593018 0.010362277 -0.0073302025 -0.0012350446 0.013565382 0.010028334 0.015202208 -0.008541596 0.0072704474 0.014881481 -0.0062772366 0.011765729 -0.018646643 0.018994454 0.007703974 0.009962151 0.009705548 0.008024066 -0.006929875 -0.011800648 -0.004318348 0.0030031854 -0.0060969223 -0.017410345 -0.013871482 0.016020462 0.019213706 0.01301346 -0.0077623324 0.0014632342 -0.018029142 0.014211225 0.0013445854 0.01622976 -0.011667325 -0.0067148097 0.0069247745 0.0058860625 -0.013621574 -0.015468506 0.0043278243 -0.017586075 0.0125812795 0.011849575 -0.0072302343 -0.011445977 -0.016880179 -0.0038494095
m2082 0.016877854 -0.0012353174 -0.017947745 0.01717804 -0.017700601 0.011367062 0.01559072 0.0045022513 -0.014837207 0.013889936 -0.017679093 -0.013873891 0.019481927 -0.017781386 -0.016050152 -0.010410046 0.009482608 0.0026690115 -0.010993463 -0.005740823 0.018529775 0.018272445 0.022351172 0.001667854 0.0076958346 0.0022241452 0.0021708591 0.008515612 0.004605974 -0.00033775676 -0.011478753 -0.012206431 0.018063296 -0.013956202 0.004632203 -0.0018893307 -0.005983496 -0.011193517 0.004155614 -0.01109546 -0.016384935 -0.00425283 0.011912091 0.011373116 -0.0008172889 0.01641584 -0.015172643 -0.00954664 -0.016440038 -0.0091633545
m1510 0.017802084 -0.02065936 -0.019830953 -0.019958934 0.01781989 -0.0069450303 0.0032642933 -0.011806945 -0.006645649 -0.0021457712 -0.004804233 -0.01615898 -0.011600746 0.004736823 -0.021962682 0.0033591504 -0.003965928 0.016472308 -0.0024453532 0.01128799 -0.016172688 -0.015540201 0.013417628 0.0026635092 -0.01104818 -0.004336438 0.01642007 -0.01900345 -0.008828373 0.0056021125 0.0009026299 0.019463604 -0.0048709144 -0.014109707 -0.017149912 -0.019204576 -0.016696308 -0.013334592 -0.012784272 -0.0046166275 -0.0020138095 -0.01115489 0.0053237583 0.00943556 0.022705004 -0.009985582 0.011136422 0.012217428 -0.008258718 -0.016130392
m717 -0.006612878 -0.014753248 0.013137386 0.02093468 0.015417309 -0.017306415 0.0105771655 0.011054542 0.009868307 -0.016940517 0.00071900466 -0.014243273 -0.01818053 0.0047737253 0.019266665 0.011991215 -0.013939532 0.0035143157 -0.009031807 0.019976597 -0.01780111 0.01883362 -0.012668738 -0.015083051 0.001369265 -0.0018973346 -0.017641487 -0.001789431 -0.0016916834 -0.011966361 0.012796912 0.006367587 0.016827838 0.015771953 -0.012630765 0.010712777 0.0109334495 0.012182011 0.01073358 -0.010138566 0.008833556 0.0021152282 -0.0005747029 -0.013963811 0.0031928143 0.010556777 -0.018797288 0.015568747 0.007263187 0.00011950748
m704 -0.007696597 0.0006712916 0.013308795 0.009156288 -0.013120284 0.015477966 -0.0003596997 -0.015856475 0.01737831 0.010276177 0.0075885477 0.015648045 -0.015389554 -0.012029049 -0.0052904775 -0.008162069 -0.0035451725 -0.0026449843 -0.017535932 0.0035311608 0.0049005463 -0.0011462163 0.012029217 0.0037044021 0.010984095 -0.0037805568 0.01653441 -0.0051913112 0.005806187 -0.006300699 0.012497799 0.0067406325 0.00026745306 0.018894186 -0.016024204 0.02127339 0.0007867697 -0.0057818033 -0.007721384 -0.019765723 -0.0039360435 0.005709703 0.012981006 0.01846777 -0.016747365 0.018490858 -0.018750869 0.0059553063 0.016880466 -0.0052695475
m1785 -0.017634705 -0.016076604 0.004514115 -0.0014461797 -0.02147133 0.0074392604 0.005515834 0.009827807 0.010946749 0.0059268326 -0.021600343 0.011476874 0.00914518 -0.017112296 -0.004082649 0.0013873798 -0.0014515853 -0.0053229607 -0.009620724 0.0005199715 0.007339974 -0.00225973 0.00020397337 0.00299518 -0.009652074 -0.015201007 0.01829404 -0.02109777 -0.0048100757 -0.0007146832 -0.015288885 0.003997028 0.015982505 -0.0010967302 0.017457807 0.0015332509 -0.014035381 -0.0036254171 -0.0015075541 0.013872691 0.015569381 0.013137296 -0.012813986 -0.015654547 0.014111547 0.00432066 0.011363731 -0.0005760875 0.01813368 -0.019355863
m317 0.020278322 -0.016566796 -0.003966206 0.012589276 -0.019860858 0.008655871 -0.014352876 -0.012568015 0.0043248334 0.0033663742 -0.005554611 0.016913285 -0.015218533 0.0013094646 0.017026143 0.0045590224 -0.014247472 0.0067236214 -0.010691328 -0.00092593697 0.005846596 0.015534066 0.015941877 -0.009653251 0.019514807 -0.011222223 0.014937984 -0.017058372 -0.0171715 -0.0015605503 -0.016722165 -0.006628888 -0.0018836817 0.00040950766 -0.019873034 -0.012488213 -0.015369892 -0.001406207 0.010660128 -0.000833786 0.020840734 -0.008097563 0.016628943 0.012438616 0.018269874 0.00041250527 -0.00092190306 0.002822319 -0.018872539 0.018756531
m1005 -0.0038523169 0.014458544 0.0035862473 0.005789262 -0.004877722 -0.020693263 0.0041297604 0.007749069 -0.021605527 -0.008873128 -0.005258381 -0.010505579 0.008392294 0.0041302126 0.00785173 -0.012477767 -0.0111657875 0.008434593 0.012541235 0.010049357 0.0095354775 -0.01508456 0.017696911 -0.013650618 -0.016369402 0.017253598 -0.0057023047 -0.019164179 -0.0071683116 0.012694659 -0.005750095 0.01020963 -0.00053136155 0.0077519417 0.0024301598 -0.018254165 -0.008282323 0.017075887 0.0026345165 -0.012782196 0.014280449 0.014543876 0.014212106 7.281939e-05 -0.01618371 -0.007973846 0.009872093 -0.015711425 0.020593273 -0.019184623
m2505 -0.016199188 -0.014467924 0.013674453 -0.018750366 0.018880261 -0.02296694 0.0060114134 0.008631375 -0.0008375917 0.018372064 0.010747467 0.0016295413 0.011048514 0.016830793 0.0067893704 0.020526994 -0.002500269 -0.020561812 -0.009337957 -0.0033538141 -0.015259238 -0.0027855847 0.018319752 -0.014459741 0.011696958 0.0068185534 -0.0019273122 0.0026844025 0.011186725 -0.012052153 0.008649585 0.021160085 -0.009603022 -0.015218911 -0.0181272 -0.019317916 0.007188631 0.01089311 0.016241409 -0.0057616937 0.0035917403 0.006949965 -0.019821117 -0.021131188 0.011113813 -0.017961796 -0.0074817995 -0.00864225 0.013044993 -0.008864489
m2421 0.020314792 0.0015069232 -0.010286839 -0.0073502953 0.0021383474 -0.011555001 0.016008455 0.020538913 0.008182433 -0.015167735 -0.011765575 -0.00020571252 -0.0014146917 -0.011030763 0.016343404 0.0134404 -0.008282762 0.0038514463 0.010843028 0.0041433116 0.017343631 -0.0026871054 -0.0125347655 -0.0019329895 -0.018317087 0.01993084 -0.018790465 -0.0038340054 -0.0056015886 0.007033911 0.011160798 -0.017194692 -0.010609272 0.0015660267 0.008208253 0.011704181 -0.003556764 -0.0014044172 -0.01564312 0.008017555 -0.01553128 0.0071322587 -0.0066430117 -0.015429687 0.015401952 -0.0004998147 -0.020285316 -0.020377927 0.0006624132 -0.017323187
m1371 0.0072828014 0.0061024628 0.006876601 -0.011345508 0.015011662 -0.018591715 0.01567637 0.00066600554 -0.0036800243 0.0075572124 -0.005226631 -0.009036045 -0.004803704 -0.01215591 -0.0014198896 -0.010235748 0.0100619765 -0.020452252 -0.009599943 -0.018441156 -0.020344423 -0.0018656902 -0.015378345 -0.012372945 0.0046087527 -0.0026020822 0.0045441296 0.01492346 -0.020274477 0.013288175 -0.015861899 0.013503 0.014587031 0.017917205 -0.015313396 0.007452915 -0.016609862 -0.0027094914 -0.010426098 -0.018290522 0.010228702 0.0093825245 -0.0078079994 -0.015463534 0.00827241 -0.008513806 -0.018378703 -0.010068914 -0.003743297 0.017848447
m1048 -0.013895983 0.016496396 0.009802859 -0.018240087 -0.00048506874 -0.0051076133 0.009140411 0.0022230155 -0.0068418426 -0.022263208 0.010665814 -0.02253621 -0.018832332 -0.00082044996 0.006882847 0.0022794167 -0.0020242522 0.0041690157 0.003933752 0.014109454 -0.008793448 -0.016584767 -0.017753525 0.014706372 0.0027491397 -0.014837349 0.015656112 0.016199227 0.01624213 -0.014988435 -0.015321527 -0.0032250772 -0.018320555 0.013363226 0.013965497 -0.014594792 0.0138383 -0.018768905 0.018740622 -0.013412573 0.005978062 -0.009068669 0.0070112436 0.019714877 -0.006017507 -0.013909734 -0.020661863 0.009349671 0.009765851 0.0141409775
m935 -0.0073690047 -0.021399252 0.012547635 -0.007698149 0.0060710134 0.014765724 -0.0072739534 0.004610385 -0.009728492 -0.015865276 -0.010585979 4.491289e-06 -0.014796288 -0.0042875847 -0.007573645 0.014396986 0.0036466557 0.009962675 0.0058545168 -0.0071995994 -0.011337039 0.01917374 0.015320656 -0.01859071 0.009526712 0.016736228 0.016541032 -0.016133033 -0.004572432 0.005399272 0.007922435 -0.0032344556 -0.010999058 0.012566659 0.014838218 0.00032801827 -0.012956411 -0.008443235 -0.010729758 0.0070395726 -2.880417e-05 -0.00575021 -0.018535672 -0.0035269156 0.01519909 0.011560858 0.0082893465 -0.007966442 0.017639033 0.001835309
m1475 0.0021132228 0.012533803 -0.013674371 0.014300348 0.020544374 0.007193632 0.007946276 0.010139632 -0.005573765 -0.01643733 0.002991639 0.0017335347 -0.015039331 0.0046618627 0.010502799 -0.014217986 0.0065039373 0.015748512 -0.019638168 0.0068048234 -0.018652564 -0.016480824 0.016067337 -0.01673115 -0.002732348 -0.016069466 -0.01759311 -0.015932467 -0.001172392 0.004247318 -0.016442046 -0.016964145 -0.0075437324 -0.0021657187 -0.0127411 -0.0073178182 0.0063011707 0.00636949 0.014275226 0.0078662075 -0.0012422915 0.006118121 0.018161254 0.004804743 0.005512287 0.0021007236 -0.020420477 0.01040894 0.011903357 0.00033806855
m44 0.017837727 -0.012349967 0.0074257664 -0.0168405 -0.019866124 0.003103616 0.010134488 0.013759281 -0.01856905 0.008797619 0.0048759426 0.007897065 -0.0010304183 0.011533026 0.014543024 -0.018365202 -0.021165691 0.01478305 -0.0010298938 -0.020282377 -0.00813071 0.0023615356 0.017738903 -0.003761753 -0.0037886465 -0.015378787 -0.016022785 0.00024914168 -0.0013093362 -0.015512094 0.0019708294 -0.019414734 -0.00592213 0.010217669 0.0029020503 0.017141879 0.013327303 -0.004029513 0.011600648 0.011625008 0.01855826 0.018744444 0.010609536 0.008448547 0.015415799 -0.00156332 -0.011454616 0.017795721 0.004434263 -0.010046655
m2988 -0.0027033226 -0.010493685 0.018755188 0.0073756813 0.008646184 0.0128542455 0.017296847 -0.008612677 -0.013613907 -0.006769618 -0.00832321 -0.020011377 -0.00079617696 -0.016902221 0.019158255 -0.0064792926 -0.01316345 -0.017373977 -0.007342333 -0.020305129 0.0016298493 0.012138253 -0.0049498337 0.015088243 -0.003866014 -0.014386026 -0.007354146 -0.0078901835 -0.015509386 -0.019585049 -0.008299045 -0.0028728535 0.009980056 -0.01501042 -0.010350218 0.004362275 -0.0036915191 0.0074042147 -0.0038116772 0.007359398 0.017073607 -0.015905479 0.0077347048 0.0122340545 -0.00048164895 0.013992841 -0.0106834695 -0.010156893 -0.015430748 0.019785726
m2325 -0.020336943 -0.0063142185 0.00061824714 -0.009087604 0.018907886 -0.013769765 -0.014681766 0.020191832 -0.017370054 0.020157969 -0.009066109 0.010794935 -0.0003551455 -0.008237286 -0.01506896 -0.012465151 0.013555211 0.0118604535 -0.0002381116 0.012090124 0.007297356 0.007818144 0.0055966596 -0.019907515 0.01855083 -0.016425202 -0.00743097 0.0014441157 0.009675261 -0.018459318 0.003843372 0.012840562 -0.01821723 0.020609442 -0.010341962 0.020395929 -0.013945451 0.013419215 0.019945808 -0.020170886 0.0012345007 -0.015244924 0.016682763 0.01971816 -0.011790774 0.001216038 -0.004280012 -0.017213956 0.0022540996 -0.019566804
m2441 0.004776393 -0.015055707 0.012181826 0.0152991265 -0.0055437353 -0.008860258 -0.018490199 0.0124029685 0.005979841 0.01796345 0.006959925 -0.006058289 0.0077927373 0.018217895 0.019155486 0.016145824 -0.017448954 -0.016045582 0.01509786 -0.01617264 0.006304445 0.016524607 -0.005583438 0.014046187 -0.016793136 0.013526773 0.010935943 0.00596928 -0.01618853 0.01893275 0.017258069 -0.0027747338 0.0069093024 0.0135659445 -0.003548261 0.012357768 -0.008337685 -0.0031248645 -0.0021889098 -0.009237253 -0.0010070765 -0.015666129 0.0074898736 0.018651444 0.010383938 0.013651531 -0.00938732 0.0097958725 -0.013755759 -0.010073999
m2069 0.019236619 0.0138416365 -0.011672679 -0.013116358 0.015546463 0.0044386405 0.014769465 -0.013667754 -0.0018250647 -0.0034416504 -0.000660194 0.0044146087 -0.012915327 0.010877729 -0.0066911015 0.018351616 -0.0022203275 0.019089267 -0.0039470787 0.013386417 -0.014737738 -0.016815709 0.0005575658 -0.0043061166 0.0191631 0.0069690617 -0.011478767 0.014365119 -9.483074e-06 -0.01756246 0.010048924 -0.0064963503 -0.020559987 0.020135239 0.01508861 0.018764563 0.0006733821 0.016378878 0.011388337 -0.01416003 0.020719422 -0.0070369863 -0.018325929 0.020267755 -0.009977856 0.020380765 -0.016055569 0.019442478 -0.013641805 0.009555926
m2470 0.013626394 0.011490349 -0.0066689067 -0.007575152 -0.016202403 0.0060072406 0.014025311 -0.007817793 0.0069236853 0.015732536 -0.018639946 0.0015976111 -0.01840128 -0.0066785756 0.0004834422 -0.013087834 -0.005561066 -0.009227621 -0.017309908 -0.01639215 0.021899935 0.018558716 0.0010730311 -0.009445761 0.019835955 0.0021962416 -0.01737242 -0.007701351 -0.0033366235 0.013510781 0.010109873 0.018248117 0.016487531 -0.0021062635 0.014886012 0.016728677 0.02260574 0.02209709 -0.019649368 0.011304196 -0.014785529 -0.017423961 -0.022273581 0.008236322 0.0055586337 -0.011528083 0.011569629 0.017422771 0.011508889 0.020485466
m281 -0.010176843 -0.014727254 0.011079919 -0.008152306 -0.01693693 0.0067759245 -0.0066541294 -0.009477801 0.005084748 0.013214872 0.012993516 -0.0005390116 0.016671397 0.0048087817 0.010094367 -0.002038985 0.0024545537 0.012991097 -0.020395966 0.01138502 0.0011824878 0.01194423 -0.0012055468 -0.0036434534 -0.013011756 -0.0025375278 -0.0062538297 -0.011293705 0.0022002887 0.017060822 0.010207019 -0.016241372 -0.01585087 -0.005182051 0.006971429 -0.017169781 0.013207169 0.003504915 -0.0053652404 0.018501043 0.017841484 0.0009774199 0.009253581 -0.018930478 -0.017642342 -0.0062240316 0.018817613 0.0040190066 0.012519339 -0.014931562
m1975 0.009188248 0.0017632501 -0.0022258658 -0.006499591 0.010900054 -0.019150939 0.012157144 0.012602981 -0.006678464 -0.009622111 -0.014763892 -0.013719493 -0.011132815 0.0072519165 -0.010469726 -0.0031107157 -0.01882344 -0.0107155405 -0.0052072164 -0.018822934 0.0056858663 0.022259405 0.010195329 0.004468009 -0.011289906 -0.003889677 0.0037663025 0.0040285187 0.018138738 -0.0016060948 0.013072333 0.012408233 0.0041970857 0.015282762 -0.0094081815 -0.00790365 0.014701958 0.01702437 0.005961698 -0.009041039 0.013776455 0.004967327 -0.00013978589 0.020256873 0.010170065 0.007431112 -0.0014272499 -0.021213604 -0.0060638045 0.004772935
m2407 -0.011921228 0.016044544 0.016378075 -0.018240418 -0.0109131625 -0.012168973 -0.00072410266 -0.0012223213 -0.0055490853 -0.0036582642 0.0058849067 0.018488044 -0.0099022295 -0.015795311 0.007998942 -0.0129867345 0.01326978 0.0044804327 -0.01668112 -0.017076619 -0.019733643 0.0039253742 0.008730137 0.0056784544 0.0016442088 0.0013153607 0.008740025 -0.0038913295 -0.018749444 -0.0016202367 0.007565195 -0.0050905836 -0.0044633523 -0.0038510354 0.015846226 -0.0070260516 0.021800928 -0.008288562 -0.021571677 -0.015383649 -0.008605733 0.0036702019 0.010840367 0.00410679 0.019379625 0.0015184617 0.012879145 0.0012756931 -0.0038073494 0.015037201
m1867 0.00256468 0.01591106 -0.015816947 -0.018507652 -0.0027732719 -0.0037272803 -0.0047501144 0.00022301114 -0.012014698 -0.016173936 0.017282078 -0.0061427923 -0.0058499696 -0.0034526922 -0.0024889105 -0.017913928 -0.0028906201 -0.0035575563 0.017177606 -0.01633791 -0.011191426 -0.0029378387 0.007432327 -0.013163288 -0.01257358 -0.015021333 0.010541189 -0.020324511 -0.007399512 0.0014780071 0.0027967647 -0.020663686 0.017783761 -0.0025996792 0.00093364285 -0.017894588 -0.019191753 0.007943047 0.008298111 0.0044238702 0.014047319 -0.014285131 -0.0021539754 -0.005082253 -0.0024204904 0.0076141823 0.0027761445 -0.01663652 0.007444977 0.013355168
m1041 -0.012969479 0.008713966 -0.010146627 0.016527407 0.008833691 0.004335048 -0.0014261189 -0.019240556 0.017729076 -0.005283408 0.016371038 0.008860459 -0.017234733 0.00010806807 0.0050812224 -0.0035795784 0.020874375 -0.010324728 -0.016369777 0.009358657 -0.00800518 -0.012932514 0.005860305 0.012076003 -0.012290162 -0.0099780895 -0.015360985 0.0022909266 -0.010338661 0.019622857 0.00044271655 0.0017970521 -0.00864638 0.017714575 -0.0018927956 -0.016244449 -0.015479645 0.0021462454 0.016829902 0.005375175 -0.009457981 -0.013381045 -0.019605594 0.010763143 -0.019893343 0.009862375 0.0031074462 -0.0010197221 -0.021883534 0.011680579
m1141 0.001940073 -0.020048598 -0.017976036 0.015642593 0.00480168 -0.018628651 -0.0005722447 0.012432416 -0.016958352 -0.015128575 -0.0024393527 -0.02273203 -0.00010814721 0.003528776 0.017049422 0.0028499335 0.0040766746 0.008535483 -0.0075393897 0.015166026 0.0020961126 -0.00085378555 -0.018568594 0.000762575 0.0133227715 0.0050577987 -0.01762825 -0.0071570906 -0.013072556 0.0119848065 -0.015550747 0.010630391 -0.010414637 -0.015266239 -0.016670445 0.007648783 -0.018054888 -0.011215795 -0.016395804 -0.0077396873 -0.008091512 0.0039163423 0.0150607275 -0.0021924044 -0.009880468 0.005180027 0.011192864 -0.011570887 -0.010412093 0.011874164
m1049 0.012588215 -0.015185064 0.015753197 -0.02456439 -0.013511235 -0.0115063805 0.005619632 0.0021803968 0.005875053 0.012605283 0.008619856 -0.00780671 -0.013922781 -0.019252956 -0.00039777192 0.021856416 -0.017595425 0.0064857146 0.009119907 -0.010308355 -0.015615469 -0.012051424 -0.011030844 -0.015712295 0.011380917 -0.016872136 -0.0052325516 0.008330718 0.00017558319 -0.015749259 -0.012197677 0.008379852 0.0028973047 -0.0024266231 -0.0004288877 0.0046118707 0.002133934 -0.0067316242 0.01460377 -0.01815269 0.014358862 -0.02184123 -0.004373223 0.016312262 -0.008721805 0.010589105 0.009525133 -0.0143853035 -0.00017109272 -0.008958891
m282 -0.017778162 -0.003504036 0.014922162 0.01587113 -0.011801388 -0.0054654595 -0.012263729 0.0036534942 0.0057132253 -0.020733276 0.0052169375 -0.017914437 -0.00028129772 0.008575383 -0.012627089 0.00082034763 -0.005572847 -0.017557543 -0.0052114027 0.0085951425 -0.019030394 -0.012134497 0.0002497851 0.017275369 0.001751005 0.021986665 -0.016533425 0.016146932 -0.0100171035 -0.01192706 -0.01571961 0.0034340518 -0.0067209494 0.015986243 -0.0016478853 0.0066684443 0.012158682 -0.019818893 -0.0034738658 -0.010154258 -0.016157819 0.006756228 0.0047119507 -0.004902661 -0.0034948809 -0.014379121 -0.0066458094 0.0012032774 0.01669722 0.013156454
m911 -0.008207427 0.0066220914 -0.007485935 -0.011426892 -0.00714082 -0.014632549 0.008379891 -0.014623769 -0.016994415 -0.009715478 0.01667357 0.0024979417 0.012377259 0.018635714 -0.014477136 -0.009669691 0.017771557 0.009974661 0.008282662 0.018326132 0.016740592 -0.005011104 0.0022542337 0.011991158 0.01859563 0.020509224 -0.018184558 -0.013309189 0.009205679 0.002510013 0.0023332494 0.0167957 0.013200284 -0.014853209 -0.0061175413 -0.016330237 0.015710237 0.0049886084 -0.0047669904 0.0039363503 0.01781506 0.017545821 0.013413178 0.008182694 0.0036433903 0.017805208 0.0022558086 0.0013275004 -0.018923981 0.0065364484
m1898 -0.017156575 0.012871852 -0.011506438 -0.003800313 0.0016160047 -0.004396214 -0.017449839 0.009252495 -0.013530084 -0.017985942 0.008214762 -0.0015621715 0.013438259 -0.013687489 0.0017611436 -0.00081943476 0.011886802 -0.020319132 0.011868072 -0.01872977 -0.016061112 0.0011391504 -0.004875614 -0.007786545 -0.011014222 0.0082666455 -0.019187456 0.001829817 0.008464832 0.0001453437 -0.0003698004 0.014251359 -0.020340549 -0.017976273 0.008962882 0.018438293 -0.01614223 -0.01761818 -0.00086136046 -0.019344816 0.0044220295 0.018534446 -0.01222218 -0.01362122 0.01864516 -0.0010571242 -0.007623954 -0.006344948 -0.017679207 -0.009223419
m910 -0.009198991 -3.5779234e-05 0.00012860043 0.014156353 0.014376633 -0.0037990205 -0.01979169 0.006666556 -0.013462098 0.018471802 0.008668182 -0.0030304228 0.014408509 -0.0063533536 -0.008126551 -0.0005373782 0.01956346 0.011092637 0.0022816705 0.008157408 -0.007395702 0.018998425 -0.015015065 -0.0051544784 -0.011626982 0.018375542 -0.007903693 -0.008096872 0.01522908 -0.019544736 -0.005126669 0.0073344754 -0.014064174 0.019370241 0.0013632481 -0.009386525 0.010571227 0.01608829 0.0022430297 0.012832556 -0.0125918705 -0.007000007 0.021757377 0.012734094 0.0031964849 -0.007001838 0.009051515 0.005232627 0.017657032 0.00073117064
m2189 0.016330777 -0.011705815 -0.01458767 -0.002321921 0.0058523426 -0.003978575 0.012007387 -0.01547665 -0.018698722 0.01544951 0.011447068 -0.009272904 -0.007535312 -0.007917367 -0.0005501829 0.01869551 0.0018488303 -0.006470119 -0.005581179 -0.0050206436 -0.019813925 0.014696022 -0.018600367 -0.0072487276 -0.014703297 0.017953034 0.010883426 -0.0025729956 0.007427853 -0.0042924643 0.020597583 -0.006795689 0.009054129 -0.006390273 0.019896187 0.02004855 0.011631872 -0.00057584024 -0.0034442297 -0.019346287 0.020478958 -0.0166423 -0.014176729 0.010477351 -0.003425048 0.016970793 -0.015084963 0.017839992 0.005782444 -0.01759602
m556 0.008485125 -0.010915705 0.0126856845 0.012079231 -0.018662859 0.013592052 0.010514302 0.014187173 -0.0145454565 -0.014480028 -0.017879348 0.010633773 -0.00835325 0.01008524 0.007991176 0.015884424 0.004847508 -0.0034793061 0.0025956072 0.006130641 -0.018194728 -0.012524872 -0.0014054605 0.010261252 -0.0009435766 -0.020237152 -0.0007483516 0.013105518 0.012360934 0.007718328 -0.009707824 -0.007124609 -0.0045585088 -0.01218553 -0.016348634 -0.0007346828 0.003008697 0.009659455 0.006491884 0.016996449 -0.013687112 0.018682396 -0.0074960394 0.0009717732 -0.008556396 -0.009045368 -0.0027107233 -0.016837344 0.018785018 0.0092151975
m1330 -0.0049297237 0.0036229643 0.014774872 -0.012415385 0.0083224075 0.00041684546 0.007324185 -0.003612199 -0.02050298 0.009339969 -0.002252802 -0.016752744 0.0023268503 -0.010287897 0.013971746 -0.011021505 -0.0038087235 0.0004182594 -0.011986676 -0.003849457 0.016174901 0.0060194223 -0.016974293 -0.0004744237 -0.020778272 -0.009765673 0.009603067 0.006404641 -0.013063342 0.0045646084 0.00976084 -0.017744683 -0.009190201 -0.0032689068 -0.017379489 0.006380165 0.013544154 0.005086189 0.0048351036 -0.0018086522 0.0010259672 -0.012556788 0.0006337453 0.016285658 0.006847955 0.005270111 0.0155545445 0.0059440066 -0.016701657 0.01631933
m940 0.018869214 -0.01908698 0.014911294 -0.01646002 -0.0022343872 0.0087715965 -0.0113231065 -0.014901751 -0.016027316 -0.020211423 -0.013620866 0.019542936 0.005546629 -0.01827038 0.016712591 0.01479248 0.01652271 0.018815687 -0.018349502 -0.0052229487 0.0038542987 0.005466616 0.011020961 -0.0156622 0.009194459 0.020906901 -0.019192986 0.01439391 0.0049752668 -0.0071883285 -0.0031416984 -0.017573243 -0.01637059 0.011813726 -0.006488167 0.021519987 -0.017600773 -0.01509315 0.012821862 0.014947677 0.008245664 0.015619033 0.012509118 -0.011660491 0.018990159 -0.013479834 -0.006576695 -0.013654014 0.013671501 -0.008498856
m532 0.0075434023 -0.0046905936 -0.0031936385 -0.013666155 -0.012661075 -0.008840384 0.0016412582 0.0044266586 -0.0055856626 0.0033433938 -0.012790298 0.019065304 -0.0009400368 -0.013723187 -0.0048671463 0.01695858 -0.0013325957 -0.010407641 -0.016452782 -0.012768864 -0.005766927 0.015791671 -0.013607919 0.0025250013 -0.0006528176 0.0074277194 -0.01652567 0.015087762 -0.006345684 0.010642256 -0.021689726 0.010977802 -0.01542008 -0.0055076657 -0.0033333965 -0.008231097 -0.0010365933 -0.00024293561 0.0076054283 -0.0042847744 -0.0078251 -0.0120749725 0.017061789 0.009477333 0.020456292 0.010761022 -0.009213565 0.016290305 -0.012800988 0.007996325
m212 -0.008456257 -1.5445146e-05 0.009545972 -0.006302619 -0.010607757 -0.0056658033 0.0010573558 0.012839945 -0.015880937 0.011294326 -0.007929609 -0.018441457 -0.012359395 0.0042346097 0.020659372 0.016705062 0.021151613 0.0144922435 -0.009619104 -0.004975217 0.019231362 0.01363281 0.014134418 0.018094113 0.0017050657 0.006027802 -0.018872 0.015814638 0.021145998 -0.014088189 0.0034200547 0.019875139 0.005782657 0.017179823 0.016875256 -0.002530375 0.020077374 0.011020838 -0.0039919247 -0.00035287163 0.02263683 0.012824209 -0.015484623 -0.0076883463 -0.0057216315 0.006277746 0.00032803247 -0.020821813 0.0066088825 0.02031554
m141 0.0043253265 0.0079867765 0.0037386513 0.017122222 0.01813986 0.006388456 -0.004345189 0.0075168884 -0.016980365 0.016722279 -0.009319962 0.021557415 -0.020649092 -0.005644653 0.017842112 -0.007883876 -0.0050091418 0.010106499 0.018625041 -0.0015561752 -0.014988986 0.02019558 -0.018844616 0.0017121586 0.0114023695 -0.01624531 -0.0115255 -0.020618115 -0.00035978944 0.0106844995 -0.016584724 -0.0060052886 0.01712437 -0.008045981 0.00736459 0.007659907 -0.008738066 -0.011203805 0.017920688 -0.007024384 0.019144865 -0.0033578572 0.006772824 0.012383715 0.00069978915 0.008768564 -0.012912299 0.017643696 -0.0032150266 -0.008992825
m1622 0.011666585 0.020532645 -0.009887337 0.0028934346 0.007773608 -0.0060403924 0.0005658395 0.02245124 0.016637137 -0.01388471 -0.007824666 0.017383227 -0.0014853044 -0.019413447 -0.0004870946 -0.014363581 0.000838674 0.0013988392 -0.008382514 -0.011994644 0.020984907 0.008557833 0.005192126 0.0035071762 0.0179068 -0.010424345 0.01263986 -0.002047528 -0.015852911 -0.022422682 -0.0018130947 0.01764965 0.0033114557 -0.016271776 0.0026422131 -0.008966283 -0.008542791 0.018422717 0.014344348 -0.002367635 0.007360768 -0.0012430828 -0.022863634 0.008144146 0.0146870855 0.009754832 0.0039826133 -0.008463008 0.0072652735 -0.016534386
m338 0.008965266 0.0033517824 -0.00089792785 -0.0025423768 0.0030668757 0.003975865 0.0029300237 0.0207559 0.0063938512 0.0023817907 -0.0063648694 -0.013386759 -0.020984171 -0.005754768 0.008559389 0.017167272 0.0015175961 -0.010446613 0.0075865486 -0.008912756 -0.0030137263 0.019838253 0.017843254 0.00015197697 -0.013218571 0.01017421 0.019961169 0.014145693 -0.0045370217 0.015123276 0.021682717 -0.019179193 0.018330263 -0.0007265956 -0.010609716 0.009884006 0.019345256 -0.017432766 0.015755482 -0.014568699 -0.015943356 0.011205933 -0.008751015 0.0107065365 0.018390117 0.018928837 0.0113668535 -0.020056797 0.008090707 -0.020573854
m1390 -0.000698965 0.019311288 -0.009187386 0.007750568 -0.012413754 -0.016196344 0.017036697 0.007881169 0.014774811 0.005448427 0.0024544117 0.0072556827 -0.017246002 0.012583478 -0.009614623 0.009799818 -0.011071134 0.00035567125 0.008057031 -0.005983649 -0.015966062 -0.012672185 -0.019607084 0.019557394 -0.009763935 -0.0013380428 -0.019051136 -0.010117187 -0.010428568 0.0069942395 0.0115725985 0.007541011 0.019447807 0.0047547263 0.02108385 0.016278403 0.004395323 0.0035416097 -0.014976202 -0.005788168 0.011877522 -0.015974076 0.004594071 -0.014968019 0.021216309 -0.0005716525 0.0015921788 -0.011499216 0.01359063 -0.014751585
m392 -0.014734321 0.013586431 -0.007998756 -0.0018895724 0.010088096 0.010037058 0.011929577 0.015928263 0.011065895 -0.01871417 0.010600709 0.019534772 -0.008883066 0.0021401816 -0.007614455 -0.0064132498 0.018060014 -0.000701768 0.0068669342 -0.013748125 0.012202813 -0.006448248 -0.009961603 0.0040875096 0.01977702 -0.011926587 0.0065982984 -0.002267056 -0.016356869 -0.007852284 -0.017254133 0.012406687 -0.00667006 -0.009855881 0.0017090573 0.010415908 0.019474888 -0.020854034 -0.000585969 -0.0030948482 -0.0048623877 -0.002056421 0.017547414 -0.0034946322 0.020756692 0.0014815714 -0.001813881 0.012360998 0.014973804 0.0011611251
m838 -2.1003392e-05 0.0124563705 -0.008955016 0.009424982 -0.00076420134 -0.0132073825 0.012994356 -0.0074563134 0.0036854707 -0.013129623 0.0058410703 0.010209275 0.010234116 -0.015001235 -0.013576569 0.0140338605 0.007215839 0.0012614604 -0.01365004 -0.0033436606 -0.01945369 0.002466378 -0.008332045 0.0024903684 0.010067786 0.0036877177 -0.015013022 0.00022092069 -0.014329303 -0.0074308985 0.0045420746 0.01705219 -0.01357779 0.0046234485 0.015196108 0.020869913 0.013352391 -0.016033418 0.0076674228 0.017188773 0.009017445 0.0066092657 -0.0027017533 0.007693906 0.008389032 0.018109405 -0.009032625 -0.017726932 0.014099429 -0.011699489
m215 -0.0026621926 0.0028072463 -0.0013594546 -0.008453099 -0.00015401674 -0.02175309 0.0022189938 -0.00902728 -0.014554748 0.009072403 0.0031407925 0.006317092 0.0008636987 -0.019395487 0.02312437 -0.006919733 -0.0019100172 0.0142785795 -0.002647569 0.005556298 0.0055910638 0.005159576 0.01481226 0.02264479 -0.003224495 -0.0063735517 0.0072174817 -0.016118173 0.018718796 0.0049925377 0.013786795 0.006898272 -0.0048868232 0.004123681 -0.0090016415 0.019090705 0.012237659 0.006186674 -0.009953282 -0.01804704 0.018649673 0.00626735 -0.01093785 -0.018406486 -0.0061534024 0.0019108017 -0.020987317 -0.0024563903 0.007214345 -0.020372985
m211 -0.0010631817 -0.012915109 -0.006884921 -0.0034338103 -0.021323137 -0.008536885 -0.014961436 -0.015958155 0.0011426741 0.006314988 0.019520704 0.017379764 -0.013555122 -0.018532427 0.017705476 0.010872203 0.015556883 -0.0058997357 -0.012883627 -0.009640417 -0.016297488 0.0115267215 -0.0061481204 0.019931726 -0.013244516 0.020058228 -0.009749853 0.018032257 -0.0103510795 -0.0143697 0.017158186 -0.01916814 -0.019590935 0.011071128 -0.019859789 0.011608871 0.008567766 -0.015562052 0.0064971442 0.0033686028 0.018774936 0.005869755 -0.011032448 -0.005463414 0.015343672 -0.014424994 0.017125454 -0.008093468 -0.00817542 -0.009100948
m1508 0.005737377 -0.0210877 0.006779326 -0.009386992 0.019095842 -0.010109057 -0.016377594 0.008081724 0.017632898 0.0056899353 -0.0042916336 0.007357633 -0.01904052 -0.007975439 -0.009498566 0.003614499 -0.012116745 -0.016825927 -0.0143241715 0.010136456 0.0056936145 0.01837355 0.005682393 0.0110648405 0.008695532 0.010265805 -0.010101541 0.0021272595 3.3510645e-05 0.012144756 -0.012363369 -0.0017441172 0.007857828 -0.009420463 -0.018224368 0.0122717 -0.001878526 0.00031998727 -0.0126245795 0.017192982 0.0020734866 0.0037023218 -0.00022534945 0.0018079963 0.012920801 -0.0191125 0.004965043 -0.012482055 0.0205073 0.009740534
m2652 -0.01230927 -0.0027914078 -0.012362516 0.018376406 0.017038519 0.005313661 0.020196468 -0.008318019 0.0041162902 -0.00880667 -0.018379632 -0.007372646 -0.0013104465 -0.011701814 -0.011500738 0.000995334 0.0025438957 -0.018320931 0.0132637555 0.0036015597 -0.019560138 -0.0041174768 -0.0145433685 0.01611968 -0.00441132 0.016378228 0.008909115 -0.008607332 -0.016979603 -0.010164122 0.019885235 -0.004310387 4.339802e-05 -0.001070886 -0.014978694 0.008360783 -0.01943985 0.016914368 -0.017234854 0.014496487 -0.004654727 -0.004535569 -0.0037907967 0.0006498808 0.0055728024 0.0022766623 0.00013153559 0.012757111 -0.012207467 -0.01727938
m2454 -0.014692982 0.012801268 -0.003577264 -0.01055058 0.009733417 -0.01622414 0.0064935344 0.021319821 0.013768694 -0.0063553494 0.004945535 0.009941081 0.019146454 -0.0054528625 0.0023523292 -0.008620957 -0.007075764 0.001690583 0.0038383338 -0.011067525 0.008538817 -0.010588003 -0.00849255 -0.018762415 0.014834861 0.0088081425 -0.0047868085 0.0159931 0.0032122592 -0.019525524 -0.015957503 -0.00854626 -0.016005559 0.015581375 0.0107681425 0.004948682 -0.0017614436 -0.015358719 0.012961387 -0.011257249 -0.004897198 -0.011779456 -0.0047787656 -0.019468915 0.0070930715 -0.015087521 0.013601505 -0.01566131 -0.011781357 -1.8233295e-05
m559 -0.015489076 0.0106849605 -0.008844276 0.00040183542 0.014465709 0.006036782 0.0012051569 0.015996553 -0.00034724796 0.010585858 0.01274104 -0.016085822 0.0051439838 -0.019531807 -0.0035482175 0.017222406 -0.0049619563 -0.011043682 0.005058863 0.014819343 0.013613725 -0.012978547 0.015259059 0.016297434 -0.012213211 -0.0017231711 -0.0019497218 -0.020310504 -0.005507798 0.020675164 -0.005009452 -0.014525839 -0.009395553 -0.018414557 0.00413371 0.0135986265 0.0007671416 -0.0074998704 0.018703738 -0.019986043 -0.008702237 -0.019481758 0.019508773 -0.0040688347 -0.010151134 -0.015730117 0.016555771 -0.0078105046 -0.012099723 0.0064806407
m2274 -0.014878802 0.017939012 0.013477998 -0.00821975 -0.007269701 0.002349417 -0.019420335 0.0095259445 0.007189201 0.01153983 -0.018449808 -0.00057386723 -0.012980114 0.011706842 0.01947795 -0.0011283022 -0.015572911 0.008785732 -0.0012972848 0.0048791408 -0.013556939 -0.0010282155 -0.004228101 0.014070097 -0.016528644 -0.0073918314 -0.0037463875 -0.0075071207 0.011543587 0.0005392124 -0.0038181222 -0.017024592 -0.019747762 0.005129587 -0.00086075714 -0.018932998 0.013252629 0.014720662 0.013752822 -0.0075505245 0.00037606506 0.016098468 -0.013917434 -0.014300011 -0.014911307 0.008305737 -0.019231955 0.0018169893 0.017293233 0.0019042195
m1165 -0.020608198 0.016986093 0.013150086 -0.016495988 0.009781245 0.017490067 0.013238454 -0.008286202 0.0137064 -0.010523112 -0.016400719 0.006826621 -0.009908362 -0.004775591 -0.009827157 -0.014693305 -0.0033908724 -0.0002751683 0.0040289466 0.01487137 0.006828923 -0.020400777 -0.018759858 -0.0055504804 -0.005758241 -0.011074285 0.017515158 0.007784676 -0.014730429 0.01279026 -0.0025145453 -0.0142138265 0.00018351193 0.01547384 -0.009792638 -0.006852457 -0.005669894 0.0110131055 0.010561122 -0.01385633 -0.016891114 -0.0008238234 0.005486535 0.005255291 0.0070041018 -0.0007336671 -0.0024226387 0.005489151 0.0011853023 0.010330208
m1895 0.0015853543 0.01827208 -0.008247696 0.0056710304 0.0066846167 -0.014652487 0.019361319 0.013719525 0.009698563 -0.0036188685 0.020846603 0.007657362 -0.0017191587 0.007860328 0.012271223 0.01702554 0.0039632656 0.002198696 -0.0065957243 -0.012882931 -0.019215362 -0.004006081 -0.0056794193 0.0042494815 -0.0007747328 0.003209179 0.0096470555 -0.013377712 0.014647933 0.014705076 0.013723054 0.0036699444 -0.0022287173 0.003433196 -0.015385518 -0.010652431 0.0041562957 -0.0016127469 0.009098329 -0.010983775 0.010535909 -0.0066668605 0.013592663 -0.006867967 -0.006659961 0.005737224 -0.0028409313 -0.0057617226 -0.007661204 0.0160927
m2024 -0.018910605 0.009931176 -0.005269555 0.018866442 0.007251629 0.004364396 -0.0063566035 -0.0017755338 -0.011890026 -0.004424599 0.01261998 -0.018800212 0.004723077 0.0077842 0.014375629 -0.0066565606 0.01111623 -0.019400718 0.0011147339 0.016174944 0.007532926 -0.010504904 -0.004884046 -0.01654182 -0.000495136 0.010866884 -0.016007185 0.009860928 -0.009269397 0.011412382 0.011690675 0.005017838 -0.0030101787 -0.01827508 -0.01143485 0.0024428256 -0.020450233 0.017447116 0.0070911087 -0.002091498 0.018332824 -0.0082059745 0.00238639 0.0022904647 0.015109058 0.004762042 -0.006494563 -0.009289056 -0.0147387935 0.011331143
